{"learner":{"attributes":{"scikit_learn":"{\"_estimator_type\": \"classifier\"}"},"feature_names":[],"feature_types":[],"gradient_booster":{"model":{"gbtree_model_param":{"num_parallel_tree":"1","num_trees":"100"},"iteration_indptr":[0,1,2,3,4,5,6,7,8,9,10,11,12,13,14,15,16,17,18,19,20,21,22,23,24,25,26,27,28,29,30,31,32,33,34,35,36,37,38,39,40,41,42,43,44,45,46,47,48,49,50,51,52,53,54,55,56,57,58,59,60,61,62,63,64,65,66,67,68,69,70,71,72,73,74,75,76,77,78,79,80,81,82,83,84,85,86,87,88,89,90,91,92,93,94,95,96,97,98,99,100],"tree_info":[0,0,0,0,0,0,0,0,0,0,0,0,0,0,0,0,0,0,0,0,0,0,0,0,0,0,0,0,0,0,0,0,0,0,0,0,0,0,0,0,0,0,0,0,0,0,0,0,0,0,0,0,0,0,0,0,0,0,0,0,0,0,0,0,0,0,0,0,0,0,0,0,0,0,0,0,0,0,0,0,0,0,0,0,0,0,0,0,0,0,0,0,0,0,0,0,0,0,0,0],"trees":[{"base_weights":[1.8857343E-3,1.4047447E-1,-1.715147E0,1.626264E0,-5.28852E-4,-7.028327E-1,-1.93939E0,1.7171603E-2,-1.87539E-2,-1.6625673E0,1.4499849E-1,4.0987962E-1,-1.8731838E0,-1.6968232E0,-2.2670137E-2,1.0039318E0,-2.087878E0,2.5815392E-1,-9.798967E-1,1.3808443E-2,-2.6023477E-1,-2.0835403E-2,-4.925499E-1,8.759213E-1,-1.8488688E0,1.4890143E0,-7.8709614E-1,-1.7530635E-1,-2.1767306E0,7.4550815E-2,1.4523646E0,1.9885467E-1,-1.3845876E0,-1.012282E0,1.1328771E-2,-1.28055895E-2,5.1677884E-3,2.34807E-3,1.05556715E-2,-1.3651522E0,-2.2061454E-2,6.744437E-4,1.5893769E-2,-1.651625E-2,4.864046E-3,-1.4691733E-2,5.0636184E-1,-5.2057236E-1,-2.2274649E-2,1.1731124E0,-1.773548E-1,1.5381705E0,1.026138E0,-1.2105174E0,8.3442676E-1,-3.3655474E-1,-1.6206443E0,-1.3724648E0,5.1677884E-3,-4.0053317E-1,-1.6891172E0,1.3092948E-2,-9.794648E-3,-1.425757E-2,1.0443215E-2,-1.9992102E-2,1.2560897E0,3.0203485E-1,-3.8294783E-1,1.6420324E0,9.918062E-1,-4.175367E-1,1.2196639E0,4.864046E-3,-1.5341425E0,1.2396348E0,-8.6660534E-1,1.4742996E-1,-1.9143922E-2,-1.2039758E0,-1.9261142E0,-3.8189008E-3,-1.5262149E-2,-1.523127E-2,1.19478665E-2,6.744437E-4,-1.7745054E0,1.4708645E0,2.0841879E-1,7.615276E-1,-1.5221907E0,-1.1910807E0,-1.5519279E-1,6.9778645E-1,1.6726194E-2,-4.5174477E-1,1.628291E-2,1.1618926E-2,-1.651625E-2,1.6444586E-2,8.2222503E-1,-1.7694985E0,-3.5241717E-3,-1.6995027E-3,1.335879E0,3.7329843E-5,-1.1867114E0,-1.2666419E0,1.0412375E0,-1.527657E0,5.138769E-1,-7.6542366E-1,-2.127395E0,-7.1016616E-1,-2.0185355E-2,3.8840054E-3,1.5168177E-2,1.5531076E-2,-7.119437E-3,-8.117588E-3,9.339222E-3,-6.5405266E-3,-2.041496E-2,9.1615785E-3,-1.6628318E-2,-1.74536E-2,-4.2004822E-4,1.3092948E-2,-2.0278112E-3,1.2460628E-2,-1.139462E-2,-1.1867114E-2,1.34362895E-2,-2.0297213E-2,-3.6449358E-3,1.4145644E-2,6.8155644E-3,-1.600107E-2,-1.6995027E-3,-1.890835E-3,-1.5925989E-2,1.4246943E-2,1.7886601E-3,-8.199111E-3,-1.8423177E-2,9.810084E-3,-7.327202E-3,1.1328771E-2,-1.9616796E-2,-5.2682757E-3,-2.1852782E-2,-1.2434229E-2,6.3956426E-3],"categories":[],"categories_nodes":[],"categories_segments":[],"categories_sizes":[],"default_left":[0,0,0,0,0,0,0,0,0,0,0,0,0,0,0,0,0,0,0,0,0,0,0,0,0,0,0,0,0,0,0,0,0,0,0,0,0,0,0,0,0,0,0,0,0,0,0,0,0,0,0,0,0,0,0,0,0,0,0,0,0,0,0,0,0,0,0,0,0,0,0,0,0,0,0,0,0,0,0,0,0,0,0,0,0,0,0,0,0,0,0,0,0,0,0,0,0,0,0,0,0,0,0,0,0,0,0,0,0,0,0,0,0,0,0,0,0,0,0,0,0,0,0,0,0,0,0,0,0,0,0,0,0,0,0,0,0,0,0,0,0,0,0,0,0,0,0,0,0,0,0,0,0],"id":0,"left_children":[1,3,5,7,9,11,13,-1,-1,15,17,19,21,23,-1,25,27,29,31,-1,33,-1,35,37,39,41,43,45,47,49,51,53,55,57,-1,-1,-1,-1,-1,59,-1,-1,-1,-1,-1,-1,61,63,-1,65,67,69,71,73,75,77,79,81,-1,83,85,-1,-1,-1,-1,-1,87,89,91,93,95,97,99,-1,101,103,105,107,-1,109,111,-1,-1,-1,-1,-1,113,115,117,119,121,123,125,127,-1,129,-1,-1,-1,-1,131,133,-1,-1,135,-1,137,139,141,143,145,147,149,151,-1,-1,-1,-1,-1,-1,-1,-1,-1,-1,-1,-1,-1,-1,-1,-1,-1,-1,-1,-1,-1,-1,-1,-1,-1,-1,-1,-1,-1,-1,-1,-1,-1,-1,-1,-1,-1,-1,-1],"loss_changes":[5.49842E2,4.4792523E2,3.7811493E1,6.2204407E1,4.727946E2,4.3564552E1,7.3355103E0,0E0,0E0,1.8057416E2,2.2903503E2,1.18545E1,3.6775894E0,3.4800888E1,0E0,2.056695E1,2.2738708E1,3.581363E2,7.873892E1,0E0,1.2979687E1,0E0,3.4065762E0,3.7544727E-1,1.0885345E1,2.448368E0,6.7616873E0,7.0303636E0,9.757141E0,3.9239627E2,6.3824463E0,3.944935E1,2.977803E1,5.039672E0,0E0,0E0,0E0,0E0,0E0,1.0818871E1,0E0,0E0,0E0,0E0,0E0,0E0,7.738849E0,8.807737E0,0E0,7.213187E1,1.13825195E2,8.539795E0,1.1539822E1,8.294695E0,2.1867685E1,1.8452934E1,1.0380524E1,4.2803097E-1,0E0,2.07299E1,4.203293E0,0E0,0E0,0E0,0E0,0E0,5.7827393E1,2.9188684E2,1.4851025E2,3.1374512E0,2.9353966E1,1.2467546E1,4.568634E0,0E0,2.6539803E0,3.5881157E0,1.785317E0,2.5507044E1,0E0,2.5736275E1,1.1431961E1,0E0,0E0,0E0,0E0,0E0,5.319641E0,1.0067688E1,5.694443E1,7.60833E1,3.0276398E1,1.779489E2,1.1357175E2,3.7857478E0,0E0,1.3462474E1,0E0,0E0,0E0,0E0,2.2667461E1,2.7622528E0,0E0,0E0,2.3573303E-1,0E0,1.693727E0,2.4606056E0,3.8042068E0,6.9543915E0,5.297552E0,2.4530523E1,3.210434E0,5.3960967E0,0E0,0E0,0E0,0E0,0E0,0E0,0E0,0E0,0E0,0E0,0E0,0E0,0E0,0E0,0E0,0E0,0E0,0E0,0E0,0E0,0E0,0E0,0E0,0E0,0E0,0E0,0E0,0E0,0E0,0E0,0E0,0E0,0E0,0E0,0E0,0E0,0E0,0E0,0E0],"parents":[2147483647,0,0,1,1,2,2,3,3,4,4,5,5,6,6,9,9,10,10,11,11,12,12,13,13,15,15,16,16,17,17,18,18,20,20,22,22,23,23,24,24,25,25,26,26,27,27,28,28,29,29,30,30,31,31,32,32,33,33,39,39,46,46,47,47,49,49,50,50,51,51,52,52,53,53,54,54,55,55,56,56,57,57,59,59,60,60,66,66,67,67,68,68,69,69,70,70,71,71,72,72,74,74,75,75,76,76,77,77,79,79,80,80,86,86,87,87,88,88,89,89,90,90,91,91,92,92,93,93,95,95,100,100,101,101,104,104,106,106,107,107,108,108,109,109,110,110,111,111,112,112,113,113],"right_children":[2,4,6,8,10,12,14,-1,-1,16,18,20,22,24,-1,26,28,30,32,-1,34,-1,36,38,40,42,44,46,48,50,52,54,56,58,-1,-1,-1,-1,-1,60,-1,-1,-1,-1,-1,-1,62,64,-1,66,68,70,72,74,76,78,80,82,-1,84,86,-1,-1,-1,-1,-1,88,90,92,94,96,98,100,-1,102,104,106,108,-1,110,112,-1,-1,-1,-1,-1,114,116,118,120,122,124,126,128,-1,130,-1,-1,-1,-1,132,134,-1,-1,136,-1,138,140,142,144,146,148,150,152,-1,-1,-1,-1,-1,-1,-1,-1,-1,-1,-1,-1,-1,-1,-1,-1,-1,-1,-1,-1,-1,-1,-1,-1,-1,-1,-1,-1,-1,-1,-1,-1,-1,-1,-1,-1,-1,-1,-1],"split_conditions":[1.596115E0,-8.2600385E-1,-9.6749485E-1,-7.258785E-1,-1.1949925E0,-1.2316451E-1,-8.14459E-1,1.7171603E-2,-1.87539E-2,-6.93728E-1,1.634292E-1,-8.131739E-1,-1.0519968E0,-1.630959E0,-2.2670137E-2,-2.2883566E-1,-1.9117054E0,-4.345987E-1,-7.5139767E-1,1.3808443E-2,-2.5330305E-1,-2.0835403E-2,-2.5146487E-1,-2.5502202E-1,-3.9262015E-1,-6.973933E-1,-1.4451192E-1,-5.6273097E-1,-8.1407833E-1,-6.3009495E-1,1.3190783E0,1.4428785E0,-7.690894E-1,-2.2324143E-1,1.1328771E-2,-1.28055895E-2,5.1677884E-3,2.34807E-3,1.05556715E-2,-1.0123788E0,-2.2061454E-2,6.744437E-4,1.5893769E-2,-1.651625E-2,4.864046E-3,-1.4691733E-2,-1.3725257E-1,-8.289653E-1,-2.2274649E-2,-1.0826625E0,-5.775675E-1,1.5434663E0,5.2598643E-1,-7.4819285E-1,-7.00422E-1,1.5095077E0,-7.124847E-1,-2.5728133E-1,5.1677884E-3,-9.536555E-1,-1.6729436E0,1.3092948E-2,-9.794648E-3,-1.425757E-2,1.0443215E-2,-1.9992102E-2,-6.1135507E-1,-1.8750677E-1,-2.6885498E-1,-1.2835654E0,-9.2480436E-2,3.9379546E-1,9.844905E-1,4.864046E-3,-5.642925E-1,-2.5745162E-1,-6.91612E-1,1.4487603E0,-1.9143922E-2,-7.174172E-1,6.508781E-1,-3.8189008E-3,-1.5262149E-2,-1.523127E-2,1.19478665E-2,6.744437E-4,-1.2283555E0,-1.0816112E0,-6.9843817E-1,-7.637632E-1,-7.438627E-1,-8.9078873E-1,-1.0196322E0,-7.4102503E-1,1.6726194E-2,1.3979409E0,1.628291E-2,1.1618926E-2,-1.651625E-2,1.6444586E-2,1.3467817E0,-7.21398E-1,-3.5241717E-3,-1.6995027E-3,8.28611E-2,3.7329843E-5,-2.7280757E-1,4.2578208E-1,-7.815296E-1,-7.4646854E-1,4.0876266E-1,2.646304E0,-6.5390307E-1,-1.2885172E0,-2.0185355E-2,3.8840054E-3,1.5168177E-2,1.5531076E-2,-7.119437E-3,-8.117588E-3,9.339222E-3,-6.5405266E-3,-2.041496E-2,9.1615785E-3,-1.6628318E-2,-1.74536E-2,-4.2004822E-4,1.3092948E-2,-2.0278112E-3,1.2460628E-2,-1.139462E-2,-1.1867114E-2,1.34362895E-2,-2.0297213E-2,-3.6449358E-3,1.4145644E-2,6.8155644E-3,-1.600107E-2,-1.6995027E-3,-1.890835E-3,-1.5925989E-2,1.4246943E-2,1.7886601E-3,-8.199111E-3,-1.8423177E-2,9.810084E-3,-7.327202E-3,1.1328771E-2,-1.9616796E-2,-5.2682757E-3,-2.1852782E-2,-1.2434229E-2,6.3956426E-3],"split_indices":[5,1,3,3,7,2,3,0,0,5,5,2,1,2,0,1,2,5,2,0,0,0,0,0,2,5,4,1,1,4,2,5,4,2,0,0,0,0,0,1,0,0,0,0,0,0,1,4,0,5,7,4,1,1,4,5,1,0,0,3,6,0,0,0,0,0,1,1,7,6,5,1,3,0,3,0,4,5,0,1,5,0,0,0,0,0,2,5,5,5,5,5,5,2,0,1,0,0,0,0,4,4,0,0,0,0,6,2,4,3,2,3,2,2,0,0,0,0,0,0,0,0,0,0,0,0,0,0,0,0,0,0,0,0,0,0,0,0,0,0,0,0,0,0,0,0,0,0,0,0,0,0,0],"split_type":[0,0,0,0,0,0,0,0,0,0,0,0,0,0,0,0,0,0,0,0,0,0,0,0,0,0,0,0,0,0,0,0,0,0,0,0,0,0,0,0,0,0,0,0,0,0,0,0,0,0,0,0,0,0,0,0,0,0,0,0,0,0,0,0,0,0,0,0,0,0,0,0,0,0,0,0,0,0,0,0,0,0,0,0,0,0,0,0,0,0,0,0,0,0,0,0,0,0,0,0,0,0,0,0,0,0,0,0,0,0,0,0,0,0,0,0,0,0,0,0,0,0,0,0,0,0,0,0,0,0,0,0,0,0,0,0,0,0,0,0,0,0,0,0,0,0,0,0,0,0,0,0,0],"sum_hessian":[2.3086228E3,2.1370508E3,1.7157193E2,1.8431726E2,1.9527336E3,3.1863358E1,1.3970857E2,1.8015051E2,4.1667466E0,1.5637555E2,1.796358E3,1.6666986E1,1.519637E1,8.382514E1,5.5883427E1,2.1323938E1,1.3505162E2,1.6328745E3,1.6348354E2,6.3726716E0,1.0294315E1,1.2745343E1,2.4510274E0,4.4118495E0,7.941329E1,1.691209E1,4.4118495E0,6.1275687E0,1.2892404E2,1.4162037E3,2.1667082E2,4.191257E1,1.2157096E2,6.862877E0,3.4314384E0,1.2255137E0,1.2255137E0,1.4706165E0,2.941233E0,3.5785E1,4.362829E1,1.2255137E0,1.5686576E1,2.4510274E0,1.960822E0,1.7157192E0,4.4118495E0,4.1667466E0,1.247573E2,2.6348544E2,1.1527183E3,1.781897E2,3.8481133E1,1.2745343E1,2.9167227E1,2.2794556E1,9.8776405E1,5.6373634E0,1.2255137E0,9.559008E0,2.6225994E1,2.941233E0,1.4706165E0,2.6961303E0,1.4706165E0,6.1275687E0,2.5735788E2,3.4583997E2,8.0687823E2,1.4804205E2,3.0147638E1,4.4118495E0,3.4069283E1,1.960822E0,1.0784521E1,2.3774967E1,5.3922606E0,1.8137604E1,4.6569524E0,4.387339E1,5.4903015E1,1.2255137E0,4.4118495E0,5.6373634E0,3.921644E0,1.2255137E0,2.500048E1,2.132394E2,4.4118496E1,2.76721E2,6.911897E1,1.7647398E2,6.304043E2,5.3922606E0,1.426498E2,9.313905E0,2.0833735E1,1.960822E0,2.4510274E0,1.4951267E1,1.9118015E1,8.578596E0,2.2059247E0,1.4706165E0,2.230435E1,1.7157192E0,3.6765413E0,6.862877E0,1.1274727E1,3.7010513E1,6.862877E0,8.823699E0,4.6079315E1,5.3922606E0,1.960822E1,9.068802E0,2.041706E2,1.7647398E1,2.6471096E1,2.6961302E1,2.497597E2,2.67162E1,4.2402775E1,3.210846E1,1.4436552E2,4.093216E1,5.894721E2,2.941233E0,2.4510274E0,2.4510274E0,6.862877E0,3.6765413E0,1.5441473E1,6.862877E0,1.7157192E0,1.8872911E1,3.4314384E0,2.2059247E0,1.4706165E0,1.960822E0,4.902055E0,7.3530827E0,3.921644E0,1.250024E1,2.4510275E1,5.1471577E0,1.7157192E0,3.4314384E0,5.3922606E0,1.960822E0,4.4118496E1,3.921644E0,1.4706165E0],"tree_param":{"num_deleted":"0","num_feature":"9","num_nodes":"153","size_leaf_vector":"1"}},{"base_weights":[1.7942294E-3,1.3905956E-1,-1.6946194E0,1.6138003E0,-5.733133E-4,-6.957206E-1,-1.9155095E0,1.7042948E-2,-1.8564412E-2,-1.6425129E0,1.4354485E-1,4.0663886E-1,-1.8519418E0,-1.6765504E0,-2.2379985E-2,9.9554473E-1,-2.0615258E0,2.5568992E-1,-9.695128E-1,1.3712641E-2,-2.5777447E-1,-2.058822E-2,-4.8965502E-1,8.7034005E-1,-1.8265917E0,1.4780306E0,-7.807687E-1,-1.7514396E-1,-2.1488898E0,7.379188E-2,1.4410881E0,1.9646488E-1,-1.3689499E0,-1.0027794E0,1.1255201E-2,-1.2722727E-2,5.1414054E-3,2.295207E-3,1.0510412E-2,-1.349925E0,-2.1782157E0,6.7076524E-4,1.57784E-2,-1.637268E-2,4.834041E-3,-1.4580349E-2,5.022433E-1,-5.14976E-1,-2.1988297E-2,1.1633867E0,-1.7558074E-1,1.5263859E0,1.017688E0,-1.1983478E0,8.2713497E-1,-3.3395422E-1,-1.6016393E0,-1.35959E0,5.1414054E-3,-3.9663795E-1,-1.6695405E0,-2.2190703E-2,-9.590975E-3,1.30135175E-2,-9.7285E-3,-1.4120774E-2,1.0390297E-2,-1.9774033E-2,1.2458808E0,2.9908693E-1,-3.7894976E-1,1.629624E0,9.837999E-1,-4.140817E-1,1.2100338E0,4.834041E-3,-1.5184377E0,1.2300733E0,-8.6000395E-1,1.4590955E-1,-1.894568E-2,-1.1906035E0,-1.902687E0,-3.7967553E-3,-1.511196E-2,-1.5075174E-2,1.1868876E-2,6.7076524E-4,-1.7537761E0,1.4593216E0,2.0659079E-1,7.5474167E-1,-1.5043063E0,-1.1773065E0,-1.5363584E-1,6.930673E-1,1.6599964E-2,-4.468394E-1,1.6163826E-2,1.1554728E-2,-1.637268E-2,1.632682E-2,8.150529E-1,-1.7506826E0,-3.4987368E-3,-1.6891474E-3,1.3257961E0,3.70949E-5,-1.177323E0,-1.2544516E0,1.0334871E0,-1.5100696E0,5.094119E-1,-7.5791883E-1,-2.1008031E0,-7.034132E-1,-1.9941255E-2,3.8509285E-3,1.5049999E-2,1.5416798E-2,-7.0441165E-3,-8.030595E-3,9.258506E-3,-6.4718043E-3,-2.0160899E-2,9.084256E-3,-1.6426088E-2,-1.7243117E-2,-4.158312E-4,1.30135175E-2,-2.0130042E-3,1.238787E-2,-1.1279686E-2,-1.1758695E-2,1.33343E-2,-2.0071747E-2,-3.6207428E-3,6.7239986E-3,1.4047104E-2,-1.5867058E-2,-1.6891474E-3,-1.8303063E-3,-1.5793456E-2,1.4147083E-2,1.7747632E-3,-8.114646E-3,-1.820225E-2,9.7393785E-3,-7.276232E-3,1.1255201E-2,-1.9407634E-2,-5.2308408E-3,-2.1576626E-2,-1.2318343E-2,6.3610147E-3],"categories":[],"categories_nodes":[],"categories_segments":[],"categories_sizes":[],"default_left":[0,0,0,0,0,0,0,0,0,0,0,0,0,0,0,0,0,0,0,0,0,0,0,0,0,0,0,0,0,0,0,0,0,0,0,0,0,0,0,0,0,0,0,0,0,0,0,0,0,0,0,0,0,0,0,0,0,0,0,0,0,0,0,0,0,0,0,0,0,0,0,0,0,0,0,0,0,0,0,0,0,0,0,0,0,0,0,0,0,0,0,0,0,0,0,0,0,0,0,0,0,0,0,0,0,0,0,0,0,0,0,0,0,0,0,0,0,0,0,0,0,0,0,0,0,0,0,0,0,0,0,0,0,0,0,0,0,0,0,0,0,0,0,0,0,0,0,0,0,0,0,0,0,0,0],"id":1,"left_children":[1,3,5,7,9,11,13,-1,-1,15,17,19,21,23,-1,25,27,29,31,-1,33,-1,35,37,39,41,43,45,47,49,51,53,55,57,-1,-1,-1,-1,-1,59,61,-1,-1,-1,-1,-1,63,65,-1,67,69,71,73,75,77,79,81,83,-1,85,87,-1,-1,-1,-1,-1,-1,-1,89,91,93,95,97,99,101,-1,103,105,107,109,-1,111,113,-1,-1,-1,-1,-1,115,117,119,121,123,125,127,129,-1,131,-1,-1,-1,-1,133,135,-1,-1,137,-1,139,141,143,145,147,149,151,153,-1,-1,-1,-1,-1,-1,-1,-1,-1,-1,-1,-1,-1,-1,-1,-1,-1,-1,-1,-1,-1,-1,-1,-1,-1,-1,-1,-1,-1,-1,-1,-1,-1,-1,-1,-1,-1,-1,-1],"loss_changes":[5.380193E2,4.4016498E2,3.683017E1,6.122397E1,4.625327E2,4.267534E1,7.1187134E0,0E0,0E0,1.763941E2,2.2454669E2,1.1670523E1,3.5669708E0,3.4076782E1,0E0,2.025941E1,2.210736E1,3.520549E2,7.696811E1,0E0,1.2771628E1,0E0,3.366199E0,3.84871E-1,1.0569855E1,2.4116058E0,6.6557217E0,6.926172E0,9.499939E0,3.852283E2,6.2916565E0,3.8725327E1,2.903653E1,4.9596667E0,0E0,0E0,0E0,0E0,0E0,1.0565079E1,1.0093689E-1,0E0,0E0,0E0,0E0,0E0,7.6411333E0,8.675147E0,0E0,7.0875336E1,1.1150959E2,8.412323E0,1.1358303E1,8.143759E0,2.1541426E1,1.8101166E1,1.0107147E1,4.137497E-1,0E0,2.0372498E1,4.1089783E0,0E0,0E0,0E0,0E0,0E0,0E0,0E0,5.6906616E1,2.8601068E2,1.452159E2,3.079193E0,2.887243E1,1.2286135E1,4.513817E0,0E0,2.5913582E0,3.5361671E0,1.7577219E0,2.5077118E1,0E0,2.5177834E1,1.1118195E1,0E0,0E0,0E0,0E0,0E0,5.1760864E0,9.910858E0,5.5946045E1,7.4690735E1,2.9515762E1,1.7400638E2,1.1107769E2,3.7369244E0,0E0,1.3246326E1,0E0,0E0,0E0,0E0,2.2306244E1,2.6918488E0,0E0,0E0,2.549591E-1,0E0,1.6647038E0,2.451868E0,3.7493076E0,6.7752686E0,5.223815E0,2.4089296E1,3.1065521E0,5.3119793E0,0E0,0E0,0E0,0E0,0E0,0E0,0E0,0E0,0E0,0E0,0E0,0E0,0E0,0E0,0E0,0E0,0E0,0E0,0E0,0E0,0E0,0E0,0E0,0E0,0E0,0E0,0E0,0E0,0E0,0E0,0E0,0E0,0E0,0E0,0E0,0E0,0E0,0E0,0E0],"parents":[2147483647,0,0,1,1,2,2,3,3,4,4,5,5,6,6,9,9,10,10,11,11,12,12,13,13,15,15,16,16,17,17,18,18,20,20,22,22,23,23,24,24,25,25,26,26,27,27,28,28,29,29,30,30,31,31,32,32,33,33,39,39,40,40,46,46,47,47,49,49,50,50,51,51,52,52,53,53,54,54,55,55,56,56,57,57,59,59,60,60,68,68,69,69,70,70,71,71,72,72,73,73,74,74,76,76,77,77,78,78,79,79,81,81,82,82,88,88,89,89,90,90,91,91,92,92,93,93,94,94,95,95,97,97,102,102,103,103,106,106,108,108,109,109,110,110,111,111,112,112,113,113,114,114,115,115],"right_children":[2,4,6,8,10,12,14,-1,-1,16,18,20,22,24,-1,26,28,30,32,-1,34,-1,36,38,40,42,44,46,48,50,52,54,56,58,-1,-1,-1,-1,-1,60,62,-1,-1,-1,-1,-1,64,66,-1,68,70,72,74,76,78,80,82,84,-1,86,88,-1,-1,-1,-1,-1,-1,-1,90,92,94,96,98,100,102,-1,104,106,108,110,-1,112,114,-1,-1,-1,-1,-1,116,118,120,122,124,126,128,130,-1,132,-1,-1,-1,-1,134,136,-1,-1,138,-1,140,142,144,146,148,150,152,154,-1,-1,-1,-1,-1,-1,-1,-1,-1,-1,-1,-1,-1,-1,-1,-1,-1,-1,-1,-1,-1,-1,-1,-1,-1,-1,-1,-1,-1,-1,-1,-1,-1,-1,-1,-1,-1,-1,-1],"split_conditions":[1.596115E0,-8.2600385E-1,-9.6749485E-1,-7.258785E-1,-1.1949925E0,-1.2316451E-1,-8.14459E-1,1.7042948E-2,-1.8564412E-2,-6.93728E-1,1.634292E-1,-8.131739E-1,-1.0519968E0,-1.630959E0,-2.2379985E-2,-2.2883566E-1,-1.9117054E0,-4.345987E-1,-7.5139767E-1,1.3712641E-2,-2.5330305E-1,-2.058822E-2,-2.5146487E-1,-8.420712E-1,-3.9262015E-1,-6.973933E-1,-1.4451192E-1,-5.6273097E-1,-8.1008524E-1,-6.3009495E-1,1.3190783E0,1.4428785E0,-7.690894E-1,-2.2324143E-1,1.1255201E-2,-1.2722727E-2,5.1414054E-3,2.295207E-3,1.0510412E-2,-1.0123788E0,1.7344932E-1,6.7076524E-4,1.57784E-2,-1.637268E-2,4.834041E-3,-1.4580349E-2,-1.3725257E-1,-8.289653E-1,-2.1988297E-2,-1.0826625E0,-5.775675E-1,1.5434663E0,5.2598643E-1,-7.4819285E-1,-7.00422E-1,1.5095077E0,-7.124847E-1,-2.5728133E-1,5.1414054E-3,-9.536555E-1,-1.6729436E0,-2.2190703E-2,-9.590975E-3,1.30135175E-2,-9.7285E-3,-1.4120774E-2,1.0390297E-2,-1.9774033E-2,-6.1135507E-1,-1.8750677E-1,-2.6885498E-1,-1.2835654E0,-9.2480436E-2,3.9379546E-1,9.844905E-1,4.834041E-3,-5.642925E-1,-2.5745162E-1,-6.91612E-1,1.4487603E0,-1.894568E-2,-7.174172E-1,6.508781E-1,-3.7967553E-3,-1.511196E-2,-1.5075174E-2,1.1868876E-2,6.7076524E-4,-1.2283555E0,-1.0816112E0,-6.9843817E-1,-7.637632E-1,-7.438627E-1,-8.9078873E-1,-1.0196322E0,-7.4102503E-1,1.6599964E-2,1.3979409E0,1.6163826E-2,1.1554728E-2,-1.637268E-2,1.632682E-2,1.3467817E0,-7.21398E-1,-3.4987368E-3,-1.6891474E-3,-7.5570184E-1,3.70949E-5,-2.7280757E-1,-7.356278E-1,-7.815296E-1,-7.4646854E-1,4.0876266E-1,2.646304E0,-6.5390307E-1,-1.2885172E0,-1.9941255E-2,3.8509285E-3,1.5049999E-2,1.5416798E-2,-7.0441165E-3,-8.030595E-3,9.258506E-3,-6.4718043E-3,-2.0160899E-2,9.084256E-3,-1.6426088E-2,-1.7243117E-2,-4.158312E-4,1.30135175E-2,-2.0130042E-3,1.238787E-2,-1.1279686E-2,-1.1758695E-2,1.33343E-2,-2.0071747E-2,-3.6207428E-3,6.7239986E-3,1.4047104E-2,-1.5867058E-2,-1.6891474E-3,-1.8303063E-3,-1.5793456E-2,1.4147083E-2,1.7747632E-3,-8.114646E-3,-1.820225E-2,9.7393785E-3,-7.276232E-3,1.1255201E-2,-1.9407634E-2,-5.2308408E-3,-2.1576626E-2,-1.2318343E-2,6.3610147E-3],"split_indices":[5,1,3,3,7,2,3,0,0,5,5,2,1,2,0,1,2,5,2,0,0,0,0,1,2,5,4,1,3,4,2,5,4,2,0,0,0,0,0,1,0,0,0,0,0,0,1,4,0,5,7,4,1,1,4,5,1,0,0,3,6,0,0,0,0,0,0,0,1,1,7,6,5,1,3,0,3,0,4,5,0,1,5,0,0,0,0,0,2,5,5,5,5,5,5,2,0,1,0,0,0,0,4,4,0,0,3,0,6,3,4,3,2,3,2,2,0,0,0,0,0,0,0,0,0,0,0,0,0,0,0,0,0,0,0,0,0,0,0,0,0,0,0,0,0,0,0,0,0,0,0,0,0,0,0],"split_type":[0,0,0,0,0,0,0,0,0,0,0,0,0,0,0,0,0,0,0,0,0,0,0,0,0,0,0,0,0,0,0,0,0,0,0,0,0,0,0,0,0,0,0,0,0,0,0,0,0,0,0,0,0,0,0,0,0,0,0,0,0,0,0,0,0,0,0,0,0,0,0,0,0,0,0,0,0,0,0,0,0,0,0,0,0,0,0,0,0,0,0,0,0,0,0,0,0,0,0,0,0,0,0,0,0,0,0,0,0,0,0,0,0,0,0,0,0,0,0,0,0,0,0,0,0,0,0,0,0,0,0,0,0,0,0,0,0,0,0,0,0,0,0,0,0,0,0,0,0,0,0,0,0,0,0],"sum_hessian":[2.308484E3,2.1365251E3,1.7195891E2,1.8388243E2,1.9526426E3,3.1891266E1,1.4006764E2,1.797051E2,4.1773376E0,1.5672107E2,1.7959215E3,1.665778E1,1.5233486E1,8.4013695E1,5.6053955E1,2.1292162E1,1.3542891E2,1.6322373E3,1.6368423E2,6.36007E0,1.0297709E1,1.2781203E1,2.4522824E0,4.406942E0,7.960675E1,1.687615E1,4.416012E0,6.1274843E0,1.2930142E2,1.4160138E3,2.162235E2,4.189594E1,1.2178829E2,6.8718157E0,3.4258943E0,1.2276628E0,1.2246196E0,1.468693E0,2.938249E0,3.5848766E1,4.3757984E1,1.225398E0,1.5650752E1,2.4565356E0,1.9594762E0,1.7191598E0,4.4083242E0,4.1703267E0,1.25131096E2,2.630393E2,1.1529745E3,1.7779918E2,3.842432E1,1.2764777E1,2.913116E1,2.2801785E1,9.898651E1,5.647196E0,1.2246196E0,9.564027E0,2.6284739E1,4.15455E1,2.2124825E0,2.935725E0,1.4725993E0,2.7018971E0,1.4684293E0,6.144136E0,2.5689517E2,3.4567978E2,8.0729474E2,1.4769394E2,3.0105234E1,4.414107E0,3.4010216E1,1.9594762E0,1.0805301E1,2.3733755E1,5.3974075E0,1.8132757E1,4.6690273E0,4.394333E1,5.504318E1,1.2261646E0,4.421031E0,5.6490726E0,3.9149547E0,1.225398E0,2.5059341E1,2.1278996E2,4.4105198E1,2.7641965E2,6.926015E1,1.7675874E2,6.3053595E2,5.3874454E0,1.423065E2,9.320275E0,2.078496E1,1.9575711E0,2.4565356E0,1.4915908E1,1.9094307E1,8.598294E0,2.2070065E0,1.4709654E0,2.2262789E1,1.7157104E0,3.681697E0,6.8740273E0,1.1258729E1,3.70859E1,6.8574314E0,8.83247E0,4.6210712E1,5.3976116E0,1.966173E1,9.06384E0,2.0372614E2,1.760804E1,2.6497158E1,2.6991516E1,2.4942812E2,2.6740387E1,4.2519756E1,3.2066654E1,1.446921E2,4.1029205E1,5.895068E2,2.935725E0,2.4517207E0,2.4466636E0,6.873612E0,3.6825256E0,1.541178E1,6.8817053E0,1.7165892E0,3.4250045E0,1.8837784E1,2.2107317E0,1.4709654E0,1.9632072E0,4.91082E0,7.33807E0,3.9206593E0,1.2514387E1,2.457151E1,5.139974E0,1.717457E0,3.4258943E0,5.406575E0,1.962255E0,4.4248455E1,3.928326E0,1.469286E0],"tree_param":{"num_deleted":"0","num_feature":"9","num_nodes":"155","size_leaf_vector":"1"}},{"base_weights":[1.7005184E-3,1.3767062E-1,-1.6747764E0,1.601633E0,-6.1662873E-4,-6.887697E-1,-1.8924644E0,1.691736E-2,-1.8379664E-2,-1.6230843E0,1.4211549E-1,4.034561E-1,-1.8313019E0,-1.6570069E0,-2.209979E-2,9.8731816E-1,-2.0360384E0,2.5326452E-1,-9.593775E-1,1.3618459E-2,-2.5535065E-1,-2.0348527E-2,-4.867898E-1,8.648083E-1,-1.8051308E0,1.4672654E0,-7.7454144E-1,-1.7498131E-1,-2.121978E0,7.304451E-2,1.4300547E0,1.9411756E-1,-1.3537161E0,-9.934386E-1,1.1182583E-2,-1.2640972E-2,5.115194E-3,1.0452647E-2,2.2662547E-3,-1.3350753E0,-2.151497E-2,6.6710636E-4,1.5665447E-2,-1.623203E-2,4.804252E-3,-1.4470832E-2,4.981872E-1,-5.102756E-1,-2.1711223E-2,1.1538428E0,-1.73832E-1,1.5148611E0,1.0094008E0,-1.1864367E0,8.1995517E-1,-3.3139822E-1,-1.5831518E0,-1.3469545E0,5.115194E-3,-3.928119E-1,-1.6504834E0,1.29353E-2,-9.663084E-3,-1.3999021E-2,1.0337959E-2,-1.9562028E-2,1.2358599E0,2.9618397E-1,-3.75008E-1,1.6174945E0,9.7595334E-1,-4.1068348E-1,1.2005876E0,4.804252E-3,-1.5030955E0,1.2206606E0,-8.534913E-1,1.4441702E-1,-1.8752567E-2,-1.3676198E0,-2.1796683E-2,-3.774755E-3,-1.49648255E-2,-1.4922332E-2,1.1790981E-2,6.6710636E-4,-1.7336113E0,1.4480004E0,2.0479149E-1,7.480399E-1,-1.4868602E0,-1.1638488E0,-1.5209627E-1,6.884062E-1,1.6476618E-2,-4.4201133E-1,1.6047338E-2,1.1491354E-2,-1.623203E-2,1.6211659E-2,8.080005E-1,-1.7323499E0,-3.4735037E-3,-1.6788559E-3,1.3158753E0,3.6859958E-5,-1.1680827E0,-1.2424701E0,1.0258474E0,-1.4996717E0,1.1182583E-2,-6.9676054E-1,-1.97044E-2,3.818147E-3,1.4934153E-2,1.5304832E-2,-6.9698268E-3,-7.944867E-3,9.17877E-3,-6.4039915E-3,-1.991458E-2,9.007852E-3,-1.6228922E-2,-1.703809E-2,-4.116562E-4,1.29353E-2,-1.998307E-3,1.2316147E-2,-1.116666E-2,-1.1651994E-2,1.3234006E-2,-1.9852705E-2,-3.5967284E-3,6.67712E-3,1.3941674E-2,-1.5735632E-2,-1.6788559E-3,-1.8178797E-3,-1.5635481E-2,1.4048989E-2,1.7609766E-3,-1.1775232E-2,-1.9503346E-2,-1.2204384E-2,6.3266456E-3],"categories":[],"categories_nodes":[],"categories_segments":[],"categories_sizes":[],"default_left":[0,0,0,0,0,0,0,0,0,0,0,0,0,0,0,0,0,0,0,0,0,0,0,0,0,0,0,0,0,0,0,0,0,0,0,0,0,0,0,0,0,0,0,0,0,0,0,0,0,0,0,0,0,0,0,0,0,0,0,0,0,0,0,0,0,0,0,0,0,0,0,0,0,0,0,0,0,0,0,0,0,0,0,0,0,0,0,0,0,0,0,0,0,0,0,0,0,0,0,0,0,0,0,0,0,0,0,0,0,0,0,0,0,0,0,0,0,0,0,0,0,0,0,0,0,0,0,0,0,0,0,0,0,0,0,0,0,0,0,0,0,0,0,0,0],"id":2,"left_children":[1,3,5,7,9,11,13,-1,-1,15,17,19,21,23,-1,25,27,29,31,-1,33,-1,35,37,39,41,43,45,47,49,51,53,55,57,-1,-1,-1,-1,-1,59,-1,-1,-1,-1,-1,-1,61,63,-1,65,67,69,71,73,75,77,79,81,-1,83,85,-1,-1,-1,-1,-1,87,89,91,93,95,97,99,-1,101,103,105,107,-1,109,-1,-1,-1,-1,-1,-1,111,113,115,117,119,121,123,125,-1,127,-1,-1,-1,-1,129,131,-1,-1,133,-1,135,137,139,141,-1,143,-1,-1,-1,-1,-1,-1,-1,-1,-1,-1,-1,-1,-1,-1,-1,-1,-1,-1,-1,-1,-1,-1,-1,-1,-1,-1,-1,-1,-1,-1,-1,-1,-1],"loss_changes":[5.265985E2,4.32595E2,3.589554E1,6.0266266E1,4.52595E2,4.181334E1,6.908661E0,0E0,0E0,1.7236288E2,2.20172E2,1.1490166E1,3.4614792E0,3.338069E1,0E0,1.995819E1,2.1503723E1,3.4611926E2,7.525282E1,0E0,1.2567708E1,0E0,3.326439E0,3.852272E-1,1.0279755E1,2.375885E0,6.552142E0,6.823977E0,9.23999E0,3.7822357E2,6.203369E0,3.8017788E1,2.8322327E1,4.8814473E0,0E0,0E0,0E0,0E0,0E0,1.032029E1,0E0,0E0,0E0,0E0,0E0,0E0,7.545004E0,8.55308E0,0E0,6.964847E1,1.0924571E2,8.288147E0,1.1180466E1,7.9969597E0,2.1221191E1,1.7759169E1,9.8988495E0,4.0006256E-1,0E0,2.0023191E1,4.018173E0,0E0,0E0,0E0,0E0,0E0,5.6007477E1,2.802806E2,1.420228E2,3.0231323E0,2.8402018E1,1.2108427E1,4.460518E0,0E0,2.5312862E0,3.4853325E0,1.7307386E0,2.4655947E1,0E0,2.6714935E1,0E0,0E0,0E0,0E0,0E0,0E0,5.0393906E0,9.759003E0,5.4969864E1,7.332602E1,2.8790161E1,1.7018155E2,1.0865914E2,3.688996E0,0E0,1.3034561E1,0E0,0E0,0E0,0E0,2.195219E1,2.6245766E0,0E0,0E0,2.4740219E-1,0E0,1.6364975E0,2.4009504E0,3.6957836E0,8.280289E0,0E0,5.229556E0,0E0,0E0,0E0,0E0,0E0,0E0,0E0,0E0,0E0,0E0,0E0,0E0,0E0,0E0,0E0,0E0,0E0,0E0,0E0,0E0,0E0,0E0,0E0,0E0,0E0,0E0,0E0,0E0,0E0,0E0,0E0,0E0,0E0],"parents":[2147483647,0,0,1,1,2,2,3,3,4,4,5,5,6,6,9,9,10,10,11,11,12,12,13,13,15,15,16,16,17,17,18,18,20,20,22,22,23,23,24,24,25,25,26,26,27,27,28,28,29,29,30,30,31,31,32,32,33,33,39,39,46,46,47,47,49,49,50,50,51,51,52,52,53,53,54,54,55,55,56,56,57,57,59,59,60,60,66,66,67,67,68,68,69,69,70,70,71,71,72,72,74,74,75,75,76,76,77,77,79,79,86,86,87,87,88,88,89,89,90,90,91,91,92,92,93,93,95,95,100,100,101,101,104,104,106,106,107,107,108,108,109,109,111,111],"right_children":[2,4,6,8,10,12,14,-1,-1,16,18,20,22,24,-1,26,28,30,32,-1,34,-1,36,38,40,42,44,46,48,50,52,54,56,58,-1,-1,-1,-1,-1,60,-1,-1,-1,-1,-1,-1,62,64,-1,66,68,70,72,74,76,78,80,82,-1,84,86,-1,-1,-1,-1,-1,88,90,92,94,96,98,100,-1,102,104,106,108,-1,110,-1,-1,-1,-1,-1,-1,112,114,116,118,120,122,124,126,-1,128,-1,-1,-1,-1,130,132,-1,-1,134,-1,136,138,140,142,-1,144,-1,-1,-1,-1,-1,-1,-1,-1,-1,-1,-1,-1,-1,-1,-1,-1,-1,-1,-1,-1,-1,-1,-1,-1,-1,-1,-1,-1,-1,-1,-1,-1,-1],"split_conditions":[1.596115E0,-8.2600385E-1,-9.6749485E-1,-7.258785E-1,-1.1949925E0,-1.2316451E-1,-8.14459E-1,1.691736E-2,-1.8379664E-2,-6.93728E-1,1.634292E-1,-8.131739E-1,-1.0519968E0,-1.630959E0,-2.209979E-2,-2.2883566E-1,-1.9117054E0,-4.345987E-1,-7.5139767E-1,1.3618459E-2,-2.5330305E-1,-2.0348527E-2,-2.5146487E-1,-1.6994327E0,-3.9262015E-1,-6.973933E-1,-1.4451192E-1,-5.6273097E-1,-8.1008524E-1,-6.3009495E-1,1.3190783E0,1.4428785E0,-7.690894E-1,-2.2324143E-1,1.1182583E-2,-1.2640972E-2,5.115194E-3,1.0452647E-2,2.2662547E-3,-1.0123788E0,-2.151497E-2,6.6710636E-4,1.5665447E-2,-1.623203E-2,4.804252E-3,-1.4470832E-2,-1.3725257E-1,-8.289653E-1,-2.1711223E-2,-1.0826625E0,-5.775675E-1,1.5434663E0,5.2598643E-1,-7.4819285E-1,-7.00422E-1,1.5095077E0,2.646304E0,-2.5728133E-1,5.115194E-3,-9.536555E-1,-1.6729436E0,1.29353E-2,-9.663084E-3,-1.3999021E-2,1.0337959E-2,-1.9562028E-2,-6.1135507E-1,-1.8750677E-1,-2.6885498E-1,-1.2835654E0,-9.2480436E-2,3.9379546E-1,9.844905E-1,4.804252E-3,-5.642925E-1,-2.5745162E-1,-6.91612E-1,1.4487603E0,-1.8752567E-2,-6.7021817E-1,-2.1796683E-2,-3.774755E-3,-1.49648255E-2,-1.4922332E-2,1.1790981E-2,6.6710636E-4,-1.2283555E0,-1.0816112E0,-6.9843817E-1,-7.637632E-1,-7.438627E-1,-8.9078873E-1,-1.0196322E0,-7.4102503E-1,1.6476618E-2,1.3979409E0,1.6047338E-2,1.1491354E-2,-1.623203E-2,1.6211659E-2,1.3467817E0,-7.21398E-1,-3.4735037E-3,-1.6788559E-3,-7.5570184E-1,3.6859958E-5,-2.7280757E-1,-7.356278E-1,-7.815296E-1,-7.124847E-1,1.1182583E-2,-1.2885172E0,-1.97044E-2,3.818147E-3,1.4934153E-2,1.5304832E-2,-6.9698268E-3,-7.944867E-3,9.17877E-3,-6.4039915E-3,-1.991458E-2,9.007852E-3,-1.6228922E-2,-1.703809E-2,-4.116562E-4,1.29353E-2,-1.998307E-3,1.2316147E-2,-1.116666E-2,-1.1651994E-2,1.3234006E-2,-1.9852705E-2,-3.5967284E-3,6.67712E-3,1.3941674E-2,-1.5735632E-2,-1.6788559E-3,-1.8178797E-3,-1.5635481E-2,1.4048989E-2,1.7609766E-3,-1.1775232E-2,-1.9503346E-2,-1.2204384E-2,6.3266456E-3],"split_indices":[5,1,3,3,7,2,3,0,0,5,5,2,1,2,0,1,2,5,2,0,0,0,0,2,2,5,4,1,3,4,2,5,4,2,0,0,0,0,0,1,0,0,0,0,0,0,1,4,0,5,7,4,1,1,4,5,3,0,0,3,6,0,0,0,0,0,1,1,7,6,5,1,3,0,3,0,4,5,0,1,0,0,0,0,0,0,2,5,5,5,5,5,5,2,0,1,0,0,0,0,4,4,0,0,3,0,6,3,4,1,0,2,0,0,0,0,0,0,0,0,0,0,0,0,0,0,0,0,0,0,0,0,0,0,0,0,0,0,0,0,0,0,0,0,0],"split_type":[0,0,0,0,0,0,0,0,0,0,0,0,0,0,0,0,0,0,0,0,0,0,0,0,0,0,0,0,0,0,0,0,0,0,0,0,0,0,0,0,0,0,0,0,0,0,0,0,0,0,0,0,0,0,0,0,0,0,0,0,0,0,0,0,0,0,0,0,0,0,0,0,0,0,0,0,0,0,0,0,0,0,0,0,0,0,0,0,0,0,0,0,0,0,0,0,0,0,0,0,0,0,0,0,0,0,0,0,0,0,0,0,0,0,0,0,0,0,0,0,0,0,0,0,0,0,0,0,0,0,0,0,0,0,0,0,0,0,0,0,0,0,0,0,0],"sum_hessian":[2.3081304E3,2.135823E3,1.7230731E2,1.8342569E2,1.9523972E3,3.1914806E1,1.403925E2,1.7923856E2,4.187135E0,1.5703008E2,1.7953672E3,1.6647337E1,1.5267469E1,8.418363E1,5.6208878E1,2.1258442E1,1.3577164E2,1.6315059E3,1.6386128E2,6.346995E0,1.0300343E1,1.2814051E1,2.4534185E0,4.401947E0,7.9781685E1,1.6838642E1,4.4197993E0,6.12692E0,1.2964471E2,1.4157521E3,2.1575386E2,4.1875977E1,1.2198531E2,6.88016E0,3.4201822E0,1.2297037E0,1.2237148E0,2.9343393E0,1.4676079E0,3.5906837E1,4.3874847E1,1.2252825E0,1.561336E1,2.4616823E0,1.9581171E0,1.7224005E0,4.4045196E0,4.1729937E0,1.2547172E2,2.6257104E2,1.153181E3,1.7738979E2,3.8364075E1,1.2782628E1,2.9093348E1,2.2806906E1,9.9178406E1,5.656445E0,1.2237148E0,9.568101E0,2.6338737E1,2.930017E0,1.4745026E0,2.7068148E0,1.4661788E0,6.159376E0,2.5641165E2,3.4550073E2,8.076803E2,1.4732982E2,3.0059965E1,4.415898E0,3.3948177E1,1.9581171E0,1.0824512E1,2.3691103E1,5.402245E0,1.8126728E1,4.6801777E0,7.5273445E1,2.3904959E1,1.2268033E0,4.4296417E0,5.66005E0,3.9080505E0,1.2252825E0,2.5113455E1,2.1232233E2,4.4089325E1,2.7610992E2,6.939082E1,1.7702002E2,6.306603E2,5.382421E0,1.419474E2,9.325972E0,2.0733994E1,1.9542156E0,2.4616823E0,1.4878937E1,1.906924E1,8.616444E0,2.2080674E0,1.47131E0,2.2219793E1,1.7157013E0,3.6865435E0,6.884578E0,1.124215E1,7.1853264E1,3.4201822E0,5.402597E0,1.9710857E1,9.058857E0,2.0326347E2,1.7567005E1,2.652232E1,2.7020578E1,2.4908934E2,2.6763788E1,4.2627033E1,3.202396E1,1.4499606E2,4.1119263E1,5.89541E2,2.930017E0,2.4524043E0,2.442149E0,6.883823E0,3.6882136E0,1.5381026E1,6.899001E0,1.7174426E0,3.421597E0,1.8798197E1,2.2152336E0,1.47131E0,1.963693E0,4.9208856E0,7.322474E0,3.9196765E0,4.4007877E1,2.7845387E1,3.934662E0,1.4679346E0],"tree_param":{"num_deleted":"0","num_feature":"9","num_nodes":"145","size_leaf_vector":"1"}},{"base_weights":[1.6200056E-3,1.363137E-1,-1.6554488E0,1.5897509E0,-6.5074966E-4,-8.928762E-1,-1.9332697E0,1.6794724E-2,-1.819949E-2,-1.604253E0,1.40718E-1,-1.4775281E0,1.5551513E-2,-1.7013024E0,-2.1829063E-2,9.792471E-1,-2.0113742E0,2.5087652E-1,-9.4934547E-1,1.5326367E-1,-1.8711947E0,8.5933095E-1,-1.8858757E0,1.4567118E0,-7.684118E-1,-1.7481838E-1,-2.0959508E0,7.230829E-2,1.419256E0,1.9181259E-1,-1.3386661E0,7.2036946E-1,-6.946633E-1,-1.2839662E0,-2.0938898E-2,1.0399774E-2,2.2297397E-3,-8.582759E-1,-1.9775192E0,6.634684E-4,1.5554832E-2,-1.6094208E-2,4.7746752E-3,-1.4363137E-2,4.9419242E-1,-5.048837E-1,-2.1443734E-2,1.1444746E0,-1.7210801E-1,1.5035871E0,1.001271E0,-1.1747752E0,8.128875E-1,-3.2888803E-1,-1.5648931E0,-3.8965154E-3,1.1158541E-2,1.7763836E-4,-1.2515499E-2,9.0362646E-2,-1.6732943E0,-1.3077006E0,3.5914145E-3,-5.0430563E-3,-2.019154E0,1.2858272E-2,-9.598388E-3,-1.3867766E-2,1.0286191E-2,-1.935584E-2,1.2260205E0,2.933247E-1,-3.7112126E-1,1.6056342E0,9.682616E-1,-4.0734074E-1,1.1913193E0,4.7746752E-3,-1.488103E0,1.2113972E0,-8.470657E-1,1.4295112E-1,-1.85644E-2,-1.3520371E0,-2.1535825E-2,-3.7448124E-3,5.1516984E-3,-5.5419104E-3,-1.8214585E-2,-3.5957326E-3,-1.5001133E-2,-2.04817E-2,-5.4805106E-3,1.4368933E0,2.0302008E-1,7.414202E-1,-1.4698352E0,-1.1506954E0,-1.505739E-1,6.838021E-1,1.6356051E-2,-4.3725854E-1,1.5933357E-2,1.142878E-2,-1.6094208E-2,1.609901E-2,8.010643E-1,-1.7144821E0,-3.4484717E-3,-1.6686305E-3,1.3061177E0,3.662655E-5,-1.1589873E0,-1.2307093E0,1.0183156E0,-1.4824955E0,1.1110899E-2,3.785654E-3,1.4820559E-2,1.5195106E-2,-6.896547E-3,-7.860377E-3,9.099991E-3,-6.337064E-3,-1.9675655E-2,8.932341E-3,-1.6036611E-2,-1.6838303E-2,-4.0752324E-4,1.2858272E-2,-1.983723E-3,1.2245431E-2,-1.1055488E-2,-1.1546969E-2,1.3135354E-2,-1.9639827E-2,-3.57289E-3,1.384654E-2,6.587482E-3,-1.5606716E-2,-1.6686305E-3,-1.7588977E-3,-1.5508155E-2,1.395261E-2,1.7472961E-3,-1.1643168E-2,-1.9273156E-2],"categories":[],"categories_nodes":[],"categories_segments":[],"categories_sizes":[],"default_left":[0,0,0,0,0,0,0,0,0,0,0,0,0,0,0,0,0,0,0,0,0,0,0,0,0,0,0,0,0,0,0,0,0,0,0,0,0,0,0,0,0,0,0,0,0,0,0,0,0,0,0,0,0,0,0,0,0,0,0,0,0,0,0,0,0,0,0,0,0,0,0,0,0,0,0,0,0,0,0,0,0,0,0,0,0,0,0,0,0,0,0,0,0,0,0,0,0,0,0,0,0,0,0,0,0,0,0,0,0,0,0,0,0,0,0,0,0,0,0,0,0,0,0,0,0,0,0,0,0,0,0,0,0,0,0,0,0,0,0,0,0,0,0,0,0,0,0],"id":3,"left_children":[1,3,5,7,9,11,13,-1,-1,15,17,19,-1,21,-1,23,25,27,29,31,33,35,37,39,41,43,45,47,49,51,53,55,57,59,-1,-1,-1,61,63,-1,-1,-1,-1,-1,65,67,-1,69,71,73,75,77,79,81,83,-1,-1,-1,-1,85,87,89,-1,-1,91,-1,-1,-1,-1,-1,93,95,97,99,101,103,105,-1,107,109,111,113,-1,115,-1,-1,-1,-1,-1,-1,-1,-1,-1,117,119,121,123,125,127,129,-1,131,-1,-1,-1,-1,133,135,-1,-1,137,-1,139,141,143,145,-1,-1,-1,-1,-1,-1,-1,-1,-1,-1,-1,-1,-1,-1,-1,-1,-1,-1,-1,-1,-1,-1,-1,-1,-1,-1,-1,-1,-1,-1,-1],"loss_changes":[5.154926E2,4.252043E2,3.5056854E1,5.9330475E1,4.429714E2,7.131372E1,3.6057434E0,0E0,0E0,1.6847293E2,2.1586607E2,2.5605217E1,0E0,3.472853E1,0E0,1.9663095E1,2.092627E1,3.4032434E2,7.357216E1,4.6325436E0,1.4759064E0,3.8850975E-1,4.485565E0,2.341198E0,6.4508724E0,6.723736E0,9.006653E0,3.7137698E2,6.1175537E0,3.732634E1,2.7622025E1,2.9108033E0,1.5905385E0,6.2194633E0,0E0,0E0,0E0,4.3776336E0,2.6320038E0,0E0,0E0,0E0,0E0,0E0,7.4504285E0,8.426039E0,0E0,6.845007E1,1.0703215E2,8.167084E0,1.1006184E1,7.8541374E0,2.0906923E1,1.742656E1,9.66394E0,0E0,0E0,0E0,0E0,8.7465006E-1,4.6443176E-1,4.5161152E-1,0E0,0E0,1.333786E0,0E0,0E0,0E0,0E0,0E0,5.5129303E1,2.7469165E2,1.3892673E2,2.9691772E0,2.7942356E1,1.1934314E1,4.4086723E0,0E0,2.4736347E0,3.4355965E0,1.704351E0,2.4243502E1,0E0,2.6195679E1,0E0,0E0,0E0,0E0,0E0,0E0,0E0,0E0,0E0,9.611847E0,5.4015224E1,7.198851E1,2.8097565E1,1.6646945E2,1.0631297E2,3.6419425E0,0E0,1.2827059E1,0E0,0E0,0E0,0E0,2.1605108E1,2.5602531E0,0E0,0E0,2.661438E-1,0E0,1.6090779E0,2.3928223E0,3.6435852E0,8.085114E0,0E0,0E0,0E0,0E0,0E0,0E0,0E0,0E0,0E0,0E0,0E0,0E0,0E0,0E0,0E0,0E0,0E0,0E0,0E0,0E0,0E0,0E0,0E0,0E0,0E0,0E0,0E0,0E0,0E0,0E0,0E0],"parents":[2147483647,0,0,1,1,2,2,3,3,4,4,5,5,6,6,9,9,10,10,11,11,13,13,15,15,16,16,17,17,18,18,19,19,20,20,21,21,22,22,23,23,24,24,25,25,26,26,27,27,28,28,29,29,30,30,31,31,32,32,33,33,37,37,38,38,44,44,45,45,47,47,48,48,49,49,50,50,51,51,52,52,53,53,54,54,59,59,60,60,61,61,64,64,70,70,71,71,72,72,73,73,74,74,75,75,76,76,78,78,79,79,80,80,81,81,83,83,93,93,94,94,95,95,96,96,97,97,98,98,99,99,101,101,106,106,107,107,110,110,112,112,113,113,114,114,115,115],"right_children":[2,4,6,8,10,12,14,-1,-1,16,18,20,-1,22,-1,24,26,28,30,32,34,36,38,40,42,44,46,48,50,52,54,56,58,60,-1,-1,-1,62,64,-1,-1,-1,-1,-1,66,68,-1,70,72,74,76,78,80,82,84,-1,-1,-1,-1,86,88,90,-1,-1,92,-1,-1,-1,-1,-1,94,96,98,100,102,104,106,-1,108,110,112,114,-1,116,-1,-1,-1,-1,-1,-1,-1,-1,-1,118,120,122,124,126,128,130,-1,132,-1,-1,-1,-1,134,136,-1,-1,138,-1,140,142,144,146,-1,-1,-1,-1,-1,-1,-1,-1,-1,-1,-1,-1,-1,-1,-1,-1,-1,-1,-1,-1,-1,-1,-1,-1,-1,-1,-1,-1,-1,-1,-1],"split_conditions":[1.596115E0,-8.2600385E-1,-1.0174525E0,-7.258785E-1,-1.1949925E0,1.6213001E0,-8.14459E-1,1.6794724E-2,-1.819949E-2,-6.93728E-1,1.634292E-1,-6.5390307E-1,1.5551513E-2,-1.630959E0,-2.1829063E-2,-2.2883566E-1,-1.9117054E0,-4.345987E-1,-7.5139767E-1,-9.6749485E-1,-1.2316451E-1,-9.829343E-1,-1.2283555E0,-6.973933E-1,-1.4451192E-1,-5.6273097E-1,-8.1407833E-1,-6.3009495E-1,1.3190783E0,1.4428785E0,-7.690894E-1,-2.5706652E-1,-1.168957E0,-2.5680083E-1,-2.0938898E-2,1.0399774E-2,2.2297397E-3,-1.2885172E0,-1.6729436E0,6.634684E-4,1.5554832E-2,-1.6094208E-2,4.7746752E-3,-1.4363137E-2,-1.3725257E-1,-8.289653E-1,-2.1443734E-2,-1.0826625E0,-5.775675E-1,1.5434663E0,5.2598643E-1,-7.4819285E-1,-7.00422E-1,1.5095077E0,2.646304E0,-3.8965154E-3,1.1158541E-2,1.7763836E-4,-1.2515499E-2,-2.572252E-1,-5.765313E-1,-1.5705773E0,3.5914145E-3,-5.0430563E-3,4.43512E-1,1.2858272E-2,-9.598388E-3,-1.3867766E-2,1.0286191E-2,-1.935584E-2,-6.1135507E-1,-1.8750677E-1,-2.6885498E-1,-1.2835654E0,-9.2480436E-2,3.9379546E-1,9.844905E-1,4.7746752E-3,-5.642925E-1,-2.5745162E-1,-6.91612E-1,1.4487603E0,-1.85644E-2,-6.7021817E-1,-2.1535825E-2,-3.7448124E-3,5.1516984E-3,-5.5419104E-3,-1.8214585E-2,-3.5957326E-3,-1.5001133E-2,-2.04817E-2,-5.4805106E-3,-1.0816112E0,-6.9843817E-1,-7.637632E-1,-7.438627E-1,-8.9078873E-1,-1.0196322E0,-7.4102503E-1,1.6356051E-2,1.3979409E0,1.5933357E-2,1.142878E-2,-1.6094208E-2,1.609901E-2,1.3467817E0,-7.21398E-1,-3.4484717E-3,-1.6686305E-3,8.28611E-2,3.662655E-5,-2.7280757E-1,4.2578208E-1,-7.815296E-1,-7.124847E-1,1.1110899E-2,3.785654E-3,1.4820559E-2,1.5195106E-2,-6.896547E-3,-7.860377E-3,9.099991E-3,-6.337064E-3,-1.9675655E-2,8.932341E-3,-1.6036611E-2,-1.6838303E-2,-4.0752324E-4,1.2858272E-2,-1.983723E-3,1.2245431E-2,-1.1055488E-2,-1.1546969E-2,1.3135354E-2,-1.9639827E-2,-3.57289E-3,1.384654E-2,6.587482E-3,-1.5606716E-2,-1.6686305E-3,-1.7588977E-3,-1.5508155E-2,1.395261E-2,1.7472961E-3,-1.1643168E-2,-1.9273156E-2],"split_indices":[5,1,1,3,7,5,3,0,0,5,5,2,0,2,0,1,2,5,2,3,2,4,2,5,4,1,1,4,2,5,4,0,2,0,0,0,0,2,6,0,0,0,0,0,1,4,0,5,7,4,1,1,4,5,3,0,0,0,0,0,2,2,0,0,0,0,0,0,0,0,1,1,7,6,5,1,3,0,3,0,4,5,0,1,0,0,0,0,0,0,0,0,0,5,5,5,5,5,5,2,0,1,0,0,0,0,4,4,0,0,0,0,6,2,4,1,0,0,0,0,0,0,0,0,0,0,0,0,0,0,0,0,0,0,0,0,0,0,0,0,0,0,0,0,0,0,0],"split_type":[0,0,0,0,0,0,0,0,0,0,0,0,0,0,0,0,0,0,0,0,0,0,0,0,0,0,0,0,0,0,0,0,0,0,0,0,0,0,0,0,0,0,0,0,0,0,0,0,0,0,0,0,0,0,0,0,0,0,0,0,0,0,0,0,0,0,0,0,0,0,0,0,0,0,0,0,0,0,0,0,0,0,0,0,0,0,0,0,0,0,0,0,0,0,0,0,0,0,0,0,0,0,0,0,0,0,0,0,0,0,0,0,0,0,0,0,0,0,0,0,0,0,0,0,0,0,0,0,0,0,0,0,0,0,0,0,0,0,0,0,0,0,0,0,0,0,0],"sum_hessian":[2.3075774E3,2.1349565E3,1.7262076E2,1.8294774E2,1.9520089E3,4.722095E1,1.2539981E2,1.7875159E2,4.196156E0,1.5730357E2,1.7947053E3,3.8437523E1,8.783427E0,6.905119E1,5.6348618E1,2.122284E1,1.3608073E2,1.6306832E3,1.6402205E2,7.5931296E0,3.0844395E1,4.396845E0,6.465434E1,1.6799622E1,4.423219E0,6.1258864E0,1.2995485E2,1.4154207E3,2.1526265E2,4.1852707E1,1.2216935E2,4.640159E0,2.9529707E0,1.0341167E1,2.0503227E1,2.9306393E0,1.4662055E0,6.1426005E0,5.8511745E1,1.2251675E0,1.5574453E1,2.466474E0,1.9567453E0,1.7254446E0,4.400442E0,4.1757255E0,1.2577911E2,2.620814E2,1.1533392E3,1.7696216E2,3.8300495E1,1.2798934E1,2.9053772E1,2.2809877E1,9.9359474E1,1.2228085E0,3.4173505E0,1.720294E0,1.2326767E0,2.4523315E0,7.8888354E0,4.4322286E0,1.7103717E0,1.9685597E0,5.6543186E1,2.9241147E0,1.4763274E0,2.7118592E0,1.4638664E0,6.1733193E0,2.5590807E2,3.4530344E2,8.080358E2,1.4695024E2,3.0011923E1,4.417232E0,3.3883263E1,1.9567453E0,1.0842189E1,2.3646994E1,5.406779E0,1.8119453E1,4.690424E0,7.5395096E1,2.3964376E1,1.2275534E0,1.2247783E0,1.4765621E0,6.4122734E0,1.2317003E0,3.2005284E0,5.5064816E1,1.47837E0,2.1183711E2,4.4070957E1,2.7579218E2,6.951128E1,1.7725847E2,6.3077734E2,5.377193E0,1.4157304E2,9.331009E0,2.0680914E1,1.950758E0,2.466474E0,1.4840407E1,1.9042856E1,8.6330805E0,2.209108E0,1.4716506E0,2.2175343E1,1.7156925E0,3.691086E0,6.8944464E0,1.1225008E1,7.198079E1,3.414307E0,9.053854E0,2.0278326E2,1.7524355E1,2.6546602E1,2.704852E1,2.4874364E2,2.6786423E1,4.2724857E1,3.1980404E1,1.4527806E2,4.120252E1,5.895748E2,2.9241147E0,2.4530783E0,2.4374876E0,6.8935213E0,3.6936104E0,1.5349246E1,6.9148006E0,1.71828E0,1.8760498E1,3.4148445E0,2.2194355E0,1.4716506E0,1.9658895E0,4.928557E0,7.3063126E0,3.9186954E0,4.4072987E1,2.7907803E1],"tree_param":{"num_deleted":"0","num_feature":"9","num_nodes":"147","size_leaf_vector":"1"}},{"base_weights":[1.535447E-3,1.3498083E-1,-1.6367446E0,1.578145E0,-6.840373E-4,-6.74675E-1,-1.8485485E0,1.6674947E-2,-1.8023722E-2,-1.5859917E0,1.3934304E-1,3.9761928E-1,-1.7908409E0,-1.6196976E0,-2.1567328E-2,9.7132677E-1,-1.9874938E0,2.4852486E-1,-9.39537E-1,1.3445426E-2,-2.5086558E-1,-1.9881155E-2,-4.805379E-1,8.539051E-1,-1.7642045E0,1.4463632E0,-7.623777E-1,-1.7465544E-1,-2.0707648E0,7.158296E-2,1.408684E0,1.8954752E-1,-1.323975E0,-9.771498E-1,1.1060481E-2,-1.2430791E-2,5.031582E-3,2.1779006E-3,1.0356015E-2,-1.3049045E0,-2.1022623E0,6.5984874E-4,1.5446481E-2,-1.5959134E-2,4.7453106E-3,-1.425722E-2,4.9025714E-1,-5.003322E-1,-2.1184638E0,1.1352767E0,-1.7040819E-1,1.4925555E0,9.9329394E-1,-1.1633554E0,8.059258E-1,-3.2641983E-1,-1.5470904E0,-1.3251065E0,5.0720125E-3,-3.8388598E-1,-1.6123897E0,-2.1416979E-2,-9.260348E-3,1.2782396E-2,-9.534404E-3,-1.3750431E-2,1.02349855E-2,-2.1847077E-2,-1.6691953E0,-1.9155242E-2,1.2163569E0,2.905079E-1,-3.6728832E-1,1.594034E0,9.6071935E-1,-4.04052E-1,1.1822236E0,4.7453106E-3,-1.4734477E0,1.202274E0,-8.40725E-1,1.4151156E-1,-1.8380983E-2,-1.3368014E0,-2.1283407E-2,-3.711702E-3,-1.4722391E-2,-1.4669821E-2,1.1704329E-2,7.018474E-4,-1.6937933E0,-7.5556517E-1,-2.0549543E-2,1.4259937E0,2.0127612E-1,7.3488086E-1,-1.4532144E0,-1.1378351E0,-1.4906846E-1,6.792535E-1,1.6238173E-2,-4.3257904E-1,1.5821801E-2,1.1366997E-2,-1.5959134E-2,1.5988795E-2,7.942412E-1,-1.6970612E0,-3.4236389E-3,-1.6584671E-3,1.2965128E0,3.639621E-5,-1.1500329E0,-1.2191458E0,1.0108888E0,-1.4657085E0,1.1040123E-2,-6.8302864E-1,-1.9239708E0,1.6404928E-3,-1.6569696E-2,3.7534472E-3,1.4709146E-2,1.50875505E-2,-6.8242527E-3,-7.777094E-3,9.022148E-3,9.997215E-3,-1.6040664E-2,8.857707E-3,-1.5848959E-2,-1.6643533E-2,-4.0343223E-4,1.2782396E-2,-1.9692502E-3,1.2175702E-2,-1.094612E-2,-1.1443574E-2,1.3038301E-2,-1.9432858E-2,-3.5492268E-3,1.3744614E-2,6.5418025E-3,-1.5480243E-2,-1.6584671E-3,-1.7469606E-3,-1.5356221E-2,1.3857898E-2,1.7337219E-3,-1.1513527E-2,-1.9049566E-2,-1.1981564E-2,6.273193E-3,-8.059344E-3,-1.9987693E-2],"categories":[],"categories_nodes":[],"categories_segments":[],"categories_sizes":[],"default_left":[0,0,0,0,0,0,0,0,0,0,0,0,0,0,0,0,0,0,0,0,0,0,0,0,0,0,0,0,0,0,0,0,0,0,0,0,0,0,0,0,0,0,0,0,0,0,0,0,0,0,0,0,0,0,0,0,0,0,0,0,0,0,0,0,0,0,0,0,0,0,0,0,0,0,0,0,0,0,0,0,0,0,0,0,0,0,0,0,0,0,0,0,0,0,0,0,0,0,0,0,0,0,0,0,0,0,0,0,0,0,0,0,0,0,0,0,0,0,0,0,0,0,0,0,0,0,0,0,0,0,0,0,0,0,0,0,0,0,0,0,0,0,0,0,0,0,0,0,0,0,0,0,0,0,0],"id":4,"left_children":[1,3,5,7,9,11,13,-1,-1,15,17,19,21,23,-1,25,27,29,31,-1,33,-1,35,37,39,41,43,45,47,49,51,53,55,57,-1,-1,-1,-1,-1,59,61,-1,-1,-1,-1,-1,63,65,67,69,71,73,75,77,79,81,83,85,-1,87,89,-1,-1,-1,-1,-1,-1,-1,91,-1,93,95,97,99,101,103,105,-1,107,109,111,113,-1,115,-1,-1,-1,-1,-1,-1,117,119,-1,121,123,125,127,129,131,133,-1,135,-1,-1,-1,-1,137,139,-1,-1,141,-1,143,145,147,149,-1,151,153,-1,-1,-1,-1,-1,-1,-1,-1,-1,-1,-1,-1,-1,-1,-1,-1,-1,-1,-1,-1,-1,-1,-1,-1,-1,-1,-1,-1,-1,-1,-1,-1,-1,-1,-1,-1],"loss_changes":[5.0476004E2,4.1799115E2,3.4188538E1,5.8415985E1,4.3364355E2,4.0150787E1,6.518158E0,0E0,0E0,1.6471704E2,2.1166614E2,1.1159917E1,3.2650757E0,3.2059692E1,0E0,1.9373978E1,2.0373291E1,3.3466534E2,7.1941696E1,0E0,1.2220385E1,0E0,3.2172923E0,3.9762187E-1,9.846527E0,2.3074646E0,6.3518453E0,6.625396E0,8.770508E0,3.6468378E2,6.0340576E0,3.6650414E1,2.6945816E1,4.7490435E0,0E0,0E0,0E0,0E0,0E0,9.863258E0,1.0726929E-1,0E0,0E0,0E0,0E0,0E0,7.3573713E0,8.308711E0,1.3458252E-1,6.727951E1,1.048676E2,8.049194E0,1.0835373E1,7.7151356E0,2.0598387E1,1.7102995E1,9.442078E0,3.8991165E-1,0E0,1.9522654E1,3.8768463E0,0E0,0E0,0E0,0E0,0E0,0E0,0E0,5.695183E0,0E0,5.427124E1,2.6923907E2,1.359235E2,2.9172363E0,2.749311E1,1.1763704E1,4.358219E0,0E0,2.418272E0,3.3869019E0,1.6785412E0,2.383936E1,0E0,2.5690247E1,0E0,0E0,0E0,0E0,0E0,0E0,4.78389E0,6.643637E0,0E0,9.469238E0,5.3081516E1,7.067752E1,2.773581E1,1.6286542E2,1.0403614E2,3.5957403E0,0E0,1.2623711E1,0E0,0E0,0E0,0E0,2.1264832E1,2.4987144E0,0E0,0E0,2.589302E-1,0E0,1.5824142E0,2.3442621E0,3.5926676E0,7.9002533E0,0E0,5.0797715E0,1.2844849E-1,0E0,0E0,0E0,0E0,0E0,0E0,0E0,0E0,0E0,0E0,0E0,0E0,0E0,0E0,0E0,0E0,0E0,0E0,0E0,0E0,0E0,0E0,0E0,0E0,0E0,0E0,0E0,0E0,0E0,0E0,0E0,0E0,0E0,0E0,0E0,0E0],"parents":[2147483647,0,0,1,1,2,2,3,3,4,4,5,5,6,6,9,9,10,10,11,11,12,12,13,13,15,15,16,16,17,17,18,18,20,20,22,22,23,23,24,24,25,25,26,26,27,27,28,28,29,29,30,30,31,31,32,32,33,33,39,39,40,40,46,46,47,47,48,48,49,49,50,50,51,51,52,52,53,53,54,54,55,55,56,56,57,57,59,59,60,60,68,68,70,70,71,71,72,72,73,73,74,74,75,75,76,76,78,78,79,79,80,80,81,81,83,83,90,90,91,91,93,93,94,94,95,95,96,96,97,97,98,98,99,99,101,101,106,106,107,107,110,110,112,112,113,113,114,114,115,115,117,117,118,118],"right_children":[2,4,6,8,10,12,14,-1,-1,16,18,20,22,24,-1,26,28,30,32,-1,34,-1,36,38,40,42,44,46,48,50,52,54,56,58,-1,-1,-1,-1,-1,60,62,-1,-1,-1,-1,-1,64,66,68,70,72,74,76,78,80,82,84,86,-1,88,90,-1,-1,-1,-1,-1,-1,-1,92,-1,94,96,98,100,102,104,106,-1,108,110,112,114,-1,116,-1,-1,-1,-1,-1,-1,118,120,-1,122,124,126,128,130,132,134,-1,136,-1,-1,-1,-1,138,140,-1,-1,142,-1,144,146,148,150,-1,152,154,-1,-1,-1,-1,-1,-1,-1,-1,-1,-1,-1,-1,-1,-1,-1,-1,-1,-1,-1,-1,-1,-1,-1,-1,-1,-1,-1,-1,-1,-1,-1,-1,-1,-1,-1,-1],"split_conditions":[1.596115E0,-8.2600385E-1,-9.6749485E-1,-7.258785E-1,-1.1949925E0,-1.2316451E-1,-8.14459E-1,1.6674947E-2,-1.8023722E-2,-6.93728E-1,1.634292E-1,-8.131739E-1,-1.0519968E0,-1.630959E0,-2.1567328E-2,-2.2883566E-1,-1.9117054E0,-4.345987E-1,-7.5139767E-1,1.3445426E-2,-2.5330305E-1,-1.9881155E-2,-2.5146487E-1,-8.420712E-1,-3.9262015E-1,-6.973933E-1,-1.4451192E-1,-5.6273097E-1,-8.1407833E-1,-6.3009495E-1,1.3190783E0,1.4428785E0,-7.690894E-1,-2.2324143E-1,1.1060481E-2,-1.2430791E-2,5.031582E-3,2.1779006E-3,1.0356015E-2,-1.0123788E0,1.7344932E-1,6.5984874E-4,1.5446481E-2,-1.5959134E-2,4.7453106E-3,-1.425722E-2,-1.3725257E-1,-8.289653E-1,-6.632058E-1,-1.0826625E0,-5.775675E-1,1.5434663E0,5.2598643E-1,-7.4819285E-1,-7.00422E-1,1.5095077E0,2.646304E0,-2.5728133E-1,5.0720125E-3,-9.536555E-1,-1.6729436E0,-2.1416979E-2,-9.260348E-3,1.2782396E-2,-9.534404E-3,-1.3750431E-2,1.02349855E-2,-2.1847077E-2,-7.13535E-1,-1.9155242E-2,-6.1135507E-1,-1.8750677E-1,-2.6885498E-1,-1.2835654E0,-9.2480436E-2,3.9379546E-1,9.844905E-1,4.7453106E-3,-5.642925E-1,-2.5745162E-1,-6.91612E-1,1.4487603E0,-1.8380983E-2,-6.7021817E-1,-2.1283407E-2,-3.711702E-3,-1.4722391E-2,-1.4669821E-2,1.1704329E-2,7.018474E-4,-1.2283555E0,-9.1021115E-1,-2.0549543E-2,-1.0816112E0,-6.9843817E-1,-7.637632E-1,-1.6994327E0,-8.9078873E-1,-1.0196322E0,-7.4102503E-1,1.6238173E-2,1.3979409E0,1.5821801E-2,1.1366997E-2,-1.5959134E-2,1.5988795E-2,1.3467817E0,-7.21398E-1,-3.4236389E-3,-1.6584671E-3,8.28611E-2,3.639621E-5,-2.7280757E-1,-7.356278E-1,-7.815296E-1,-7.124847E-1,1.1040123E-2,-1.2885172E0,-9.3759E-1,1.6404928E-3,-1.6569696E-2,3.7534472E-3,1.4709146E-2,1.50875505E-2,-6.8242527E-3,-7.777094E-3,9.022148E-3,9.997215E-3,-1.6040664E-2,8.857707E-3,-1.5848959E-2,-1.6643533E-2,-4.0343223E-4,1.2782396E-2,-1.9692502E-3,1.2175702E-2,-1.094612E-2,-1.1443574E-2,1.3038301E-2,-1.9432858E-2,-3.5492268E-3,1.3744614E-2,6.5418025E-3,-1.5480243E-2,-1.6584671E-3,-1.7469606E-3,-1.5356221E-2,1.3857898E-2,1.7337219E-3,-1.1513527E-2,-1.9049566E-2,-1.1981564E-2,6.273193E-3,-8.059344E-3,-1.9987693E-2],"split_indices":[5,1,3,3,7,2,3,0,0,5,5,2,1,2,0,1,2,5,2,0,0,0,0,1,2,5,4,1,1,4,2,5,4,2,0,0,0,0,0,1,0,0,0,0,0,0,1,4,5,5,7,4,1,1,4,5,3,0,0,3,6,0,0,0,0,0,0,0,4,0,1,1,7,6,5,1,3,0,3,0,4,5,0,1,0,0,0,0,0,0,2,2,0,5,5,5,2,5,5,2,0,1,0,0,0,0,4,4,0,0,0,0,6,3,4,1,0,2,3,0,0,0,0,0,0,0,0,0,0,0,0,0,0,0,0,0,0,0,0,0,0,0,0,0,0,0,0,0,0,0,0,0,0,0,0],"split_type":[0,0,0,0,0,0,0,0,0,0,0,0,0,0,0,0,0,0,0,0,0,0,0,0,0,0,0,0,0,0,0,0,0,0,0,0,0,0,0,0,0,0,0,0,0,0,0,0,0,0,0,0,0,0,0,0,0,0,0,0,0,0,0,0,0,0,0,0,0,0,0,0,0,0,0,0,0,0,0,0,0,0,0,0,0,0,0,0,0,0,0,0,0,0,0,0,0,0,0,0,0,0,0,0,0,0,0,0,0,0,0,0,0,0,0,0,0,0,0,0,0,0,0,0,0,0,0,0,0,0,0,0,0,0,0,0,0,0,0,0,0,0,0,0,0,0,0,0,0,0,0,0,0,0,0],"sum_hessian":[2.3068267E3,2.1339263E3,1.729004E2,1.8244934E2,1.9514769E3,3.1951866E1,1.4094853E2,1.7824492E2,4.2044163E0,1.5754256E2,1.7939343E3,1.6624535E1,1.53273325E1,8.447492E1,5.647361E1,2.1185411E1,1.3635713E2,1.6297723E3,1.6416205E2,6.321079E0,1.0303455E1,1.2872066E1,2.4552677E0,4.3916454E0,8.0083275E1,1.6759132E1,4.426278E0,6.1243935E0,1.3023274E2,1.4150217E3,2.1475061E2,4.1826286E1,1.2233576E2,6.8935666E0,3.4098887E0,1.2345711E0,1.2206964E0,1.4641919E0,2.9274533E0,3.6013615E1,4.406966E1,1.2250528E0,1.55340805E1,2.4709172E0,1.9553609E0,1.7282948E0,4.3960986E0,4.177655E0,1.2605509E2,2.615711E2,1.1534506E3,1.7651692E2,3.823369E1,1.281373E1,2.9012556E1,2.2810843E1,9.952492E1,5.671382E0,1.2221845E0,9.576714E0,2.6436903E1,4.1845867E1,2.2237964E0,2.9180233E0,1.4780751E0,2.7161615E0,1.4614935E0,1.06490425E2,1.9564663E1,6.185996E0,2.5538512E2,3.4508844E2,8.083621E2,1.4655573E2,2.996119E1,4.418118E0,3.381557E1,1.9553609E0,1.0858369E1,2.3601542E1,5.4110136E0,1.8111057E1,4.6997857E0,7.5507225E1,2.401769E1,1.228577E0,4.442805E0,5.676999E0,3.899714E0,1.2263633E0,2.521054E1,6.686657E0,1.2878006E1,2.1133495E2,4.4050167E1,2.7546664E2,6.96218E1,1.774747E2,6.3088745E2,5.3717656E0,1.4118396E2,9.3354025E0,2.0625786E1,1.9472009E0,2.4709172E0,1.4800372E1,1.90152E1,8.64824E0,2.210129E0,1.4719872E0,2.2129555E1,1.7156838E0,3.69533E0,6.9037375E0,1.1207319E1,7.209895E1,3.4082737E0,5.4121013E0,1.9798439E1,3.7148094E0,2.9718475E0,9.048833E0,2.0228612E2,1.748014E1,2.6570026E1,2.7075363E1,2.483913E2,3.7075653E0,6.591424E1,3.1936022E1,1.4553868E2,4.1279152E1,5.896083E2,2.9180233E0,2.4537425E0,2.4326835E0,6.9027195E0,3.6987226E0,1.5316477E1,6.929139E0,1.7191013E0,1.8718252E1,3.4113019E0,2.2233427E0,1.4719872E0,1.9663393E0,4.9373984E0,7.289603E0,3.9177165E0,4.4134495E1,2.7964457E1,3.946329E0,1.4657724E0,1.9798439E0,1.7818594E1],"tree_param":{"num_deleted":"0","num_feature":"9","num_nodes":"155","size_leaf_vector":"1"}},{"base_weights":[1.4434765E-3,1.3366333E-1,-1.6186278E0,1.5668062E0,-7.248249E-4,-8.742631E-1,-1.8891968E0,1.6557934E-2,-1.78522E-2,-1.5685377E0,1.3800038E-1,-1.4468284E0,1.538132E-2,-1.6749066E0,-2.146344E-2,9.635525E-1,-1.9646744E0,2.4621947E-1,-9.299449E-1,1.5075414E-1,-1.8308512E0,6.4303285E-1,-1.8576047E0,1.4362131E0,-7.5643665E-1,-1.7449239E-1,-2.0467107E0,7.08818E-2,1.3983318E0,1.8732214E-1,-1.3096304E0,7.097315E-1,-6.822791E-1,-1.259577E0,-2.0468425E-2,-1.8576408E-3,1.0771484E-2,-3.5978823E-3,-1.8796294E0,6.562487E-4,1.5340324E-2,-1.5826726E-2,4.7161537E-3,-1.4153038E-2,4.8638028E-1,-4.9503574E-1,-2.0937694E-2,1.1262435E0,-1.6871352E-1,1.4817585E0,9.854649E-1,-1.152169E0,7.990701E-1,-3.2399482E-1,-1.5297256E0,-3.899445E-3,1.10332975E-2,2.2199375E-4,-1.2344577E-2,9.096642E-2,-1.6413217E0,-1.1908636E0,-1.9605738E0,1.2707651E-2,-9.471112E-3,-1.3622905E-2,1.0184327E-2,-1.8960007E-2,1.2068638E0,2.877825E-1,-3.635079E-1,1.5826854E0,9.533222E-1,-4.0081596E-1,1.1732949E0,4.7161537E-3,-1.4591179E0,1.1932917E0,-8.34468E-1,1.4009711E-1,-1.8202147E-2,-1.3219E0,-2.1039037E-2,-3.6992198E-3,5.1202145E-3,-1.871583E-2,-7.394768E-3,-1.469336E0,2.1606775E-3,-1.9878553E-2,-5.402215E-3,1.4152946E0,1.9955853E-1,7.284199E-1,-1.4365302E0,-1.1252569E0,-1.4757955E-1,6.747595E-1,1.6122894E-2,-4.279708E-1,1.5712596E-2,1.1305983E-2,-1.5826726E-2,1.5880939E-2,7.8752756E-1,-1.6800706E0,-3.3990012E-3,-1.6483687E-3,1.2870617E0,3.6165868E-5,-1.1412165E0,-1.2077905E0,1.0035645E0,-1.4492961E0,1.097024E-2,-1.6153723E-2,-3.5706651E-3,3.7215224E-3,1.4599841E-2,1.4982093E-2,-6.7529255E-3,-7.6949936E-3,8.945219E-3,-6.1119883E-3,-1.9278754E-2,8.783927E-3,-1.566578E-2,-1.6453575E-2,-3.993808E-4,1.2707651E-2,-1.9548868E-3,1.2106937E-2,-1.0838505E-2,-1.1341764E-2,1.2942795E-2,-1.9231562E-2,-3.5257377E-3,6.45391E-3,1.3652708E-2,-1.5356145E-2,-1.6483687E-3,-1.6889996E-3,-1.5234068E-2,1.3764804E-2,1.7202542E-3,-1.1386235E-2,-1.8832287E-2],"categories":[],"categories_nodes":[],"categories_segments":[],"categories_sizes":[],"default_left":[0,0,0,0,0,0,0,0,0,0,0,0,0,0,0,0,0,0,0,0,0,0,0,0,0,0,0,0,0,0,0,0,0,0,0,0,0,0,0,0,0,0,0,0,0,0,0,0,0,0,0,0,0,0,0,0,0,0,0,0,0,0,0,0,0,0,0,0,0,0,0,0,0,0,0,0,0,0,0,0,0,0,0,0,0,0,0,0,0,0,0,0,0,0,0,0,0,0,0,0,0,0,0,0,0,0,0,0,0,0,0,0,0,0,0,0,0,0,0,0,0,0,0,0,0,0,0,0,0,0,0,0,0,0,0,0,0,0,0,0,0,0,0,0,0,0,0],"id":5,"left_children":[1,3,5,7,9,11,13,-1,-1,15,17,19,-1,21,-1,23,25,27,29,31,33,35,37,39,41,43,45,47,49,51,53,55,57,59,-1,-1,-1,-1,61,-1,-1,-1,-1,-1,63,65,-1,67,69,71,73,75,77,79,81,-1,-1,-1,-1,83,85,87,89,-1,-1,-1,-1,-1,91,93,95,97,99,101,103,-1,105,107,109,111,-1,113,-1,-1,-1,-1,-1,115,-1,-1,-1,117,119,121,123,125,127,129,-1,131,-1,-1,-1,-1,133,135,-1,-1,137,-1,139,141,143,145,-1,-1,-1,-1,-1,-1,-1,-1,-1,-1,-1,-1,-1,-1,-1,-1,-1,-1,-1,-1,-1,-1,-1,-1,-1,-1,-1,-1,-1,-1,-1,-1,-1],"loss_changes":[4.943639E2,4.109542E2,3.3421143E1,5.7522034E1,4.2472574E2,6.892044E1,3.3954163E0,0E0,0E0,1.6112216E2,2.0757288E2,2.4533585E1,0E0,3.2425354E1,0E0,1.9090637E1,1.9850586E1,3.2913147E2,7.035945E1,4.482446E0,1.364502E0,2.4059534E0,1.587326E0,2.274681E0,6.2549896E0,6.528916E0,8.563843E0,3.581296E2,5.952759E0,3.598963E1,2.629242E1,2.8664463E0,1.5669842E0,6.00939E0,0E0,0E0,0E0,0E0,1.4220886E0,0E0,0E0,0E0,0E0,0E0,7.2658005E0,8.185986E0,0E0,6.613556E1,1.0276827E2,7.9341736E0,1.0667931E1,7.579809E0,2.0295517E1,1.6788115E1,9.23233E0,0E0,0E0,0E0,0E0,8.593592E-1,4.6710587E-1,4.0918283E0,1.2027283E0,0E0,0E0,0E0,0E0,0E0,5.34328E1,2.6383337E2,1.3300941E2,2.867157E0,2.7053936E1,1.1596495E1,4.3091164E0,0E0,2.3650894E0,3.339241E0,1.6532912E0,2.3443483E1,0E0,2.5198181E1,0E0,0E0,0E0,0E0,0E0,7.502804E-1,0E0,0E0,0E0,9.331055E0,5.2168114E1,6.9392456E1,2.7504776E1,1.5936499E2,1.01825745E2,3.5503666E0,0E0,1.2424405E1,0E0,0E0,0E0,0E0,2.0931149E1,2.4398117E0,0E0,0E0,2.772522E-1,0E0,1.5564828E0,2.3370914E0,3.5429802E0,7.724945E0,0E0,0E0,0E0,0E0,0E0,0E0,0E0,0E0,0E0,0E0,0E0,0E0,0E0,0E0,0E0,0E0,0E0,0E0,0E0,0E0,0E0,0E0,0E0,0E0,0E0,0E0,0E0,0E0,0E0,0E0,0E0,0E0,0E0],"parents":[2147483647,0,0,1,1,2,2,3,3,4,4,5,5,6,6,9,9,10,10,11,11,13,13,15,15,16,16,17,17,18,18,19,19,20,20,21,21,22,22,23,23,24,24,25,25,26,26,27,27,28,28,29,29,30,30,31,31,32,32,33,33,38,38,44,44,45,45,47,47,48,48,49,49,50,50,51,51,52,52,53,53,54,54,59,59,60,60,61,61,62,62,68,68,69,69,70,70,71,71,72,72,73,73,74,74,76,76,77,77,78,78,79,79,81,81,87,87,91,91,92,92,93,93,94,94,95,95,96,96,97,97,99,99,104,104,105,105,108,108,110,110,111,111,112,112,113,113],"right_children":[2,4,6,8,10,12,14,-1,-1,16,18,20,-1,22,-1,24,26,28,30,32,34,36,38,40,42,44,46,48,50,52,54,56,58,60,-1,-1,-1,-1,62,-1,-1,-1,-1,-1,64,66,-1,68,70,72,74,76,78,80,82,-1,-1,-1,-1,84,86,88,90,-1,-1,-1,-1,-1,92,94,96,98,100,102,104,-1,106,108,110,112,-1,114,-1,-1,-1,-1,-1,116,-1,-1,-1,118,120,122,124,126,128,130,-1,132,-1,-1,-1,-1,134,136,-1,-1,138,-1,140,142,144,146,-1,-1,-1,-1,-1,-1,-1,-1,-1,-1,-1,-1,-1,-1,-1,-1,-1,-1,-1,-1,-1,-1,-1,-1,-1,-1,-1,-1,-1,-1,-1,-1,-1],"split_conditions":[1.596115E0,-8.2600385E-1,-1.0174525E0,-7.258785E-1,-1.1949925E0,1.6213001E0,-8.1008524E-1,1.6557934E-2,-1.78522E-2,-6.93728E-1,1.634292E-1,-6.5390307E-1,1.538132E-2,-1.630959E0,-2.146344E-2,-2.2883566E-1,-1.9117054E0,-4.345987E-1,-7.5139767E-1,-9.6749485E-1,-1.2316451E-1,-2.5502202E-1,-2.2554517E0,-6.973933E-1,-1.4451192E-1,-5.6273097E-1,-8.1008524E-1,-6.3009495E-1,1.3190783E0,1.4428785E0,-7.690894E-1,-2.5706652E-1,-1.168957E0,-2.5680083E-1,-2.0468425E-2,-1.8576408E-3,1.0771484E-2,-3.5978823E-3,-1.2283555E0,6.562487E-4,1.5340324E-2,-1.5826726E-2,4.7161537E-3,-1.4153038E-2,-1.3725257E-1,-8.289653E-1,-2.0937694E-2,-1.0826625E0,-5.775675E-1,1.5434663E0,5.2598643E-1,-7.4819285E-1,-7.00422E-1,1.5095077E0,2.646304E0,-3.899445E-3,1.10332975E-2,2.2199375E-4,-1.2344577E-2,-2.572252E-1,-2.2450745E-1,-1.2756664E0,4.43512E-1,1.2707651E-2,-9.471112E-3,-1.3622905E-2,1.0184327E-2,-1.8960007E-2,-6.1135507E-1,-1.8750677E-1,-2.6885498E-1,-1.2835654E0,-9.2480436E-2,3.9379546E-1,9.844905E-1,4.7161537E-3,-5.642925E-1,-2.5745162E-1,-6.91612E-1,1.4487603E0,-1.8202147E-2,-6.7021817E-1,-2.1039037E-2,-3.6992198E-3,5.1202145E-3,-1.871583E-2,-7.394768E-3,-1.8255182E-1,2.1606775E-3,-1.9878553E-2,-5.402215E-3,-1.0816112E0,-6.9843817E-1,-7.637632E-1,-7.438627E-1,-8.9078873E-1,-1.0196322E0,-7.4102503E-1,1.6122894E-2,1.3979409E0,1.5712596E-2,1.1305983E-2,-1.5826726E-2,1.5880939E-2,1.3467817E0,-7.21398E-1,-3.3990012E-3,-1.6483687E-3,-7.5570184E-1,3.6165868E-5,-2.7280757E-1,4.2578208E-1,-7.815296E-1,-7.124847E-1,1.097024E-2,-1.6153723E-2,-3.5706651E-3,3.7215224E-3,1.4599841E-2,1.4982093E-2,-6.7529255E-3,-7.6949936E-3,8.945219E-3,-6.1119883E-3,-1.9278754E-2,8.783927E-3,-1.566578E-2,-1.6453575E-2,-3.993808E-4,1.2707651E-2,-1.9548868E-3,1.2106937E-2,-1.0838505E-2,-1.1341764E-2,1.2942795E-2,-1.9231562E-2,-3.5257377E-3,6.45391E-3,1.3652708E-2,-1.5356145E-2,-1.6483687E-3,-1.6889996E-3,-1.5234068E-2,1.3764804E-2,1.7202542E-3,-1.1386235E-2,-1.8832287E-2],"split_indices":[5,1,1,3,7,5,3,0,0,5,5,2,0,2,0,1,2,5,2,3,2,0,6,5,4,1,3,4,2,5,4,0,2,0,0,0,0,0,2,0,0,0,0,0,1,4,0,5,7,4,1,1,4,5,3,0,0,0,0,0,0,2,0,0,0,0,0,0,1,1,7,6,5,1,3,0,3,0,4,5,0,1,0,0,0,0,0,0,0,0,0,5,5,5,5,5,5,2,0,1,0,0,0,0,4,4,0,0,3,0,6,2,4,1,0,0,0,0,0,0,0,0,0,0,0,0,0,0,0,0,0,0,0,0,0,0,0,0,0,0,0,0,0,0,0,0,0],"split_type":[0,0,0,0,0,0,0,0,0,0,0,0,0,0,0,0,0,0,0,0,0,0,0,0,0,0,0,0,0,0,0,0,0,0,0,0,0,0,0,0,0,0,0,0,0,0,0,0,0,0,0,0,0,0,0,0,0,0,0,0,0,0,0,0,0,0,0,0,0,0,0,0,0,0,0,0,0,0,0,0,0,0,0,0,0,0,0,0,0,0,0,0,0,0,0,0,0,0,0,0,0,0,0,0,0,0,0,0,0,0,0,0,0,0,0,0,0,0,0,0,0,0,0,0,0,0,0,0,0,0,0,0,0,0,0,0,0,0,0,0,0,0,0,0,0,0,0],"sum_hessian":[2.3058845E3,2.1327415E3,1.731432E2,1.8193117E2,1.9508102E3,4.7285862E1,1.25857346E2,1.7771924E2,4.211933E0,1.5774435E2,1.7930658E3,3.853912E1,8.74674E0,7.274757E1,5.310978E1,2.1146214E1,1.3659814E2,1.6287842E3,1.6428165E2,7.586361E0,3.0952759E1,5.1308956E0,6.761667E1,1.6717232E1,4.4289827E0,6.1224494E0,1.304757E2,1.4145658E3,2.1421841E2,4.1796734E1,1.2248492E2,4.6285515E0,2.9578097E0,1.0366383E1,2.0586378E1,1.9603522E0,3.1705432E0,1.2310829E0,6.638558E1,1.2249384E0,1.5492292E1,2.4750183E0,1.9539644E0,1.7309543E0,4.391495E0,4.1796255E0,1.2629607E2,2.6104086E2,1.1535249E3,1.7605467E2,3.816375E1,1.2827052E1,2.896968E1,2.280976E1,9.9675156E1,1.2224433E0,3.406108E0,1.7214072E0,1.2364025E0,2.452299E0,7.914083E0,8.633574E0,5.775201E1,2.9117484E0,1.4797468E0,2.7205637E0,1.4590616E0,6.197436E0,2.5484343E2,3.4486484E2,8.0866003E2,1.4614682E2,2.990785E1,4.4185653E0,3.3745186E1,1.9539644E0,1.0873088E1,2.3554726E1,5.414955E0,1.8101477E1,4.7082825E0,7.561009E1,2.4065063E1,1.2287478E0,1.2235514E0,5.4478426E0,2.4662404E0,7.170057E0,1.4635168E0,5.6271618E1,1.4803915E0,2.108164E2,4.4027027E1,2.751337E2,6.973115E1,1.7766934E2,6.309907E2,5.366146E0,1.4078067E2,9.339169E0,2.0568682E1,1.9435468E0,2.4750183E0,1.4758881E1,1.8986305E1,8.661958E0,2.2111301E0,1.47232E0,2.2082407E1,1.715675E0,3.69928E0,6.9123735E0,1.1189103E1,7.220801E1,3.402087E0,5.9380903E0,1.2319669E0,9.043794E0,2.0177261E2,1.7434416E1,2.6592611E1,2.7101137E1,2.4803256E2,2.6858992E1,4.2872154E1,3.1890844E1,1.457785E2,4.1349346E1,5.8964136E2,2.9117484E0,2.4543974E0,2.4277403E0,6.9114285E0,3.703556E0,1.5282749E1,6.942051E0,1.7199069E0,3.4042447E0,1.8678162E1,2.2269602E0,1.47232E0,1.9683726E0,4.9440007E0,7.2723637E0,3.9167395E0,4.41925E1,2.8015505E1],"tree_param":{"num_deleted":"0","num_feature":"9","num_nodes":"147","size_leaf_vector":"1"}},{"base_weights":[1.3590665E-3,1.3237624E-1,-1.6010041E0,1.5557249E0,-7.5643876E-4,-6.6113204E-1,-1.807407E0,1.6443588E-2,-1.7684774E-2,-1.5513334E0,1.3666838E-1,3.9211735E-1,-1.7526519E0,-1.5844382E0,-2.10738E-2,9.559201E-1,-1.9422438E0,2.4393728E-1,-9.205604E-1,1.3277837E-2,-2.462842E-1,-1.9441E-2,-4.7457364E-1,8.439319E-1,-1.7256542E0,1.426256E0,-7.5058675E-1,-1.7432927E-1,-2.0230794E0,7.017717E-2,1.3881918E0,1.8513426E-1,-1.2956177E0,-9.6038043E-1,1.0932705E-2,-1.2229432E-2,4.9494933E-3,2.1157395E-3,1.0257492E-2,-1.2758907E0,-2.0564742E-2,6.526696E-4,1.5236291E-2,-1.5696911E-2,4.6872045E-3,-1.405055E-2,4.825604E-1,-4.9062636E-1,-2.0694778E0,1.1173697E0,-1.6706029E-1,1.4711882E0,9.7777945E-1,-1.1412083E0,7.9231465E-1,-3.2160947E-1,-1.512781E0,-1.3027966E0,5.0292495E-3,-3.7471798E-1,-1.5761093E0,1.2634005E-2,-9.4085075E-3,-1.3509756E-2,1.0134211E-2,-2.1344613E-2,-1.6292782E0,-1.8769927E-2,1.1975354E0,4.4131407E-1,-3.118292E-1,1.5715799E0,9.460656E-1,-3.976316E-1,1.1645284E0,4.6872045E-3,-1.4451021E0,1.1844419E0,-8.282927E-1,1.3870776E-1,-1.8027727E-2,-1.3073205E0,-2.080234E-2,-3.6500054E-3,-1.4473845E-2,-1.4417502E-2,1.1620139E-2,7.4914825E-4,-1.6560652E0,-7.301483E-1,-2.0096736E-2,1.3871857E0,1.0612538E-1,-1.1733222E0,5.3019035E-1,2.301596E-1,-5.380852E-1,6.703189E-1,1.6010128E-2,-4.23432E-1,1.5605669E-2,1.1245724E-2,-1.5696911E-2,1.5775366E-2,7.8092074E-1,-1.6634939E0,-3.37456E-3,-1.6383332E-3,1.2777548E0,3.593706E-5,-1.1325349E0,-1.1966213E0,9.9634004E-1,-1.4332442E0,1.0901227E-2,-6.678659E-1,-1.8807968E0,1.790166E-3,-1.6248578E-2,3.6898784E-3,1.4295826E-2,1.4675581E-2,-8.791651E-3,8.85015E-3,-1.6738039E-2,1.0934506E-2,2.881378E-3,8.089144E-3,-1.1355464E-2,-1.444718E-2,-2.9659478E-3,1.2634005E-2,-1.9406321E-3,1.2039112E-2,-1.0732597E-2,-1.1241509E-2,1.2848798E-2,-1.9035704E-2,-3.5024206E-3,6.4093843E-3,1.3554083E-2,-1.5234354E-2,-1.6383332E-3,-1.6775627E-3,-1.5087793E-2,1.3673285E-2,1.7068909E-3,-1.126122E-2,-1.8621042E-2,-1.174919E-2,6.2330007E-3,-7.85982E-3,-1.9542621E-2],"categories":[],"categories_nodes":[],"categories_segments":[],"categories_sizes":[],"default_left":[0,0,0,0,0,0,0,0,0,0,0,0,0,0,0,0,0,0,0,0,0,0,0,0,0,0,0,0,0,0,0,0,0,0,0,0,0,0,0,0,0,0,0,0,0,0,0,0,0,0,0,0,0,0,0,0,0,0,0,0,0,0,0,0,0,0,0,0,0,0,0,0,0,0,0,0,0,0,0,0,0,0,0,0,0,0,0,0,0,0,0,0,0,0,0,0,0,0,0,0,0,0,0,0,0,0,0,0,0,0,0,0,0,0,0,0,0,0,0,0,0,0,0,0,0,0,0,0,0,0,0,0,0,0,0,0,0,0,0,0,0,0,0,0,0,0,0,0,0,0,0,0,0],"id":6,"left_children":[1,3,5,7,9,11,13,-1,-1,15,17,19,21,23,-1,25,27,29,31,-1,33,-1,35,37,39,41,43,45,47,49,51,53,55,57,-1,-1,-1,-1,-1,59,-1,-1,-1,-1,-1,-1,61,63,65,67,69,71,73,75,77,79,81,83,-1,85,87,-1,-1,-1,-1,-1,89,-1,91,93,95,97,99,101,103,-1,105,107,109,111,-1,113,-1,-1,-1,-1,-1,-1,115,117,-1,119,121,123,125,127,129,131,-1,133,-1,-1,-1,-1,135,137,-1,-1,139,-1,141,143,145,147,-1,149,151,-1,-1,-1,-1,-1,-1,-1,-1,-1,-1,-1,-1,-1,-1,-1,-1,-1,-1,-1,-1,-1,-1,-1,-1,-1,-1,-1,-1,-1,-1,-1,-1,-1,-1,-1,-1],"loss_changes":[4.8427548E2,4.040785E2,3.2628937E1,5.664798E1,4.159473E2,3.859336E1,6.184265E0,0E0,0E0,1.5761356E2,2.035746E2,1.0838476E1,3.0840302E0,3.0846771E1,0E0,1.8812937E1,1.9342163E1,3.2373138E2,6.8823425E1,0E0,1.1862915E1,0E0,3.1129928E0,4.0172505E-1,9.476334E0,2.2427788E0,6.160241E0,6.4342465E0,8.34845E0,3.517295E2,5.873596E0,3.534346E1,2.5660889E1,4.616404E0,0E0,0E0,0E0,0E0,0E0,9.446857E0,0E0,0E0,0E0,0E0,0E0,0E0,7.1756873E0,8.073152E0,1.6998291E-1,6.501752E1,1.0182293E2,7.82193E0,1.050378E1,7.4480133E0,1.99981E1,1.648163E1,9.03389E0,3.781557E-1,0E0,1.9028727E1,3.756607E0,0E0,0E0,0E0,0E0,0E0,5.587723E0,0E0,5.2692963E1,3.2528637E1,1.1456136E2,2.8189392E0,2.6624538E1,1.1432596E1,4.2612915E0,0E0,2.3139687E0,3.2925568E0,1.6285868E0,2.3055473E1,0E0,2.4718964E1,0E0,0E0,0E0,0E0,0E0,0E0,4.5822525E0,6.5568275E0,0E0,8.857666E0,5.3438026E1,1.3751865E1,2.851093E1,2.1870744E2,1.4378224E2,3.5058022E0,0E0,1.2229037E1,0E0,0E0,0E0,0E0,2.0603922E1,2.3834019E0,0E0,0E0,2.7031708E-1,0E0,1.5312552E0,2.2906942E0,3.494484E0,7.5586243E0,0E0,4.936448E0,1.4243317E-1,0E0,0E0,0E0,0E0,0E0,0E0,0E0,0E0,0E0,0E0,0E0,0E0,0E0,0E0,0E0,0E0,0E0,0E0,0E0,0E0,0E0,0E0,0E0,0E0,0E0,0E0,0E0,0E0,0E0,0E0,0E0,0E0,0E0,0E0,0E0,0E0],"parents":[2147483647,0,0,1,1,2,2,3,3,4,4,5,5,6,6,9,9,10,10,11,11,12,12,13,13,15,15,16,16,17,17,18,18,20,20,22,22,23,23,24,24,25,25,26,26,27,27,28,28,29,29,30,30,31,31,32,32,33,33,39,39,46,46,47,47,48,48,49,49,50,50,51,51,52,52,53,53,54,54,55,55,56,56,57,57,59,59,60,60,66,66,68,68,69,69,70,70,71,71,72,72,73,73,74,74,76,76,77,77,78,78,79,79,81,81,88,88,89,89,91,91,92,92,93,93,94,94,95,95,96,96,97,97,99,99,104,104,105,105,108,108,110,110,111,111,112,112,113,113,115,115,116,116],"right_children":[2,4,6,8,10,12,14,-1,-1,16,18,20,22,24,-1,26,28,30,32,-1,34,-1,36,38,40,42,44,46,48,50,52,54,56,58,-1,-1,-1,-1,-1,60,-1,-1,-1,-1,-1,-1,62,64,66,68,70,72,74,76,78,80,82,84,-1,86,88,-1,-1,-1,-1,-1,90,-1,92,94,96,98,100,102,104,-1,106,108,110,112,-1,114,-1,-1,-1,-1,-1,-1,116,118,-1,120,122,124,126,128,130,132,-1,134,-1,-1,-1,-1,136,138,-1,-1,140,-1,142,144,146,148,-1,150,152,-1,-1,-1,-1,-1,-1,-1,-1,-1,-1,-1,-1,-1,-1,-1,-1,-1,-1,-1,-1,-1,-1,-1,-1,-1,-1,-1,-1,-1,-1,-1,-1,-1,-1,-1,-1],"split_conditions":[1.596115E0,-8.2600385E-1,-9.6749485E-1,-7.258785E-1,-1.1949925E0,-1.2316451E-1,-8.14459E-1,1.6443588E-2,-1.7684774E-2,-6.93728E-1,1.634292E-1,-8.131739E-1,-1.0519968E0,-1.630959E0,-2.10738E-2,-2.2883566E-1,-1.9117054E0,-4.345987E-1,-7.5139767E-1,1.3277837E-2,-2.5330305E-1,-1.9441E-2,-2.5146487E-1,-8.420712E-1,-3.9262015E-1,-6.973933E-1,-1.4451192E-1,-5.6273097E-1,-8.1008524E-1,-6.3009495E-1,1.3190783E0,1.4428785E0,-7.690894E-1,-2.2324143E-1,1.0932705E-2,-1.2229432E-2,4.9494933E-3,2.1157395E-3,1.0257492E-2,-1.0123788E0,-2.0564742E-2,6.526696E-4,1.5236291E-2,-1.5696911E-2,4.6872045E-3,-1.405055E-2,-1.3725257E-1,-8.289653E-1,-6.632058E-1,-1.0826625E0,-8.0588067E-1,1.5434663E0,5.2598643E-1,-7.4819285E-1,-7.00422E-1,1.5095077E0,2.646304E0,-2.5728133E-1,5.0292495E-3,-9.536555E-1,-1.6729436E0,1.2634005E-2,-9.4085075E-3,-1.3509756E-2,1.0134211E-2,-2.1344613E-2,-7.13535E-1,-1.8769927E-2,-6.0638046E-1,-1.0196322E0,-5.775675E-1,-1.2835654E0,-9.2480436E-2,3.9379546E-1,9.844905E-1,4.6872045E-3,-5.642925E-1,-2.5745162E-1,-6.91612E-1,1.4487603E0,-1.8027727E-2,-6.7021817E-1,-2.080234E-2,-3.6500054E-3,-1.4473845E-2,-1.4417502E-2,1.1620139E-2,7.4914825E-4,-1.2283555E0,-9.1021115E-1,-2.0096736E-2,-1.0816112E0,-6.9843817E-1,-6.2216884E-1,-4.266955E-1,-2.4635297E-1,-2.6885498E-1,-7.4102503E-1,1.6010128E-2,1.3979409E0,1.5605669E-2,1.1245724E-2,-1.5696911E-2,1.5775366E-2,1.3467817E0,-7.21398E-1,-3.37456E-3,-1.6383332E-3,-7.5570184E-1,3.593706E-5,-2.7280757E-1,4.2578208E-1,-7.815296E-1,-7.124847E-1,1.0901227E-2,-1.2885172E0,-9.3759E-1,1.790166E-3,-1.6248578E-2,3.6898784E-3,1.4295826E-2,1.4675581E-2,-8.791651E-3,8.85015E-3,-1.6738039E-2,1.0934506E-2,2.881378E-3,8.089144E-3,-1.1355464E-2,-1.444718E-2,-2.9659478E-3,1.2634005E-2,-1.9406321E-3,1.2039112E-2,-1.0732597E-2,-1.1241509E-2,1.2848798E-2,-1.9035704E-2,-3.5024206E-3,6.4093843E-3,1.3554083E-2,-1.5234354E-2,-1.6383332E-3,-1.6775627E-3,-1.5087793E-2,1.3673285E-2,1.7068909E-3,-1.126122E-2,-1.8621042E-2,-1.174919E-2,6.2330007E-3,-7.85982E-3,-1.9542621E-2],"split_indices":[5,1,3,3,7,2,3,0,0,5,5,2,1,2,0,1,2,5,2,0,0,0,0,1,2,5,4,1,3,4,2,5,4,2,0,0,0,0,0,1,0,0,0,0,0,0,1,4,5,5,2,4,1,1,4,5,3,0,0,3,6,0,0,0,0,0,4,0,1,5,7,6,5,1,3,0,3,0,4,5,0,1,0,0,0,0,0,0,2,2,0,5,5,4,4,3,7,2,0,1,0,0,0,0,4,4,0,0,3,0,6,2,4,1,0,2,3,0,0,0,0,0,0,0,0,0,0,0,0,0,0,0,0,0,0,0,0,0,0,0,0,0,0,0,0,0,0,0,0,0,0,0,0],"split_type":[0,0,0,0,0,0,0,0,0,0,0,0,0,0,0,0,0,0,0,0,0,0,0,0,0,0,0,0,0,0,0,0,0,0,0,0,0,0,0,0,0,0,0,0,0,0,0,0,0,0,0,0,0,0,0,0,0,0,0,0,0,0,0,0,0,0,0,0,0,0,0,0,0,0,0,0,0,0,0,0,0,0,0,0,0,0,0,0,0,0,0,0,0,0,0,0,0,0,0,0,0,0,0,0,0,0,0,0,0,0,0,0,0,0,0,0,0,0,0,0,0,0,0,0,0,0,0,0,0,0,0,0,0,0,0,0,0,0,0,0,0,0,0,0,0,0,0,0,0,0,0,0,0],"sum_hessian":[2.3047554E3,2.131399E3,1.7335638E2,1.8139392E2,1.9500051E3,3.1972084E1,1.413843E2,1.771752E2,4.2187223E0,1.579176E2,1.7920875E3,1.6597387E1,1.5374695E1,8.4705185E1,5.6679115E1,2.11053E1,1.368123E2,1.6277059E3,1.6438158E2,6.2935123E0,1.0303876E1,1.2918478E1,2.4562166E0,4.381645E0,8.032354E1,1.6673962E1,4.4313397E0,6.1200647E0,1.3069223E2,1.4140392E3,2.1366676E2,4.1764202E1,1.2261737E2,6.9056425E0,3.398233E0,1.238691E0,1.2175256E0,1.461663E0,2.919982E0,3.610035E1,4.422319E1,1.2248244E0,1.5449137E1,2.4787834E0,1.9525563E0,1.7334261E0,4.3866386E0,4.1808443E0,1.2651139E2,2.6049136E2,1.1535479E3,1.7557599E2,3.809078E1,1.2838936E1,2.8925268E1,2.2806767E1,9.98106E1,5.6850257E0,1.2206172E0,9.582998E0,2.6517351E1,2.9052951E0,1.4813434E0,2.724272E0,1.456572E0,1.06883995E2,1.962739E1,6.207668E0,2.5428369E2,2.213408E2,9.3220703E2,1.45724E2,2.985199E1,4.4185815E0,3.3672195E1,1.9525563E0,1.0886379E1,2.350666E1,5.418608E0,1.8090834E1,4.7159333E0,7.570394E1,2.410666E1,1.2302243E0,4.454801E0,5.692328E0,3.89067E0,1.2277796E0,2.5289572E1,6.7030416E0,1.2924349E1,2.1640825E2,3.7875458E1,1.0911281E1,2.1042952E2,2.745395E2,6.5766754E2,5.3603387E0,1.4036366E2,9.342321E0,2.0509668E1,1.9397982E0,2.4787834E0,1.47159815E1,1.8956215E1,8.674268E0,2.2121117E0,1.4726487E0,2.203401E1,1.7156663E0,3.702942E0,6.920457E0,1.1170377E1,7.230819E1,3.395751E0,5.421546E0,1.9868027E1,3.7214167E0,2.9816248E0,9.038739E0,2.073695E2,1.5696806E1,2.2178652E1,1.9838692E0,8.927411E0,6.2191505E1,1.4823802E2,1.9311113E2,8.142836E1,1.3728247E2,5.203851E2,2.9052951E0,2.4550433E0,2.4226623E0,6.919659E0,3.7081156E0,1.5248099E1,6.953571E0,1.720697E0,3.400579E0,1.8633432E1,2.230293E0,1.4726487E0,1.9687879E0,4.9516687E0,7.2546124E0,3.9157648E0,4.4247093E1,2.80611E1,3.9574502E0,1.4640958E0,1.9850206E0,1.7883005E1],"tree_param":{"num_deleted":"0","num_feature":"9","num_nodes":"153","size_leaf_vector":"1"}},{"base_weights":[1.2794785E-3,1.3109946E-1,-1.5838073E0,1.5448928E0,-7.9002103E-4,-8.5640126E-1,-1.8476818E0,1.6331822E-2,-1.7521305E-2,-1.5348847E0,1.3536234E-1,-1.4175113E0,1.5216961E-2,-1.6389439E0,-2.0979576E-2,9.48425E-1,-1.9208018E0,2.416846E-1,-9.11377E-1,1.4830698E-1,-1.7925092E0,6.361761E-1,-1.817536E0,1.4164853E0,-7.4482584E-1,-1.7416608E-1,-2.0005016E0,6.949628E-2,1.3782574E0,1.8298377E-1,-1.2819254E0,6.9933116E-1,-6.702263E-1,-1.2362808E0,-2.0022446E-2,-1.8543974E-3,1.0675568E-2,-3.5326253E-3,-1.8390127E0,6.4911006E-4,1.5134319E-2,-1.5569609E-2,4.658459E-3,-1.3949717E-2,4.7879627E-1,-4.855804E-1,-2.046313E0,1.1086305E0,-1.653805E-1,1.4608371E0,9.7023314E-1,-1.1304665E0,7.856597E-1,-3.19265E-1,-1.4962404E0,-3.9021715E-3,1.0911295E-2,2.6520115E-4,-1.2178801E-2,9.154411E-2,-1.6109505E0,-1.1694249E0,-1.9174532E0,1.2561437E-2,-9.346573E-3,-1.3388142E-2,1.0084624E-2,-2.1101927E-2,-1.6129653E0,-1.858481E-2,1.1883458E0,4.3721226E-1,-3.0863985E-1,1.5607098E0,9.389451E-1,-3.9449707E-1,1.155919E0,4.658459E-3,-1.4313898E0,1.1757255E0,-8.221975E-1,1.3734211E-1,-1.7857563E-2,-1.2930514E0,-2.057297E-2,-3.6544253E-3,5.088983E-3,-5.282238E-3,-1.7555177E-2,-1.4414741E0,2.107386E-3,-1.9442106E-2,-5.2653584E-3,-7.2443646E-1,-1.9883603E-2,1.3946111E0,1.9528778E-1,-1.1611501E0,5.2534E-1,2.2797064E-1,-5.3239346E-1,6.659307E-1,1.589979E-2,-4.1896084E-1,1.5500941E-2,1.1186208E-2,-1.5569609E-2,1.5672006E-2,7.7441716E-1,-1.6473163E0,-3.3503117E-3,-1.6283608E-3,1.2685931E0,3.570979E-5,-1.1239847E0,-1.1856492E0,9.892129E-1,-1.4175398E0,1.0833065E-2,-1.5847282E-2,-3.5002856E-3,1.7762764E-3,-1.6112266E-2,3.6585114E-3,1.4388716E-2,1.4778852E-2,-6.6312156E-3,8.796092E-3,-1.6566033E-2,1.0843701E-2,2.853849E-3,8.019168E-3,-1.1228295E-2,-1.4282461E-2,-2.9351627E-3,1.2561437E-2,-1.9264863E-3,1.1972208E-2,-1.0628352E-2,-1.11427605E-2,1.2756258E-2,-1.8845083E-2,-3.479273E-3,1.3465209E-2,6.32324E-3,-1.5114811E-2,-1.6283608E-3,-1.6209994E-3,-1.4970269E-2,1.3583294E-2,1.6936304E-3,-1.1138411E-2,-1.8415578E-2],"categories":[],"categories_nodes":[],"categories_segments":[],"categories_sizes":[],"default_left":[0,0,0,0,0,0,0,0,0,0,0,0,0,0,0,0,0,0,0,0,0,0,0,0,0,0,0,0,0,0,0,0,0,0,0,0,0,0,0,0,0,0,0,0,0,0,0,0,0,0,0,0,0,0,0,0,0,0,0,0,0,0,0,0,0,0,0,0,0,0,0,0,0,0,0,0,0,0,0,0,0,0,0,0,0,0,0,0,0,0,0,0,0,0,0,0,0,0,0,0,0,0,0,0,0,0,0,0,0,0,0,0,0,0,0,0,0,0,0,0,0,0,0,0,0,0,0,0,0,0,0,0,0,0,0,0,0,0,0,0,0,0,0,0,0,0,0,0,0,0,0,0,0],"id":7,"left_children":[1,3,5,7,9,11,13,-1,-1,15,17,19,-1,21,-1,23,25,27,29,31,33,35,37,39,41,43,45,47,49,51,53,55,57,59,-1,-1,-1,-1,61,-1,-1,-1,-1,-1,63,65,67,69,71,73,75,77,79,81,83,-1,-1,-1,-1,85,87,89,91,-1,-1,-1,-1,-1,93,-1,95,97,99,101,103,105,107,-1,109,111,113,115,-1,117,-1,-1,-1,-1,-1,119,-1,-1,-1,121,-1,123,125,127,129,131,133,135,-1,137,-1,-1,-1,-1,139,141,-1,-1,143,-1,145,147,149,151,-1,-1,-1,-1,-1,-1,-1,-1,-1,-1,-1,-1,-1,-1,-1,-1,-1,-1,-1,-1,-1,-1,-1,-1,-1,-1,-1,-1,-1,-1,-1,-1,-1,-1,-1],"loss_changes":[4.744366E2,3.9736694E2,3.1918732E1,5.5793243E1,4.0755035E2,6.664012E1,3.2073364E0,0E0,0E0,1.5425266E2,1.9967268E2,2.352803E1,0E0,3.1196274E1,0E0,1.8540703E1,1.8861053E1,3.1845203E2,6.733179E1,4.3377624E0,1.2623215E0,2.367727E0,1.5142975E0,2.21175E0,6.0675364E0,6.341351E0,8.15863E0,3.4544287E2,5.7964783E0,3.4711567E1,2.5050034E1,2.8232656E0,1.5440897E0,5.8123627E0,0E0,0E0,0E0,0E0,1.3070526E0,0E0,0E0,0E0,0E0,0E0,7.086996E0,7.956002E0,1.3116455E-1,6.3923706E1,9.981463E1,7.7124634E0,1.0342812E1,7.3196163E0,1.970608E1,1.6183208E1,8.846069E0,0E0,0E0,0E0,0E0,8.4438294E-1,4.712124E-1,3.9269896E0,1.1694336E0,0E0,0E0,0E0,0E0,0E0,5.4469986E0,0E0,5.1900574E1,3.190881E1,1.1220262E2,2.7724E0,2.6204584E1,1.1271922E1,4.21471E0,0E0,2.2648125E0,3.2468338E0,1.6044111E0,2.2675304E1,0E0,2.425209E1,0E0,0E0,0E0,0E0,0E0,7.2559166E-1,0E0,0E0,0E0,6.4505925E0,0E0,9.069336E0,5.0490505E1,1.3511984E1,2.8031452E1,2.1441132E2,1.4062338E2,3.462027E0,0E0,1.203751E1,0E0,0E0,0E0,0E0,2.028296E1,2.3293514E0,0E0,0E0,2.8819656E-1,0E0,1.5067067E0,2.2840405E0,3.447135E0,7.4007416E0,0E0,0E0,0E0,0E0,0E0,0E0,0E0,0E0,0E0,0E0,0E0,0E0,0E0,0E0,0E0,0E0,0E0,0E0,0E0,0E0,0E0,0E0,0E0,0E0,0E0,0E0,0E0,0E0,0E0,0E0,0E0,0E0,0E0,0E0,0E0],"parents":[2147483647,0,0,1,1,2,2,3,3,4,4,5,5,6,6,9,9,10,10,11,11,13,13,15,15,16,16,17,17,18,18,19,19,20,20,21,21,22,22,23,23,24,24,25,25,26,26,27,27,28,28,29,29,30,30,31,31,32,32,33,33,38,38,44,44,45,45,46,46,47,47,48,48,49,49,50,50,51,51,52,52,53,53,54,54,59,59,60,60,61,61,62,62,68,68,70,70,71,71,72,72,73,73,74,74,75,75,76,76,78,78,79,79,80,80,81,81,83,83,89,89,93,93,95,95,96,96,97,97,98,98,99,99,100,100,101,101,103,103,108,108,109,109,112,112,114,114,115,115,116,116,117,117],"right_children":[2,4,6,8,10,12,14,-1,-1,16,18,20,-1,22,-1,24,26,28,30,32,34,36,38,40,42,44,46,48,50,52,54,56,58,60,-1,-1,-1,-1,62,-1,-1,-1,-1,-1,64,66,68,70,72,74,76,78,80,82,84,-1,-1,-1,-1,86,88,90,92,-1,-1,-1,-1,-1,94,-1,96,98,100,102,104,106,108,-1,110,112,114,116,-1,118,-1,-1,-1,-1,-1,120,-1,-1,-1,122,-1,124,126,128,130,132,134,136,-1,138,-1,-1,-1,-1,140,142,-1,-1,144,-1,146,148,150,152,-1,-1,-1,-1,-1,-1,-1,-1,-1,-1,-1,-1,-1,-1,-1,-1,-1,-1,-1,-1,-1,-1,-1,-1,-1,-1,-1,-1,-1,-1,-1,-1,-1,-1,-1],"split_conditions":[1.596115E0,-8.2600385E-1,-1.0174525E0,-7.258785E-1,-1.1949925E0,1.6213001E0,-8.1008524E-1,1.6331822E-2,-1.7521305E-2,-6.93728E-1,1.634292E-1,-6.5390307E-1,1.5216961E-2,-1.630959E0,-2.0979576E-2,-2.2883566E-1,-1.9117054E0,-4.345987E-1,-7.5139767E-1,-9.6749485E-1,-1.2316451E-1,-2.5502202E-1,-2.2554517E0,-6.973933E-1,-1.4451192E-1,-5.6273097E-1,-8.1407833E-1,-6.3009495E-1,1.3190783E0,1.4428785E0,-7.690894E-1,-2.5706652E-1,-1.168957E0,-2.5680083E-1,-2.0022446E-2,-1.8543974E-3,1.0675568E-2,-3.5326253E-3,-1.2283555E0,6.4911006E-4,1.5134319E-2,-1.5569609E-2,4.658459E-3,-1.3949717E-2,-1.3725257E-1,-8.289653E-1,-6.632058E-1,-1.0826625E0,-8.0588067E-1,1.5434663E0,5.2598643E-1,-7.4819285E-1,-7.00422E-1,1.5095077E0,2.646304E0,-3.9021715E-3,1.0911295E-2,2.6520115E-4,-1.2178801E-2,-2.572252E-1,-5.765313E-1,-1.2756664E0,4.43512E-1,1.2561437E-2,-9.346573E-3,-1.3388142E-2,1.0084624E-2,-2.1101927E-2,-7.13535E-1,-1.858481E-2,-6.1135507E-1,-1.0196322E0,-5.775675E-1,-1.2835654E0,-9.2480436E-2,3.9379546E-1,9.844905E-1,4.658459E-3,-5.642925E-1,-2.5745162E-1,-6.91612E-1,1.4487603E0,-1.7857563E-2,-6.7021817E-1,-2.057297E-2,-3.6544253E-3,5.088983E-3,-5.282238E-3,-1.7555177E-2,-1.8255182E-1,2.107386E-3,-1.9442106E-2,-5.2653584E-3,-9.1021115E-1,-1.9883603E-2,-1.0816112E0,-6.9843817E-1,-6.2216884E-1,-4.266955E-1,-2.4635297E-1,-2.6885498E-1,-7.4102503E-1,1.589979E-2,1.3979409E0,1.5500941E-2,1.1186208E-2,-1.5569609E-2,1.5672006E-2,1.3467817E0,-7.21398E-1,-3.3503117E-3,-1.6283608E-3,8.28611E-2,3.570979E-5,-2.7280757E-1,-7.356278E-1,-7.815296E-1,-7.124847E-1,1.0833065E-2,-1.5847282E-2,-3.5002856E-3,1.7762764E-3,-1.6112266E-2,3.6585114E-3,1.4388716E-2,1.4778852E-2,-6.6312156E-3,8.796092E-3,-1.6566033E-2,1.0843701E-2,2.853849E-3,8.019168E-3,-1.1228295E-2,-1.4282461E-2,-2.9351627E-3,1.2561437E-2,-1.9264863E-3,1.1972208E-2,-1.0628352E-2,-1.11427605E-2,1.2756258E-2,-1.8845083E-2,-3.479273E-3,1.3465209E-2,6.32324E-3,-1.5114811E-2,-1.6283608E-3,-1.6209994E-3,-1.4970269E-2,1.3583294E-2,1.6936304E-3,-1.1138411E-2,-1.8415578E-2],"split_indices":[5,1,1,3,7,5,3,0,0,5,5,2,0,2,0,1,2,5,2,3,2,0,6,5,4,1,1,4,2,5,4,0,2,0,0,0,0,0,2,0,0,0,0,0,1,4,5,5,2,4,1,1,4,5,3,0,0,0,0,0,2,2,0,0,0,0,0,0,4,0,1,5,7,6,5,1,3,0,3,0,4,5,0,1,0,0,0,0,0,0,0,0,0,2,0,5,5,4,4,3,7,2,0,1,0,0,0,0,4,4,0,0,0,0,6,3,4,1,0,0,0,0,0,0,0,0,0,0,0,0,0,0,0,0,0,0,0,0,0,0,0,0,0,0,0,0,0,0,0,0,0,0,0],"split_type":[0,0,0,0,0,0,0,0,0,0,0,0,0,0,0,0,0,0,0,0,0,0,0,0,0,0,0,0,0,0,0,0,0,0,0,0,0,0,0,0,0,0,0,0,0,0,0,0,0,0,0,0,0,0,0,0,0,0,0,0,0,0,0,0,0,0,0,0,0,0,0,0,0,0,0,0,0,0,0,0,0,0,0,0,0,0,0,0,0,0,0,0,0,0,0,0,0,0,0,0,0,0,0,0,0,0,0,0,0,0,0,0,0,0,0,0,0,0,0,0,0,0,0,0,0,0,0,0,0,0,0,0,0,0,0,0,0,0,0,0,0,0,0,0,0,0,0,0,0,0,0,0,0],"sum_hessian":[2.3035889E3,2.130053E3,1.7353589E2,1.8083826E2,1.9492147E3,4.7324593E1,1.262113E2,1.7661346E2,4.2247996E0,1.5805534E2,1.7911594E3,3.8616898E1,8.707693E0,7.293219E1,5.3279114E1,2.1062725E1,1.3699261E2,1.6266973E3,1.6446219E2,7.578228E0,3.103867E1,5.121842E0,6.781035E1,1.662937E1,4.4333553E0,6.117248E0,1.3087537E2,1.4136008E3,2.1309631E2,4.1728714E1,1.22733475E2,4.6162605E0,2.9619677E0,1.0386814E1,2.0651855E1,1.9596262E0,3.1622155E0,1.2324331E0,6.657791E1,1.2247108E0,1.5404659E1,2.4822187E0,1.9511367E0,1.735713E0,4.381535E0,4.182008E0,1.2669336E2,2.5992575E2,1.1536752E3,1.7508145E2,3.8014866E1,1.2849415E1,2.88793E1,2.2801825E1,9.9931656E1,1.2220128E0,3.3942478E0,1.7223291E0,1.2396386E0,2.4521365E0,7.9346776E0,8.6497555E0,5.7928158E1,2.8986688E0,1.4828662E0,2.7279816E0,1.4540263E0,1.07044426E2,1.9648933E1,6.21672E0,2.5370901E2,2.2119775E2,9.324774E2,1.4528777E2,2.9793692E1,4.4181767E0,3.3596687E1,1.9511367E0,1.0898278E1,2.3457321E1,5.421978E0,1.8079067E1,4.7227573E0,7.578902E1,2.4142637E1,1.2298648E0,1.2222717E0,1.4828452E0,6.451833E0,7.1884003E0,1.4613552E0,5.6444534E1,1.4836242E0,6.706055E0,1.2942878E1,2.0974011E2,4.3968914E1,1.0922474E1,2.1027527E2,2.7439612E2,6.580813E2,5.354349E0,1.3993341E2,9.344875E0,2.0448816E1,1.935958E0,2.4822187E0,1.4671722E1,1.8924965E1,8.685204E0,2.2130747E0,1.4729736E0,2.1984348E1,1.7156577E0,3.7063203E0,6.927911E0,1.1151156E1,7.239974E1,3.3892708E0,5.9548597E0,1.2335407E0,3.7208323E0,2.985223E0,9.03367E0,2.0070644E2,1.7339437E1,2.6629478E1,1.9822545E0,8.94022E0,6.2094032E1,1.4818124E2,1.9285826E2,8.153787E1,1.3748756E2,5.205937E2,2.8986688E0,2.4556801E0,2.4174528E0,6.9274225E0,3.7124078E0,1.5212557E1,6.9637322E0,1.7214719E0,1.8591105E1,3.3932443E0,2.2333467E0,1.4729736E0,1.9706509E0,4.95726E0,7.236365E0,3.914792E0,4.429836E1,2.8101387E1],"tree_param":{"num_deleted":"0","num_feature":"9","num_nodes":"153","size_leaf_vector":"1"}},{"base_weights":[1.198313E-3,1.2984495E-1,-1.567112E0,1.5343018E0,-8.215218E-4,-6.4827144E-1,-1.7684474E0,1.6222553E-2,-1.7361654E-2,-1.5189085E0,1.3407728E-1,3.8662001E-1,-1.716541E0,-1.5507878E0,-2.0610929E-2,9.41063E-1,-1.9000053E0,2.3946527E-1,-9.0238684E-1,1.3115419E-2,-2.4211101E-1,-1.9025778E-2,-4.688354E-1,8.34133E-1,-1.6889247E0,1.4068954E0,-7.391521E-1,-1.7400289E-1,-1.978615E0,6.882639E-2,1.3685223E0,1.8086849E-1,-1.2685409E0,-9.452013E-1,1.0816829E-2,-1.2035511E-2,4.868812E-3,2.054475E-3,1.0160899E-2,-1.2483423E0,-2.0128188E0,6.455702E-4,1.503434E-2,-1.5444753E-2,4.6299133E-3,-1.3850499E-2,4.750867E-1,-4.812383E-1,-2.0238383E-2,1.1000595E0,-1.637226E-1,1.4506989E0,9.628219E-1,-1.1199361E0,7.7909964E-1,-3.1695804E-1,-1.480088E0,-1.2825453E0,4.986901E-3,-3.6634707E-1,-1.5416079E0,-2.0505972E-2,-8.8707395E-3,1.2489919E-2,-9.285303E-3,-1.3277944E-2,1.0035561E-2,-1.8404458E-2,1.1793305E0,4.3315688E-1,-3.0549324E-1,1.5500677E0,9.319565E-1,-3.9141178E-1,1.1474621E0,4.6299133E-3,-1.4179703E0,1.1671342E0,-8.161809E-1,1.3600016E-1,-1.7691495E-2,-1.2790813E0,-2.03506E-2,-3.5894557E-3,-1.4250574E-2,-1.4183127E-2,1.1538065E-2,7.9522E-4,-1.6202388E0,1.3670573E0,1.03201754E-1,-1.1492381E0,5.20541E-1,2.2581059E-1,-5.267787E-1,6.615939E-1,1.5791807E-2,-4.145555E-1,1.5398349E-2,1.1127413E-2,-1.5444753E-2,1.5570788E-2,7.680145E-1,-1.6315228E0,-3.3262533E-3,-1.6184514E-3,1.2595675E0,3.5484052E-5,-1.1155629E0,-1.1748531E0,9.8218054E-1,-1.4021703E0,1.0765735E-2,-6.5314513E-1,-1.8399925E0,3.6274209E-3,1.4090568E-2,1.4476037E-2,-8.629194E-3,8.7425755E-3,-1.6398024E-2,1.0754129E-2,2.8265838E-3,7.949957E-3,-1.11034E-2,-1.4121287E-2,-2.9047243E-3,1.2489919E-2,-1.9124472E-3,1.1906205E-2,-1.0525722E-2,-1.1045484E-2,1.2665144E-2,-1.8659486E-2,-3.4562957E-3,6.2798103E-3,1.3369701E-2,-1.4997451E-2,-1.6184514E-3,-1.6100372E-3,-1.482933E-2,1.3494788E-2,1.6804743E-3,-1.1017745E-2,-1.8215647E-2,-1.1524716E-2,6.1933044E-3,-7.6669455E-3,-1.912274E-2],"categories":[],"categories_nodes":[],"categories_segments":[],"categories_sizes":[],"default_left":[0,0,0,0,0,0,0,0,0,0,0,0,0,0,0,0,0,0,0,0,0,0,0,0,0,0,0,0,0,0,0,0,0,0,0,0,0,0,0,0,0,0,0,0,0,0,0,0,0,0,0,0,0,0,0,0,0,0,0,0,0,0,0,0,0,0,0,0,0,0,0,0,0,0,0,0,0,0,0,0,0,0,0,0,0,0,0,0,0,0,0,0,0,0,0,0,0,0,0,0,0,0,0,0,0,0,0,0,0,0,0,0,0,0,0,0,0,0,0,0,0,0,0,0,0,0,0,0,0,0,0,0,0,0,0,0,0,0,0,0,0,0,0,0,0,0,0,0,0],"id":8,"left_children":[1,3,5,7,9,11,13,-1,-1,15,17,19,21,23,-1,25,27,29,31,-1,33,-1,35,37,39,41,43,45,47,49,51,53,55,57,-1,-1,-1,-1,-1,59,61,-1,-1,-1,-1,-1,63,65,-1,67,69,71,73,75,77,79,81,83,-1,85,87,-1,-1,-1,-1,-1,-1,-1,89,91,93,95,97,99,101,-1,103,105,107,109,-1,111,-1,-1,-1,-1,-1,-1,113,115,117,119,121,123,125,127,-1,129,-1,-1,-1,-1,131,133,-1,-1,135,-1,137,139,141,143,-1,145,147,-1,-1,-1,-1,-1,-1,-1,-1,-1,-1,-1,-1,-1,-1,-1,-1,-1,-1,-1,-1,-1,-1,-1,-1,-1,-1,-1,-1,-1,-1,-1,-1,-1,-1],"loss_changes":[4.6490308E2,3.9080972E2,3.116977E1,5.4957184E1,3.9939767E2,3.7120186E1,5.8939514E0,0E0,0E0,1.5100052E2,1.9586392E2,1.0532594E1,2.9171371E0,2.970134E1,0E0,1.8273794E1,1.8399109E1,3.1329135E2,6.588266E1,0E0,1.1541261E1,0E0,3.012951E0,4.0568662E-1,9.118698E0,2.1815453E0,5.976813E0,6.2501845E0,7.9665527E0,3.3930063E2,5.7213745E0,3.409345E1,2.4459183E1,4.4948416E0,0E0,0E0,0E0,0E0,0E0,9.048637E0,1.0928345E-1,0E0,0E0,0E0,0E0,0E0,6.9997025E0,7.8468113E0,0E0,6.285492E1,9.78488E1,7.605591E0,1.0184944E1,7.1944942E0,1.9419243E1,1.5892575E1,8.668152E0,3.698206E-1,0E0,1.8564932E1,3.6445465E0,0E0,0E0,0E0,0E0,0E0,0E0,0E0,5.1194885E1,3.1302551E1,1.0989597E2,2.727539E0,2.5793804E1,1.1114382E1,4.169323E0,0E0,2.2175179E0,3.2020378E0,1.5807495E0,2.2302603E1,0E0,2.3797096E1,0E0,0E0,0E0,0E0,0E0,0E0,4.3984756E0,8.612091E0,5.1679474E1,1.3278225E1,2.7562458E1,2.1020976E2,1.3756097E2,3.4190207E0,0E0,1.1849722E1,0E0,0E0,0E0,0E0,1.9968113E1,2.2775383E0,0E0,0E0,2.8154755E-1,0E0,1.4828119E0,2.2396631E0,3.4008894E0,7.2507477E0,0E0,4.7989225E0,1.5698242E-1,0E0,0E0,0E0,0E0,0E0,0E0,0E0,0E0,0E0,0E0,0E0,0E0,0E0,0E0,0E0,0E0,0E0,0E0,0E0,0E0,0E0,0E0,0E0,0E0,0E0,0E0,0E0,0E0,0E0,0E0,0E0,0E0,0E0,0E0],"parents":[2147483647,0,0,1,1,2,2,3,3,4,4,5,5,6,6,9,9,10,10,11,11,12,12,13,13,15,15,16,16,17,17,18,18,20,20,22,22,23,23,24,24,25,25,26,26,27,27,28,28,29,29,30,30,31,31,32,32,33,33,39,39,40,40,46,46,47,47,49,49,50,50,51,51,52,52,53,53,54,54,55,55,56,56,57,57,59,59,60,60,68,68,69,69,70,70,71,71,72,72,73,73,74,74,76,76,77,77,78,78,79,79,81,81,88,88,89,89,90,90,91,91,92,92,93,93,94,94,95,95,97,97,102,102,103,103,106,106,108,108,109,109,110,110,111,111,113,113,114,114],"right_children":[2,4,6,8,10,12,14,-1,-1,16,18,20,22,24,-1,26,28,30,32,-1,34,-1,36,38,40,42,44,46,48,50,52,54,56,58,-1,-1,-1,-1,-1,60,62,-1,-1,-1,-1,-1,64,66,-1,68,70,72,74,76,78,80,82,84,-1,86,88,-1,-1,-1,-1,-1,-1,-1,90,92,94,96,98,100,102,-1,104,106,108,110,-1,112,-1,-1,-1,-1,-1,-1,114,116,118,120,122,124,126,128,-1,130,-1,-1,-1,-1,132,134,-1,-1,136,-1,138,140,142,144,-1,146,148,-1,-1,-1,-1,-1,-1,-1,-1,-1,-1,-1,-1,-1,-1,-1,-1,-1,-1,-1,-1,-1,-1,-1,-1,-1,-1,-1,-1,-1,-1,-1,-1,-1,-1],"split_conditions":[1.596115E0,-8.2600385E-1,-9.6749485E-1,-7.258785E-1,-1.1949925E0,-1.2316451E-1,-8.14459E-1,1.6222553E-2,-1.7361654E-2,-6.93728E-1,1.634292E-1,-8.131739E-1,-1.0519968E0,-1.630959E0,-2.0610929E-2,-2.2883566E-1,-1.9117054E0,-4.345987E-1,-7.5139767E-1,1.3115419E-2,-2.5330305E-1,-1.9025778E-2,-2.5146487E-1,-8.420712E-1,-3.9262015E-1,-6.973933E-1,-1.4451192E-1,-5.6273097E-1,-8.1008524E-1,-6.3009495E-1,1.3190783E0,1.4428785E0,-7.690894E-1,-2.2324143E-1,1.0816829E-2,-1.2035511E-2,4.868812E-3,2.054475E-3,1.0160899E-2,-1.0123788E0,1.7344932E-1,6.455702E-4,1.503434E-2,-1.5444753E-2,4.6299133E-3,-1.3850499E-2,-1.3725257E-1,-8.289653E-1,-2.0238383E-2,-1.0826625E0,-8.0588067E-1,1.5434663E0,5.2598643E-1,-7.4819285E-1,-7.00422E-1,1.5095077E0,2.646304E0,-2.5728133E-1,4.986901E-3,-9.536555E-1,-1.6729436E0,-2.0505972E-2,-8.8707395E-3,1.2489919E-2,-9.285303E-3,-1.3277944E-2,1.0035561E-2,-1.8404458E-2,-6.0638046E-1,-1.0196322E0,-5.775675E-1,-1.2835654E0,-9.2480436E-2,3.9379546E-1,9.844905E-1,4.6299133E-3,-5.642925E-1,-2.5745162E-1,-6.91612E-1,1.4487603E0,-1.7691495E-2,-6.7021817E-1,-2.03506E-2,-3.5894557E-3,-1.4250574E-2,-1.4183127E-2,1.1538065E-2,7.9522E-4,-1.2283555E0,-1.0816112E0,-6.9843817E-1,-6.2216884E-1,-4.266955E-1,-2.4635297E-1,-2.6885498E-1,-7.4102503E-1,1.5791807E-2,1.3979409E0,1.5398349E-2,1.1127413E-2,-1.5444753E-2,1.5570788E-2,1.3467817E0,-7.21398E-1,-3.3262533E-3,-1.6184514E-3,-7.5570184E-1,3.5484052E-5,-2.7280757E-1,-7.356278E-1,-7.815296E-1,-7.124847E-1,1.0765735E-2,-1.2885172E0,-9.3759E-1,3.6274209E-3,1.4090568E-2,1.4476037E-2,-8.629194E-3,8.7425755E-3,-1.6398024E-2,1.0754129E-2,2.8265838E-3,7.949957E-3,-1.11034E-2,-1.4121287E-2,-2.9047243E-3,1.2489919E-2,-1.9124472E-3,1.1906205E-2,-1.0525722E-2,-1.1045484E-2,1.2665144E-2,-1.8659486E-2,-3.4562957E-3,6.2798103E-3,1.3369701E-2,-1.4997451E-2,-1.6184514E-3,-1.6100372E-3,-1.482933E-2,1.3494788E-2,1.6804743E-3,-1.1017745E-2,-1.8215647E-2,-1.1524716E-2,6.1933044E-3,-7.6669455E-3,-1.912274E-2],"split_indices":[5,1,3,3,7,2,3,0,0,5,5,2,1,2,0,1,2,5,2,0,0,0,0,1,2,5,4,1,3,4,2,5,4,2,0,0,0,0,0,1,0,0,0,0,0,0,1,4,0,5,2,4,1,1,4,5,3,0,0,3,6,0,0,0,0,0,0,0,1,5,7,6,5,1,3,0,3,0,4,5,0,1,0,0,0,0,0,0,2,5,5,4,4,3,7,2,0,1,0,0,0,0,4,4,0,0,3,0,6,3,4,1,0,2,3,0,0,0,0,0,0,0,0,0,0,0,0,0,0,0,0,0,0,0,0,0,0,0,0,0,0,0,0,0,0,0,0,0,0],"split_type":[0,0,0,0,0,0,0,0,0,0,0,0,0,0,0,0,0,0,0,0,0,0,0,0,0,0,0,0,0,0,0,0,0,0,0,0,0,0,0,0,0,0,0,0,0,0,0,0,0,0,0,0,0,0,0,0,0,0,0,0,0,0,0,0,0,0,0,0,0,0,0,0,0,0,0,0,0,0,0,0,0,0,0,0,0,0,0,0,0,0,0,0,0,0,0,0,0,0,0,0,0,0,0,0,0,0,0,0,0,0,0,0,0,0,0,0,0,0,0,0,0,0,0,0,0,0,0,0,0,0,0,0,0,0,0,0,0,0,0,0,0,0,0,0,0,0,0,0,0],"sum_hessian":[2.3022542E3,2.1285674E3,1.7368666E2,1.8026483E2,1.9483026E3,3.1976135E1,1.4171053E2,1.7603465E2,4.2301807E0,1.581621E2,1.7901405E3,1.6565912E1,1.5410223E1,8.4879364E1,5.6831165E1,2.1018541E1,1.3714355E2,1.6256163E3,1.6452419E2,6.264393E0,1.030152E1,1.2953895E1,2.4563277E0,4.371275E0,8.0508095E1,1.6583506E1,4.4350367E0,6.114009E0,1.3102954E2,1.4131086E3,2.1250775E2,4.1690414E1,1.2283377E2,6.9148903E0,3.3866293E0,1.2421192E0,1.2142085E0,1.4590747E0,2.9122002E0,3.616635E1,4.434174E1,1.2245977E0,1.5358908E1,2.4853306E0,1.9497061E0,1.7378181E0,4.3761907E0,4.1825724E0,1.2684697E2,2.5934018E2,1.1537684E3,1.7457166E2,3.7936104E1,1.2858524E1,2.8831888E1,2.2795069E1,1.000387E2,5.6958766E0,1.2190139E0,9.585923E0,2.658043E1,4.210714E1,2.2346013E0,2.8918746E0,1.4843161E0,2.7311463E0,1.4514258E0,6.224622E0,2.5311554E2,2.2105064E2,9.327178E2,1.4483862E2,2.9733027E1,4.417359E0,3.3518745E1,1.9497061E0,1.0908818E1,2.3406818E1,5.42507E0,1.8066296E1,4.7287736E0,7.5865555E1,2.4173147E1,1.2317555E0,4.464121E0,5.7049904E0,3.8809323E0,1.2290863E0,2.5351343E1,2.1528882E2,3.7826733E1,1.0932262E1,2.1011838E2,2.7424304E2,6.5847473E2,5.3481827E0,1.3949045E2,9.346846E0,2.038618E1,1.9320282E0,2.4853306E0,1.4626153E1,1.8892593E1,8.6948E0,2.2140183E0,1.4732946E0,2.1933525E1,1.715649E0,3.7094207E0,6.9348354E0,1.113146E1,7.24829E1,3.3826501E0,5.429471E0,1.9921871E1,9.028588E0,2.0626022E2,1.5608468E1,2.2218266E1,1.9805748E0,8.951688E0,6.1993946E1,1.4812444E2,1.9260184E2,8.164121E1,1.3767667E2,5.2079803E2,2.8918746E0,2.456308E0,2.412116E0,6.9347296E0,3.7164376E0,1.5176156E1,6.9725685E0,1.7222316E0,3.3894663E0,1.8544058E1,2.236126E0,1.4732946E0,1.971034E0,4.9638014E0,7.217639E0,3.9138217E0,4.4346382E1,2.8136517E1,3.9670758E0,1.4623952E0,1.989348E0,1.7932524E1],"tree_param":{"num_deleted":"0","num_feature":"9","num_nodes":"149","size_leaf_vector":"1"}},{"base_weights":[1.1330853E-3,1.2862541E-1,-1.5508869E0,1.523944E0,-8.357736E-4,-8.3943206E-1,-1.8085184E0,1.61157E-2,-1.720569E-2,-1.5031214E0,1.3280962E-1,-1.3897257E0,1.5058305E-2,-1.5940167E0,-2.0387948E-2,9.338302E-1,-1.8795096E0,2.3727483E-1,-8.935841E-1,1.4592266E-1,-1.7563298E0,8.289378E-1,-1.7662935E0,1.397481E0,-7.3356295E-1,-1.7383961E-1,-1.9570547E0,6.816368E-2,1.3589797E0,1.7878848E-1,-1.2554537E0,6.8915945E-1,-6.584846E-1,-1.2137562E0,-1.9605126E-2,1.0101213E-2,2.0373315E-3,-8.170128E-1,-1.8502101E0,6.420486E-4,1.4936296E-2,-1.532227E-2,4.601571E-3,-1.3752854E-2,4.714304E-1,-4.7640297E-1,-2.0017278E0,1.0916144E0,-1.6208592E-1,1.4407659E0,9.5554173E-1,-1.1096103E0,7.7263474E-1,-3.1468964E-1,-1.4643091E0,-3.9046842E-3,1.0792397E-2,3.073444E-4,-1.2017886E-2,9.2098415E-2,-1.5817349E0,-1.2411852E0,3.4292021E-3,-4.664454E-3,-1.889328E0,1.2419424E-2,-9.22468E-3,-1.316148E-2,9.987009E-3,-2.0645838E-2,-1.5760164E0,-1.8228695E-2,1.170445E0,4.2914712E-1,-3.0238813E-1,1.5396458E0,9.2509586E-1,-3.8837403E-1,1.139153E0,4.601571E-3,-1.4048336E0,1.158669E0,-8.102413E-1,1.3468066E-1,-1.7529385E-2,-1.2654003E0,-2.0134918E-2,-3.6103998E-3,5.058019E-3,-1.805955E-2,-7.0842383E-3,-3.2378759E-3,-1.4337295E-2,-1.9161217E-2,-5.191067E-3,-7.00291E-1,-1.9469848E-2,1.3746482E0,1.9114448E-1,-1.1375772E0,5.157924E-1,2.2367872E-1,-5.21239E-1,6.573074E-1,1.5686098E-2,-4.1021433E-1,1.5297823E-2,1.1069331E-2,-1.532227E-2,1.547165E-2,7.6170963E-1,-1.6160992E0,-3.3023842E-3,-1.6086034E-3,1.2506793E0,3.5259847E-5,-1.1072669E0,-1.1642432E0,9.7524065E-1,-1.3871238E0,1.0699216E-2,1.9195672E-3,-1.5813302E-2,3.5965985E-3,1.4185158E-2,1.458317E-2,-6.512529E-3,8.689589E-3,-1.6233861E-2,1.0665754E-2,2.7995803E-3,7.881497E-3,-1.0980709E-2,-1.3963526E-2,-2.874624E-3,1.2419424E-2,-1.8985146E-3,1.1841084E-2,-1.0424671E-2,-1.0949645E-2,1.25754075E-2,-1.8478718E-2,-3.4334846E-3,1.32837E-2,6.195278E-3,-1.4882221E-2,-1.6086034E-3,-1.5544298E-3,-1.471639E-2,1.3407726E-2,1.667419E-3,-1.0899156E-2,-1.8021025E-2],"categories":[],"categories_nodes":[],"categories_segments":[],"categories_sizes":[],"default_left":[0,0,0,0,0,0,0,0,0,0,0,0,0,0,0,0,0,0,0,0,0,0,0,0,0,0,0,0,0,0,0,0,0,0,0,0,0,0,0,0,0,0,0,0,0,0,0,0,0,0,0,0,0,0,0,0,0,0,0,0,0,0,0,0,0,0,0,0,0,0,0,0,0,0,0,0,0,0,0,0,0,0,0,0,0,0,0,0,0,0,0,0,0,0,0,0,0,0,0,0,0,0,0,0,0,0,0,0,0,0,0,0,0,0,0,0,0,0,0,0,0,0,0,0,0,0,0,0,0,0,0,0,0,0,0,0,0,0,0,0,0,0,0,0,0,0,0,0,0,0,0,0,0],"id":9,"left_children":[1,3,5,7,9,11,13,-1,-1,15,17,19,-1,21,-1,23,25,27,29,31,33,35,37,39,41,43,45,47,49,51,53,55,57,59,-1,-1,-1,61,63,-1,-1,-1,-1,-1,65,67,69,71,73,75,77,79,81,83,85,-1,-1,-1,-1,87,89,91,-1,-1,93,-1,-1,-1,-1,-1,95,-1,97,99,101,103,105,107,109,-1,111,113,115,117,-1,119,-1,-1,-1,-1,-1,-1,-1,-1,-1,121,-1,123,125,127,129,131,133,135,-1,137,-1,-1,-1,-1,139,141,-1,-1,143,-1,145,147,149,151,-1,-1,-1,-1,-1,-1,-1,-1,-1,-1,-1,-1,-1,-1,-1,-1,-1,-1,-1,-1,-1,-1,-1,-1,-1,-1,-1,-1,-1,-1,-1,-1,-1],"loss_changes":[4.5565015E2,3.843944E2,3.0522217E1,5.413925E1,3.91363E2,6.447664E1,3.0462646E0,0E0,0E0,1.478198E2,1.9214421E2,2.2590271E1,0E0,3.0924438E1,0E0,1.8012053E1,1.7948364E1,3.082473E2,6.447458E1,4.1982255E0,1.1768799E0,4.0200925E-1,3.7628021E0,2.1521454E0,5.8880177E0,6.160705E0,7.7881775E0,3.3328305E2,5.6480713E0,3.3488777E1,2.3887177E1,2.7812016E0,1.5218292E0,5.6251526E0,0E0,0E0,0E0,3.9526095E0,2.368866E0,0E0,0E0,0E0,0E0,0E0,6.9137716E0,7.734662E0,1.706543E-1,6.1808838E1,9.59243E1,7.5012207E0,1.0030106E1,7.072525E0,1.9137547E1,1.5609427E1,8.499542E0,0E0,0E0,0E0,0E0,8.297155E-1,4.733925E-1,5.011959E-1,0E0,0E0,1.1370544E0,0E0,0E0,0E0,0E0,0E0,5.358219E0,0E0,5.043289E1,3.0709484E1,1.07640015E2,2.6842346E0,2.5391903E1,1.0959895E1,4.1250763E0,0E0,2.171997E0,3.158146E0,1.5575876E0,2.1937338E1,0E0,2.3353577E1,0E0,0E0,0E0,0E0,0E0,0E0,0E0,0E0,0E0,6.3710566E0,0E0,8.82254E0,4.8881096E1,1.3050351E1,2.7103615E1,2.0610017E2,1.3459111E2,3.376765E0,0E0,1.1665581E1,0E0,0E0,0E0,0E0,1.9659222E1,2.2278366E0,0E0,0E0,2.9902267E-1,0E0,1.4595504E0,2.2338047E0,3.3557167E0,7.108124E0,0E0,0E0,0E0,0E0,0E0,0E0,0E0,0E0,0E0,0E0,0E0,0E0,0E0,0E0,0E0,0E0,0E0,0E0,0E0,0E0,0E0,0E0,0E0,0E0,0E0,0E0,0E0,0E0,0E0,0E0,0E0,0E0,0E0],"parents":[2147483647,0,0,1,1,2,2,3,3,4,4,5,5,6,6,9,9,10,10,11,11,13,13,15,15,16,16,17,17,18,18,19,19,20,20,21,21,22,22,23,23,24,24,25,25,26,26,27,27,28,28,29,29,30,30,31,31,32,32,33,33,37,37,38,38,44,44,45,45,46,46,47,47,48,48,49,49,50,50,51,51,52,52,53,53,54,54,59,59,60,60,61,61,64,64,70,70,72,72,73,73,74,74,75,75,76,76,77,77,78,78,80,80,81,81,82,82,83,83,85,85,95,95,97,97,98,98,99,99,100,100,101,101,102,102,103,103,105,105,110,110,111,111,114,114,116,116,117,117,118,118,119,119],"right_children":[2,4,6,8,10,12,14,-1,-1,16,18,20,-1,22,-1,24,26,28,30,32,34,36,38,40,42,44,46,48,50,52,54,56,58,60,-1,-1,-1,62,64,-1,-1,-1,-1,-1,66,68,70,72,74,76,78,80,82,84,86,-1,-1,-1,-1,88,90,92,-1,-1,94,-1,-1,-1,-1,-1,96,-1,98,100,102,104,106,108,110,-1,112,114,116,118,-1,120,-1,-1,-1,-1,-1,-1,-1,-1,-1,122,-1,124,126,128,130,132,134,136,-1,138,-1,-1,-1,-1,140,142,-1,-1,144,-1,146,148,150,152,-1,-1,-1,-1,-1,-1,-1,-1,-1,-1,-1,-1,-1,-1,-1,-1,-1,-1,-1,-1,-1,-1,-1,-1,-1,-1,-1,-1,-1,-1,-1,-1,-1],"split_conditions":[1.596115E0,-8.2600385E-1,-1.0174525E0,-7.258785E-1,-1.1949925E0,1.6213001E0,-8.14459E-1,1.61157E-2,-1.720569E-2,-6.93728E-1,1.634292E-1,-6.5390307E-1,1.5058305E-2,-1.630959E0,-2.0387948E-2,-2.2883566E-1,-1.9117054E0,-4.345987E-1,-7.5139767E-1,-9.6749485E-1,-1.2316451E-1,-9.829343E-1,-1.2283555E0,-6.973933E-1,-1.4451192E-1,-5.6273097E-1,-8.1407833E-1,-6.3009495E-1,1.3190783E0,1.4428785E0,-7.690894E-1,-2.5706652E-1,-1.168957E0,-2.5680083E-1,-1.9605126E-2,1.0101213E-2,2.0373315E-3,-1.2885172E0,-1.6729436E0,6.420486E-4,1.4936296E-2,-1.532227E-2,4.601571E-3,-1.3752854E-2,-1.3725257E-1,-8.289653E-1,-6.632058E-1,-1.0826625E0,-8.0588067E-1,1.5434663E0,5.2598643E-1,-7.4819285E-1,-7.00422E-1,1.5095077E0,2.646304E0,-3.9046842E-3,1.0792397E-2,3.073444E-4,-1.2017886E-2,-2.572252E-1,-2.2450745E-1,-1.5705773E0,3.4292021E-3,-4.664454E-3,4.43512E-1,1.2419424E-2,-9.22468E-3,-1.316148E-2,9.987009E-3,-2.0645838E-2,-7.13535E-1,-1.8228695E-2,-6.1135507E-1,-1.0196322E0,-5.775675E-1,-1.2835654E0,-9.2480436E-2,3.9379546E-1,9.844905E-1,4.601571E-3,-5.642925E-1,-2.5745162E-1,-6.91612E-1,1.4487603E0,-1.7529385E-2,-6.7021817E-1,-2.0134918E-2,-3.6103998E-3,5.058019E-3,-1.805955E-2,-7.0842383E-3,-3.2378759E-3,-1.4337295E-2,-1.9161217E-2,-5.191067E-3,-9.1021115E-1,-1.9469848E-2,-1.0816112E0,-6.9843817E-1,-6.2216884E-1,-4.266955E-1,-2.4635297E-1,-2.6885498E-1,-7.4102503E-1,1.5686098E-2,1.3979409E0,1.5297823E-2,1.1069331E-2,-1.532227E-2,1.547165E-2,1.3467817E0,-7.21398E-1,-3.3023842E-3,-1.6086034E-3,8.28611E-2,3.5259847E-5,-2.7280757E-1,4.2578208E-1,-7.815296E-1,-7.124847E-1,1.0699216E-2,1.9195672E-3,-1.5813302E-2,3.5965985E-3,1.4185158E-2,1.458317E-2,-6.512529E-3,8.689589E-3,-1.6233861E-2,1.0665754E-2,2.7995803E-3,7.881497E-3,-1.0980709E-2,-1.3963526E-2,-2.874624E-3,1.2419424E-2,-1.8985146E-3,1.1841084E-2,-1.0424671E-2,-1.0949645E-2,1.25754075E-2,-1.8478718E-2,-3.4334846E-3,1.32837E-2,6.195278E-3,-1.4882221E-2,-1.6086034E-3,-1.5544298E-3,-1.471639E-2,1.3407726E-2,1.667419E-3,-1.0899156E-2,-1.8021025E-2],"split_indices":[5,1,1,3,7,5,3,0,0,5,5,2,0,2,0,1,2,5,2,3,2,4,2,5,4,1,1,4,2,5,4,0,2,0,0,0,0,2,6,0,0,0,0,0,1,4,5,5,2,4,1,1,4,5,3,0,0,0,0,0,0,2,0,0,0,0,0,0,0,0,4,0,1,5,7,6,5,1,3,0,3,0,4,5,0,1,0,0,0,0,0,0,0,0,0,2,0,5,5,4,4,3,7,2,0,1,0,0,0,0,4,4,0,0,0,0,6,2,4,1,0,0,0,0,0,0,0,0,0,0,0,0,0,0,0,0,0,0,0,0,0,0,0,0,0,0,0,0,0,0,0,0,0],"split_type":[0,0,0,0,0,0,0,0,0,0,0,0,0,0,0,0,0,0,0,0,0,0,0,0,0,0,0,0,0,0,0,0,0,0,0,0,0,0,0,0,0,0,0,0,0,0,0,0,0,0,0,0,0,0,0,0,0,0,0,0,0,0,0,0,0,0,0,0,0,0,0,0,0,0,0,0,0,0,0,0,0,0,0,0,0,0,0,0,0,0,0,0,0,0,0,0,0,0,0,0,0,0,0,0,0,0,0,0,0,0,0,0,0,0,0,0,0,0,0,0,0,0,0,0,0,0,0,0,0,0,0,0,0,0,0,0,0,0,0,0,0,0,0,0,0,0,0,0,0,0,0,0,0],"sum_hessian":[2.3007598E3,2.1269558E3,1.7380391E2,1.7967429E2,1.9472815E3,4.7337803E1,1.2646611E2,1.754394E2,4.234881E0,1.5824368E2,1.7890378E3,3.8671368E1,8.666436E0,6.957728E1,5.688883E1,2.09728E1,1.3727087E2,1.62447E3,1.645679E2,7.5687976E0,3.110257E1,4.3656573E0,6.5211624E1,1.653641E1,4.4363904E0,6.1103563E0,1.3116052E2,1.4125682E3,2.1190169E2,4.164932E1,1.2291858E2,4.603325E0,2.9654727E0,1.0403065E1,2.0699505E1,2.9074242E0,1.4582334E0,6.1684933E0,5.904313E1,1.2244849E0,1.5311925E1,2.488125E0,1.9482651E0,1.7397448E0,4.3706117E0,4.182987E0,1.2697753E2,2.587396E2,1.1538286E3,1.740471E2,3.785459E1,1.2866299E1,2.8783018E1,2.278646E1,1.0013212E2,1.22152E0,3.381805E0,1.7230694E0,1.2424033E0,2.451849E0,7.9512153E0,4.4654775E0,1.7030158E0,1.9785218E0,5.7064606E1,2.8849173E0,1.4856944E0,2.7342157E0,1.4487716E0,1.0728695E2,1.9690588E1,6.2314005E0,2.5250818E2,2.2089963E2,9.32929E2,1.4437703E2,2.967008E1,4.4161363E0,3.3438454E1,1.9482651E0,1.0918034E1,2.3355131E1,5.427888E0,1.805246E1,4.7340007E0,7.593378E1,2.4198343E1,1.2309073E0,1.2209418E0,5.4770565E0,2.4741588E0,1.2398256E0,3.2256517E0,5.5579388E1,1.4852189E0,6.718445E0,1.2972144E1,2.0860605E2,4.3902134E1,1.0940681E1,2.0995895E2,2.740806E2,6.5884845E2,5.341844E0,1.3903519E2,9.348247E0,2.0321835E1,1.9280113E0,2.488125E0,1.4579316E1,1.8859138E1,8.703089E0,2.214944E0,1.4736118E0,2.188152E1,1.7156405E0,3.7122476E0,6.9411564E0,1.1111303E1,7.2557884E1,3.375894E0,3.7265804E0,2.9918642E0,9.023494E0,1.9958255E2,1.7239119E1,2.6663017E1,1.9788316E0,8.961849E0,6.1891346E1,1.480676E2,1.9234206E2,8.173855E1,1.3785022E2,5.209982E2,2.8849173E0,2.4569268E0,2.406655E0,6.9415913E0,3.7202106E0,1.5138927E1,6.9801126E0,1.7229766E0,1.8499651E1,3.381868E0,2.2386358E0,1.4736118E0,1.9727468E0,4.9684095E0,7.1984496E0,3.9128537E0,4.439126E1,2.8166626E1],"tree_param":{"num_deleted":"0","num_feature":"9","num_nodes":"153","size_leaf_vector":"1"}},{"base_weights":[1.056156E-3,1.2741096E-1,-1.5350591E0,1.5138122E0,-8.657183E-4,-6.35858E-1,-1.731709E0,1.601119E-2,-1.7053287E-2,-1.4880272E0,1.3156195E-1,3.8146767E-1,-1.6823273E0,-1.5192567E0,-2.0171747E-2,9.267231E-1,-1.8599154E0,2.351162E-1,-8.8496137E-1,1.2957912E-2,-2.3779209E-1,-1.8633395E-2,-4.632578E-1,8.237933E-1,-1.6544844E0,1.388237E0,-7.280569E-1,-1.7367665E-1,-1.936454E0,6.751164E-2,1.3496238E0,1.7674164E-1,-1.2426519E0,-9.2947525E-1,1.0695177E-2,-1.1847796E-2,4.789547E-3,1.9926117E-3,1.0057569E-2,-1.2221742E0,-1.972227E-2,6.3854665E-4,1.4840133E-2,-1.5202095E-2,4.5734257E-3,-1.3656754E-2,4.67826E-1,-4.7213733E-1,-1.9805914E0,1.0833279E0,-1.6047005E-1,1.4310321E0,9.483889E-1,-1.099483E0,7.6625985E-1,-3.1245667E-1,-1.4488896E0,-1.2617438E0,4.9449587E-3,-3.5774112E-1,-1.5091958E0,1.234993E-2,-9.164701E-3,-1.3054275E-2,9.938961E-3,-2.0424813E-2,-1.560944E0,-1.8057354E-2,1.161724E0,4.2518204E-1,-2.993237E-1,1.5294374E0,9.183595E-1,-3.8538283E-1,1.1309876E0,4.5734257E-3,-1.3919705E0,1.1503223E0,-8.0437684E-1,1.333838E-1,-1.7371096E-2,-1.2519978E0,-1.9925639E-2,-3.5298595E-3,-1.40202865E-2,-1.3948272E-2,1.1457773E-2,8.2694006E-4,-1.586506E0,-6.949318E-1,-1.9274566E-2,1.3476123E0,1.0037254E-1,-1.1261582E0,5.110934E-1,2.2157453E-1,-5.157728E-1,6.5307015E-1,1.5582594E-2,-4.0593573E-1,1.5199305E-2,1.1011946E-2,-1.5202095E-2,1.5374528E-2,7.555E-1,-1.601033E0,-3.2787009E-3,-1.598817E-3,1.2419196E0,3.5038713E-5,-1.0990931E0,-1.1537998E0,9.6839124E-1,-1.3723887E0,1.0633496E-2,-6.4052874E-1,-1.801228E0,1.9046637E-3,-1.5685787E-2,3.5660453E-3,1.3892469E-2,1.4283731E-2,-8.470892E-3,8.637124E-3,-1.60734E-2,1.0578545E-2,2.7728337E-3,7.813773E-3,-1.0860159E-2,-1.380906E-2,-2.8448578E-3,1.234993E-2,-1.8846864E-3,1.1776822E-2,-1.0325152E-2,-1.0855204E-2,1.2487016E-2,-1.83026E-2,-3.4108409E-3,1.3191129E-2,6.1529353E-3,-1.4769057E-2,-1.598817E-3,-1.5439301E-3,-1.4580475E-2,1.3322072E-2,1.6544664E-3,-1.0782586E-2,-1.7831486E-2,-1.13225635E-2,6.141836E-3,-7.4793836E-3,-1.8724611E-2],"categories":[],"categories_nodes":[],"categories_segments":[],"categories_sizes":[],"default_left":[0,0,0,0,0,0,0,0,0,0,0,0,0,0,0,0,0,0,0,0,0,0,0,0,0,0,0,0,0,0,0,0,0,0,0,0,0,0,0,0,0,0,0,0,0,0,0,0,0,0,0,0,0,0,0,0,0,0,0,0,0,0,0,0,0,0,0,0,0,0,0,0,0,0,0,0,0,0,0,0,0,0,0,0,0,0,0,0,0,0,0,0,0,0,0,0,0,0,0,0,0,0,0,0,0,0,0,0,0,0,0,0,0,0,0,0,0,0,0,0,0,0,0,0,0,0,0,0,0,0,0,0,0,0,0,0,0,0,0,0,0,0,0,0,0,0,0,0,0,0,0,0,0],"id":10,"left_children":[1,3,5,7,9,11,13,-1,-1,15,17,19,21,23,-1,25,27,29,31,-1,33,-1,35,37,39,41,43,45,47,49,51,53,55,57,-1,-1,-1,-1,-1,59,-1,-1,-1,-1,-1,-1,61,63,65,67,69,71,73,75,77,79,81,83,-1,85,87,-1,-1,-1,-1,-1,89,-1,91,93,95,97,99,101,103,-1,105,107,109,111,-1,113,-1,-1,-1,-1,-1,-1,115,117,-1,119,121,123,125,127,129,131,-1,133,-1,-1,-1,-1,135,137,-1,-1,139,-1,141,143,145,147,-1,149,151,-1,-1,-1,-1,-1,-1,-1,-1,-1,-1,-1,-1,-1,-1,-1,-1,-1,-1,-1,-1,-1,-1,-1,-1,-1,-1,-1,-1,-1,-1,-1,-1,-1,-1,-1,-1],"loss_changes":[4.4663535E2,3.7813254E2,2.9825073E1,5.3338806E1,3.8366843E2,3.5736237E1,5.60376E0,0E0,0E0,1.4477023E2,1.885119E2,1.0233901E1,2.7633514E0,2.8610138E1,0E0,1.7755344E1,1.7521576E1,3.033143E2,6.3105804E1,0E0,1.1208953E1,0E0,2.9167023E0,4.0870643E-1,8.803299E0,2.123516E0,5.8010902E0,6.072875E0,7.612976E0,3.2740173E2,5.5766296E0,3.2897118E1,2.3333374E1,4.372532E0,0E0,0E0,0E0,0E0,0E0,8.692905E0,0E0,0E0,0E0,0E0,0E0,0E0,6.829182E0,7.629065E0,1.3821411E-1,6.0786255E1,9.4040146E1,7.399353E0,9.878201E0,6.9536E0,1.886079E1,1.5333534E1,8.339584E0,