{"learner":{"attributes":{"scikit_learn":"{\"_estimator_type\": \"classifier\"}"},"feature_names":[],"feature_types":[],"gradient_booster":{"model":{"gbtree_model_param":{"num_parallel_tree":"1","num_trees":"50"},"iteration_indptr":[0,1,2,3,4,5,6,7,8,9,10,11,12,13,14,15,16,17,18,19,20,21,22,23,24,25,26,27,28,29,30,31,32,33,34,35,36,37,38,39,40,41,42,43,44,45,46,47,48,49,50],"tree_info":[0,0,0,0,0,0,0,0,0,0,0,0,0,0,0,0,0,0,0,0,0,0,0,0,0,0,0,0,0,0,0,0,0,0,0,0,0,0,0,0,0,0,0,0,0,0,0,0,0,0],"trees":[{"base_weights":[4.4025393E-4,7.052551E-2,-7.4011886E-1,2.8255743E-1,-1.5299702E-1,-3.1446645E-1,-1.3076335E0,1.9843878E-4,5.4392726E-3,-3.6269617E-3,2.0431725E-3,-1.2318488E-2,1.046623E-3,-3.0154649E-3,-1.4882725E-2],"categories":[],"categories_nodes":[],"categories_segments":[],"categories_sizes":[],"default_left":[0,0,0,0,0,0,0,0,0,0,0,0,0,0,0],"id":0,"left_children":[1,3,5,7,9,11,13,-1,-1,-1,-1,-1,-1,-1,-1],"loss_changes":[1.2140158E2,1.0131506E2,4.8439003E1,7.531123E1,7.806479E1,4.506626E1,1.5244904E1,0E0,0E0,0E0,0E0,0E0,0E0,0E0,0E0],"parents":[2147483647,0,0,1,1,2,2,3,3,4,4,5,5,6,6],"right_children":[2,4,6,8,10,12,14,-1,-1,-1,-1,-1,-1,-1,-1],"split_conditions":[1.5852051E0,2.0180736E-2,-1.0130073E0,3.985756E-2,-6.63368E-1,1.6019504E0,-1.9117054E0,1.9843878E-4,5.4392726E-3,-3.6269617E-3,2.0431725E-3,-1.2318488E-2,1.046623E-3,-3.0154649E-3,-1.4882725E-2],"split_indices":[5,2,4,7,5,5,2,0,0,0,0,0,0,0,0],"split_type":[0,0,0,0,0,0,0,0,0,0,0,0,0,0,0],"sum_hessian":[2.337036E3,2.135811E3,2.0122478E2,1.0959431E3,1.039868E3,1.1587173E2,8.535305E1,5.471031E2,5.4883997E2,6.5528314E2,3.8458496E2,3.5729183E1,8.014254E1,1.3398443E1,7.1954605E1],"tree_param":{"num_deleted":"0","num_feature":"9","num_nodes":"15","size_leaf_vector":"1"}},{"base_weights":[4.260458E-4,6.982722E-2,-7.3241556E-1,2.798071E-1,-1.5144831E-1,-3.1133753E-1,-1.2933718E0,1.9646151E-4,5.387567E-3,-3.5896243E-3,2.0231563E-3,-1.2186367E-2,1.0363786E-3,-2.9866784E-3,-1.4717895E-2],"categories":[],"categories_nodes":[],"categories_segments":[],"categories_sizes":[],"default_left":[0,0,0,0,0,0,0,0,0,0,0,0,0,0,0],"id":1,"left_children":[1,3,5,7,9,11,13,-1,-1,-1,-1,-1,-1,-1,-1],"loss_changes":[1.1896304E2,9.931956E1,4.739292E1,7.387056E1,7.649375E1,4.4140423E1,1.4902145E1,0E0,0E0,0E0,0E0,0E0,0E0,0E0,0E0],"parents":[2147483647,0,0,1,1,2,2,3,3,4,4,5,5,6,6],"right_children":[2,4,6,8,10,12,14,-1,-1,-1,-1,-1,-1,-1,-1],"split_conditions":[1.5852051E0,2.0180736E-2,-1.0130073E0,3.985756E-2,-6.63368E-1,1.6019504E0,-1.9117054E0,1.9646151E-4,5.387567E-3,-3.5896243E-3,2.0231563E-3,-1.2186367E-2,1.0363786E-3,-2.9866784E-3,-1.4717895E-2],"split_indices":[5,2,4,7,5,5,2,0,0,0,0,0,0,0,0],"split_type":[0,0,0,0,0,0,0,0,0,0,0,0,0,0,0],"sum_hessian":[2.3370212E3,2.1356743E3,2.0134679E2,1.0956708E3,1.0400037E3,1.15901276E2,8.54455E1,5.470937E2,5.485771E2,6.554872E2,3.8451642E2,3.5766033E1,8.013525E1,1.3401918E1,7.204359E1],"tree_param":{"num_deleted":"0","num_feature":"9","num_nodes":"15","size_leaf_vector":"1"}},{"base_weights":[4.1204767E-4,6.913621E-2,-7.2483504E-1,2.770851E-1,-1.4991646E-1,-3.082476E-1,-1.2793975E0,1.9450572E-4,5.336409E-3,-2.7919998E-3,4.073956E-3,-1.2056667E-2,1.0262362E-3,-2.9581885E-3,-1.4556647E-2],"categories":[],"categories_nodes":[],"categories_segments":[],"categories_sizes":[],"default_left":[0,0,0,0,0,0,0,0,0,0,0,0,0,0,0],"id":2,"left_children":[1,3,5,7,9,11,13,-1,-1,-1,-1,-1,-1,-1,-1],"loss_changes":[1.1657985E2,9.736405E1,4.6378014E1,7.24586E1,7.5128685E1,4.32378E1,1.4571167E1,0E0,0E0,0E0,0E0,0E0,0E0,0E0,0E0],"parents":[2147483647,0,0,1,1,2,2,3,3,4,4,5,5,6,6],"right_children":[2,4,6,8,10,12,14,-1,-1,-1,-1,-1,-1,-1,-1],"split_conditions":[1.5852051E0,2.0180736E-2,-1.0130073E0,3.985756E-2,2.06936E-1,1.6019504E0,-1.9117054E0,1.9450572E-4,5.336409E-3,-2.7919998E-3,4.073956E-3,-1.2056667E-2,1.0262362E-3,-2.9581885E-3,-1.4556647E-2],"split_indices":[5,2,4,7,1,5,2,0,0,0,0,0,0,0,0],"split_type":[0,0,0,0,0,0,0,0,0,0,0,0,0,0,0],"sum_hessian":[2.3369832E3,2.1355261E3,2.0145703E2,1.0953933E3,1.0401328E3,1.1592785E2,8.552918E1,5.470844E2,5.483089E2,8.4468445E2,1.9544829E2,3.5799866E1,8.012798E1,1.3405301E1,7.2123886E1],"tree_param":{"num_deleted":"0","num_feature":"9","num_nodes":"15","size_leaf_vector":"1"}},{"base_weights":[3.9939577E-4,6.845352E-2,-7.1737385E-1,2.7439052E-1,-1.4839767E-1,-3.05196E-1,-1.2657003E0,1.9256661E-4,5.2857827E-3,-3.5240173E-3,1.9965023E-3,-1.1929307E-2,1.0161916E-3,-2.9299872E-3,-1.4398848E-2],"categories":[],"categories_nodes":[],"categories_segments":[],"categories_sizes":[],"default_left":[0,0,0,0,0,0,0,0,0,0,0,0,0,0,0],"id":3,"left_children":[1,3,5,7,9,11,13,-1,-1,-1,-1,-1,-1,-1,-1],"loss_changes":[1.14250755E2,9.544604E1,4.5392952E1,7.107468E1,7.4003044E1,4.2357548E1,1.425145E1,0E0,0E0,0E0,0E0,0E0,0E0,0E0,0E0],"parents":[2147483647,0,0,1,1,2,2,3,3,4,4,5,5,6,6],"right_children":[2,4,6,8,10,12,14,-1,-1,-1,-1,-1,-1,-1,-1],"split_conditions":[1.5852051E0,2.0180736E-2,-1.0130073E0,3.985756E-2,-6.63368E-1,1.6019504E0,-1.9117054E0,1.9256661E-4,5.2857827E-3,-3.5240173E-3,1.9965023E-3,-1.1929307E-2,1.0161916E-3,-2.9299872E-3,-1.4398848E-2],"split_indices":[5,2,4,7,5,5,2,0,0,0,0,0,0,0,0],"split_type":[0,0,0,0,0,0,0,0,0,0,0,0,0,0,0],"sum_hessian":[2.3369253E3,2.1353694E3,2.0155583E2,1.0951107E3,1.0402588E3,1.1595151E2,8.560433E1,5.4707513E2,5.480356E2,6.5583594E2,3.844228E2,3.583077E1,8.012074E1,1.3408593E1,7.219573E1],"tree_param":{"num_deleted":"0","num_feature":"9","num_nodes":"15","size_leaf_vector":"1"}},{"base_weights":[3.8577756E-4,6.7776725E-2,-7.1002895E-1,2.7172354E-1,-1.4689814E-1,-3.0218208E-1,-1.2522713E0,1.9064662E-4,5.235689E-3,-2.7401014E-3,4.015765E-3,-1.1804219E-2,1.0062443E-3,-2.9020708E-3,-1.4244376E-2],"categories":[],"categories_nodes":[],"categories_segments":[],"categories_sizes":[],"default_left":[0,0,0,0,0,0,0,0,0,0,0,0,0,0,0],"id":4,"left_children":[1,3,5,7,9,11,13,-1,-1,-1,-1,-1,-1,-1,-1],"loss_changes":[1.11973625E2,9.356758E1,4.443656E1,6.971831E1,7.2712456E1,4.1499004E1,1.3942429E1,0E0,0E0,0E0,0E0,0E0,0E0,0E0,0E0],"parents":[2147483647,0,0,1,1,2,2,3,3,4,4,5,5,6,6],"right_children":[2,4,6,8,10,12,14,-1,-1,-1,-1,-1,-1,-1,-1],"split_conditions":[1.5852051E0,2.0180736E-2,-1.0130073E0,3.985756E-2,2.06936E-1,1.6019504E0,-1.9117054E0,1.9064662E-4,5.235689E-3,-2.7401014E-3,4.015765E-3,-1.1804219E-2,1.0062443E-3,-2.9020708E-3,-1.4244376E-2],"split_indices":[5,2,4,7,1,5,2,0,0,0,0,0,0,0,0],"split_type":[0,0,0,0,0,0,0,0,0,0,0,0,0,0,0],"sum_hessian":[2.3368438E3,2.1352002E3,2.0164352E2,1.0948234E3,1.040377E3,1.1597235E2,8.567118E1,5.47066E2,5.477574E2,8.450357E2,1.9534123E2,3.5858814E1,8.011353E1,1.34117985E1,7.225938E1],"tree_param":{"num_deleted":"0","num_feature":"9","num_nodes":"15","size_leaf_vector":"1"}},{"base_weights":[3.7362849E-4,6.710823E-2,-7.027971E-1,2.6908362E-1,-1.4541133E-1,-2.9920477E-1,-1.2391014E0,1.887481E-4,5.1861126E-3,-3.4597185E-3,1.9701726E-3,-1.16813285E-2,9.96397E-4,-2.874441E-3,-1.4093114E-2],"categories":[],"categories_nodes":[],"categories_segments":[],"categories_sizes":[],"default_left":[0,0,0,0,0,0,0,0,0,0,0,0,0,0,0],"id":5,"left_children":[1,3,5,7,9,11,13,-1,-1,-1,-1,-1,-1,-1,-1],"loss_changes":[1.0974771E2,9.1725204E1,4.350773E1,6.8388626E1,7.159541E1,4.0661438E1,1.364357E1,0E0,0E0,0E0,0E0,0E0,0E0,0E0,0E0],"parents":[2147483647,0,0,1,1,2,2,3,3,4,4,5,5,6,6],"right_children":[2,4,6,8,10,12,14,-1,-1,-1,-1,-1,-1,-1,-1],"split_conditions":[1.5852051E0,2.0180736E-2,-1.0130073E0,3.985756E-2,-6.63368E-1,1.6019504E0,-1.9117054E0,1.887481E-4,5.1861126E-3,-3.4597185E-3,1.9701726E-3,-1.16813285E-2,9.96397E-4,-2.874441E-3,-1.4093114E-2],"split_indices":[5,2,4,7,5,5,2,0,0,0,0,0,0,0,0],"split_type":[0,0,0,0,0,0,0,0,0,0,0,0,0,0,0],"sum_hessian":[2.336744E3,2.1350237E3,2.0172041E2,1.0945314E3,1.0404922E3,1.1599045E2,8.5729965E1,5.470568E2,5.4747455E2,6.561655E2,3.843267E2,3.5884087E1,8.010636E1,1.3414917E1,7.231505E1],"tree_param":{"num_deleted":"0","num_feature":"9","num_nodes":"15","size_leaf_vector":"1"}},{"base_weights":[3.6037792E-4,6.644531E-2,-6.956755E-1,2.6647043E-1,-1.4394346E-1,-2.9626402E-1,-1.2261817E0,1.868663E-4,5.137052E-3,-2.6892396E-3,3.958426E-3,-1.1560571E-2,9.866401E-4,-2.8470878E-3,-1.3944946E-2],"categories":[],"categories_nodes":[],"categories_segments":[],"categories_sizes":[],"default_left":[0,0,0,0,0,0,0,0,0,0,0,0,0,0,0],"id":6,"left_children":[1,3,5,7,9,11,13,-1,-1,-1,-1,-1,-1,-1,-1],"loss_changes":[1.0757094E2,8.992079E1,4.2605263E1,6.7085335E1,7.037563E1,3.9844154E1,1.3354462E1,0E0,0E0,0E0,0E0,0E0,0E0,0E0,0E0],"parents":[2147483647,0,0,1,1,2,2,3,3,4,4,5,5,6,6],"right_children":[2,4,6,8,10,12,14,-1,-1,-1,-1,-1,-1,-1,-1],"split_conditions":[1.5852051E0,2.0180736E-2,-1.0130073E0,3.985756E-2,2.06936E-1,1.6019504E0,-1.9117054E0,1.868663E-4,5.137052E-3,-2.6892396E-3,3.958426E-3,-1.1560571E-2,9.866401E-4,-2.8470878E-3,-1.3944946E-2],"split_indices":[5,2,4,7,1,5,2,0,0,0,0,0,0,0,0],"split_type":[0,0,0,0,0,0,0,0,0,0,0,0,0,0,0],"sum_hessian":[2.3366218E3,2.134835E3,2.0178677E2,1.094235E3,1.0406E3,1.16005875E2,8.578091E1,5.4704785E2,5.4718713E2,8.453678E2,1.9523224E2,3.590666E1,8.009921E1,1.341795E1,7.236295E1],"tree_param":{"num_deleted":"0","num_feature":"9","num_nodes":"15","size_leaf_vector":"1"}},{"base_weights":[3.4858895E-4,6.579051E-2,-6.8866086E-1,2.6388368E-1,-1.4248803E-1,-2.9335842E-1,-1.2135043E0,1.8500358E-4,5.088496E-3,-3.3966997E-3,1.9441615E-3,-1.1441882E-2,9.769832E-4,-2.8200098E-3,-1.3799765E-2],"categories":[],"categories_nodes":[],"categories_segments":[],"categories_sizes":[],"default_left":[0,0,0,0,0,0,0,0,0,0,0,0,0,0,0],"id":7,"left_children":[1,3,5,7,9,11,13,-1,-1,-1,-1,-1,-1,-1,-1],"loss_changes":[1.05442635E2,8.815102E1,4.1728226E1,6.580772E1,6.9267975E1,3.9046566E1,1.3074623E1,0E0,0E0,0E0,0E0,0E0,0E0,0E0,0E0],"parents":[2147483647,0,0,1,1,2,2,3,3,4,4,5,5,6,6],"right_children":[2,4,6,8,10,12,14,-1,-1,-1,-1,-1,-1,-1,-1],"split_conditions":[1.5852051E0,2.0180736E-2,-1.0130073E0,3.985756E-2,-6.63368E-1,1.6019504E0,-1.9117054E0,1.8500358E-4,5.088496E-3,-3.3966997E-3,1.9441615E-3,-1.1441882E-2,9.769832E-4,-2.8200098E-3,-1.3799765E-2],"split_indices":[5,2,4,7,5,5,2,0,0,0,0,0,0,0,0],"split_type":[0,0,0,0,0,0,0,0,0,0,0,0,0,0,0],"sum_hessian":[2.3364824E3,2.1346394E3,2.0184294E2,1.0939343E3,1.0407051E3,1.1601871E2,8.582423E1,5.470389E2,5.4689545E2,6.564768E2,3.842283E2,3.5926605E1,8.00921E1,1.3420902E1,7.240333E1],"tree_param":{"num_deleted":"0","num_feature":"9","num_nodes":"15","size_leaf_vector":"1"}},{"base_weights":[3.3582348E-4,6.514125E-2,-6.817507E-1,2.6132312E-1,-1.4105095E-1,-2.9048777E-1,-1.201061E0,1.8315995E-4,5.0404402E-3,-2.6393908E-3,3.9019214E-3,-1.1325202E-2,9.674193E-4,-2.7932061E-3,-1.3657465E-2],"categories":[],"categories_nodes":[],"categories_segments":[],"categories_sizes":[],"default_left":[0,0,0,0,0,0,0,0,0,0,0,0,0,0,0],"id":8,"left_children":[1,3,5,7,9,11,13,-1,-1,-1,-1,-1,-1,-1,-1],"loss_changes":[1.0336085E2,8.641762E1,4.0875504E1,6.4555214E1,6.811549E1,3.8268032E1,1.2803658E1,0E0,0E0,0E0,0E0,0E0,0E0,0E0,0E0],"parents":[2147483647,0,0,1,1,2,2,3,3,4,4,5,5,6,6],"right_children":[2,4,6,8,10,12,14,-1,-1,-1,-1,-1,-1,-1,-1],"split_conditions":[1.5852051E0,2.0180736E-2,-1.0130073E0,3.985756E-2,2.06936E-1,1.6019504E0,-1.9117054E0,1.8315995E-4,5.0404402E-3,-2.6393908E-3,3.9019214E-3,-1.1325202E-2,9.674193E-4,-2.7932061E-3,-1.3657465E-2],"split_indices":[5,2,4,7,1,5,2,0,0,0,0,0,0,0,0],"split_type":[0,0,0,0,0,0,0,0,0,0,0,0,0,0,0],"sum_hessian":[2.3363218E3,2.1344326E3,2.0188916E2,1.0936296E3,1.0408029E3,1.16029015E2,8.586015E1,5.470301E2,5.465996E2,8.4568146E2,1.9512141E2,3.5943996E1,8.008502E1,1.3423773E1,7.243638E1],"tree_param":{"num_deleted":"0","num_feature":"9","num_nodes":"15","size_leaf_vector":"1"}},{"base_weights":[3.2438038E-4,6.449983E-2,-6.7494226E-1,2.5878832E-1,-1.3962615E-1,-2.8765145E-1,-1.1888442E0,1.8133543E-4,4.9928743E-3,-3.3349274E-3,1.9184665E-3,-1.1210467E-2,9.579459E-4,-2.7666737E-3,-1.3517948E-2],"categories":[],"categories_nodes":[],"categories_segments":[],"categories_sizes":[],"default_left":[0,0,0,0,0,0,0,0,0,0,0,0,0,0,0],"id":9,"left_children":[1,3,5,7,9,11,13,-1,-1,-1,-1,-1,-1,-1,-1],"loss_changes":[1.0132498E2,8.47175E1,4.0046234E1,6.3327255E1,6.701793E1,3.7507935E1,1.2541161E1,0E0,0E0,0E0,0E0,0E0,0E0,0E0,0E0],"parents":[2147483647,0,0,1,1,2,2,3,3,4,4,5,5,6,6],"right_children":[2,4,6,8,10,12,14,-1,-1,-1,-1,-1,-1,-1,-1],"split_conditions":[1.5852051E0,2.0180736E-2,-1.0130073E0,3.985756E-2,-6.63368E-1,1.6019504E0,-1.9117054E0,1.8133543E-4,4.9928743E-3,-3.3349274E-3,1.9184665E-3,-1.1210467E-2,9.579459E-4,-2.7666737E-3,-1.3517948E-2],"split_indices":[5,2,4,7,5,5,2,0,0,0,0,0,0,0,0],"split_type":[0,0,0,0,0,0,0,0,0,0,0,0,0,0,0],"sum_hessian":[2.336145E3,2.1342195E3,2.0192575E2,1.0933212E3,1.0408982E3,1.1603687E2,8.588888E1,5.470213E2,5.4629987E2,6.567705E2,3.8412772E2,3.5958904E1,8.007797E1,1.3426565E1,7.246231E1],"tree_param":{"num_deleted":"0","num_feature":"9","num_nodes":"15","size_leaf_vector":"1"}},{"base_weights":[3.1201766E-4,6.386384E-2,-6.6823286E-1,2.5627896E-1,-1.3821912E-1,-2.9757228E-1,-1.1996994E0,1.7952762E-4,4.9457937E-3,-2.5905306E-3,3.8462363E-3,-1.8570837E-2,-1.5184187E-3,-3.1155413E-3,-1.3627661E-2],"categories":[],"categories_nodes":[],"categories_segments":[],"categories_sizes":[],"default_left":[0,0,0,0,0,0,0,0,0,0,0,0,0,0,0],"id":10,"left_children":[1,3,5,7,9,11,13,-1,-1,-1,-1,-1,-1,-1,-1],"loss_changes":[9.9333176E1,8.3052185E1,3.962345E1,6.212343E1,6.5929375E1,2.719355E1,1.1604507E1,0E0,0E0,0E0,0E0,0E0,0E0,0E0,0E0],"parents":[2147483647,0,0,1,1,2,2,3,3,4,4,5,5,6,6],"right_children":[2,4,6,8,10,12,14,-1,-1,-1,-1,-1,-1,-1,-1],"split_conditions":[1.5852051E0,2.0180736E-2,-8.756057E-1,3.985756E-2,2.06936E-1,1.5906981E0,-1.9117054E0,1.7952762E-4,4.9457937E-3,-2.5905306E-3,3.8462363E-3,-1.8570837E-2,-1.5184187E-3,-3.1155413E-3,-1.3627661E-2],"split_indices":[5,2,3,7,1,5,2,0,0,0,0,0,0,0,0],"split_type":[0,0,0,0,0,0,0,0,0,0,0,0,0,0,0],"sum_hessian":[2.3359485E3,2.1339954E3,2.0195297E2,1.0930089E3,1.0409865E3,1.1989472E2,8.205824E1,5.470126E2,5.4599634E2,8.459776E2,1.9500891E2,9.242651E0,1.1065207E2,1.3180589E1,6.8877655E1],"tree_param":{"num_deleted":"0","num_feature":"9","num_nodes":"15","size_leaf_vector":"1"}},{"base_weights":[2.9643346E-4,6.323549E-2,-6.615898E-1,2.5379476E-1,-1.3682415E-1,-2.8012162E-1,-1.167764E0,1.7773891E-4,4.89919E-3,-3.2743711E-3,1.8930829E-3,-1.1021861E-2,9.817983E-4,-2.7111243E-3,-1.3279601E-2],"categories":[],"categories_nodes":[],"categories_segments":[],"categories_sizes":[],"default_left":[0,0,0,0,0,0,0,0,0,0,0,0,0,0,0],"id":11,"left_children":[1,3,5,7,9,11,13,-1,-1,-1,-1,-1,-1,-1,-1],"loss_changes":[9.738782E1,8.141887E1,3.88693E1,6.0943085E1,6.48425E1,3.6516624E1,1.2125595E1,0E0,0E0,0E0,0E0,0E0,0E0,0E0,0E0],"parents":[2147483647,0,0,1,1,2,2,3,3,4,4,5,5,6,6],"right_children":[2,4,6,8,10,12,14,-1,-1,-1,-1,-1,-1,-1,-1],"split_conditions":[1.5852051E0,2.0180736E-2,-1.0130073E0,3.985756E-2,-6.63368E-1,1.6019504E0,-1.9117054E0,1.7773891E-4,4.89919E-3,-3.2743711E-3,1.8930829E-3,-1.1021861E-2,9.817983E-4,-2.7111243E-3,-1.3279601E-2],"split_indices":[5,2,4,7,5,5,2,0,0,0,0,0,0,0,0],"split_type":[0,0,0,0,0,0,0,0,0,0,0,0,0,0,0],"sum_hessian":[2.335762E3,2.1337656E3,2.0199626E2,1.0926932E3,1.0410724E3,1.1607331E2,8.592295E1,5.4700397E2,5.456893E2,6.570473E2,3.8402512E2,3.5978046E1,8.009527E1,1.3432247E1,7.249071E1],"tree_param":{"num_deleted":"0","num_feature":"9","num_nodes":"15","size_leaf_vector":"1"}},{"base_weights":[2.8442268E-4,6.261238E-2,-6.550647E-1,2.5133547E-1,-1.354467E-1,-2.9012793E-1,-1.1782252E0,1.0599733E-2,1.8324832E-3,-2.5426385E-3,3.79136E-3,-1.829355E-2,-1.4626471E-3,-3.060194E-3,-1.3383648E-2],"categories":[],"categories_nodes":[],"categories_segments":[],"categories_sizes":[],"default_left":[0,0,0,0,0,0,0,0,0,0,0,0,0,0,0],"id":12,"left_children":[1,3,5,7,9,11,13,-1,-1,-1,-1,-1,-1,-1,-1],"loss_changes":[9.548039E1,7.981903E1,3.841648E1,6.00046E1,6.3814857E1,2.6507515E1,1.1196472E1,0E0,0E0,0E0,0E0,0E0,0E0,0E0,0E0],"parents":[2147483647,0,0,1,1,2,2,3,3,4,4,5,5,6,6],"right_children":[2,4,6,8,10,12,14,-1,-1,-1,-1,-1,-1,-1,-1],"split_conditions":[1.5852051E0,2.0180736E-2,-8.756057E-1,-8.2292324E-1,2.06936E-1,1.5906981E0,-1.9117054E0,1.0599733E-2,1.8324832E-3,-2.5426385E-3,3.79136E-3,-1.829355E-2,-1.4626471E-3,-3.060194E-3,-1.3383648E-2],"split_indices":[5,2,3,4,1,5,2,0,0,0,0,0,0,0,0],"split_type":[0,0,0,0,0,0,0,0,0,0,0,0,0,0,0],"sum_hessian":[2.3355334E3,2.133526E3,2.0200769E2,1.0923741E3,1.0411516E3,1.1991448E2,8.209321E1,8.370328E1,1.0086709E3,8.462568E2,1.9489484E2,9.24834E0,1.1066614E2,1.3186037E1,6.8907166E1],"tree_param":{"num_deleted":"0","num_feature":"9","num_nodes":"15","size_leaf_vector":"1"}},{"base_weights":[2.7242844E-4,6.1999284E-2,-6.486016E-1,-1.4849897E-1,2.3754093E-1,-2.7278912E-1,-1.1473536E0,-8.798873E-4,-1.5640719E-2,6.9861934E-3,9.09073E-4,-1.0838759E-2,1.0046067E-3,-2.6566896E-3,-1.3049373E-2],"categories":[],"categories_nodes":[],"categories_segments":[],"categories_sizes":[],"default_left":[0,0,0,0,0,0,0,0,0,0,0,0,0,0,0],"id":13,"left_children":[1,3,5,7,9,11,13,-1,-1,-1,-1,-1,-1,-1,-1],"loss_changes":[9.36179E1,7.8900734E1,3.7743507E1,8.304692E1,7.864587E1,3.5559647E1,1.173204E1,0E0,0E0,0E0,0E0,0E0,0E0,0E0,0E0],"parents":[2147483647,0,0,1,1,2,2,3,3,4,4,5,5,6,6],"right_children":[2,4,6,8,10,12,14,-1,-1,-1,-1,-1,-1,-1,-1],"split_conditions":[1.5852051E0,3.985756E-2,-1.0130073E0,-1.2400397E-1,-5.040554E-1,1.6019504E0,-1.9117054E0,-8.798873E-4,-1.5640719E-2,6.9861934E-3,9.09073E-4,-1.0838759E-2,1.0046067E-3,-2.6566896E-3,-1.3049373E-2],"split_indices":[5,7,4,1,2,5,2,0,0,0,0,0,0,0,0],"split_type":[0,0,0,0,0,0,0,0,0,0,0,0,0,0,0],"sum_hessian":[2.3353494E3,2.1333132E3,2.020359E2,9.7013904E2,1.1631743E3,1.1610047E2,8.5935425E1,9.31388E2,3.8751057E1,2.797517E2,8.834226E2,3.5989647E1,8.0110825E1,1.3437601E1,7.2497826E1],"tree_param":{"num_deleted":"0","num_feature":"9","num_nodes":"15","size_leaf_vector":"1"}},{"base_weights":[2.5571976E-4,6.1381675E-2,-6.422527E-1,2.4766794E-1,-1.3401975E-1,-2.8287625E-1,-1.1574404E0,1.0487233E-2,1.8029598E-3,-3.2096808E-3,1.8608902E-3,-1.8027721E-2,-1.4084174E-3,-3.0059603E-3,-1.3148043E-2],"categories":[],"categories_nodes":[],"categories_segments":[],"categories_sizes":[],"default_left":[0,0,0,0,0,0,0,0,0,0,0,0,0,0,0],"id":14,"left_children":[1,3,5,7,9,11,13,-1,-1,-1,-1,-1,-1,-1,-1],"loss_changes":[9.178907E1,7.771621E1,3.7263275E1,5.8792755E1,6.2430313E1,2.585123E1,1.0810577E1,0E0,0E0,0E0,0E0,0E0,0E0,0E0,0E0],"parents":[2147483647,0,0,1,1,2,2,3,3,4,4,5,5,6,6],"right_children":[2,4,6,8,10,12,14,-1,-1,-1,-1,-1,-1,-1,-1],"split_conditions":[1.5852051E0,2.0180736E-2,-8.756057E-1,-8.2292324E-1,-6.63368E-1,1.5906981E0,-1.9117054E0,1.0487233E-2,1.8029598E-3,-3.2096808E-3,1.8608902E-3,-1.8027721E-2,-1.4084174E-3,-3.0059603E-3,-1.3148043E-2],"split_indices":[5,2,3,4,5,5,2,0,0,0,0,0,0,0,0],"split_type":[0,0,0,0,0,0,0,0,0,0,0,0,0,0,0],"sum_hessian":[2.3351458E3,2.1331133E3,2.0203232E2,1.0918904E3,1.0412229E3,1.199256E2,8.210671E1,8.357801E1,1.0083124E3,6.573298E2,3.8389316E2,9.249988E0,1.1067561E2,1.3191168E1,6.891555E1],"tree_param":{"num_deleted":"0","num_feature":"9","num_nodes":"15","size_leaf_vector":"1"}},{"base_weights":[2.4305406E-4,6.077979E-2,-6.359617E-1,-1.4700468E-1,2.3414865E-1,-2.6564693E-1,-1.1275773E0,-8.150518E-4,-1.433621E-2,6.898687E-3,8.935833E-4,-1.0660889E-2,1.0264079E-3,-8.514784E-3,-1.6638743E-2],"categories":[],"categories_nodes":[],"categories_segments":[],"categories_sizes":[],"default_left":[0,0,0,0,0,0,0,0,0,0,0,0,0,0,0],"id":15,"left_children":[1,3,5,7,9,11,13,-1,-1,-1,-1,-1,-1,-1,-1],"loss_changes":[9.000433E1,7.690428E1,3.6665527E1,8.1730606E1,7.6721695E1,3.463522E1,1.1454681E1,0E0,0E0,0E0,0E0,0E0,0E0,0E0,0E0],"parents":[2147483647,0,0,1,1,2,2,3,3,4,4,5,5,6,6],"right_children":[2,4,6,8,10,12,14,-1,-1,-1,-1,-1,-1,-1,-1],"split_conditions":[1.5852051E0,3.985756E-2,-1.0130073E0,-9.902183E-2,-5.040554E-1,1.6019504E0,-3.2519433E-1,-8.150518E-4,-1.433621E-2,6.898687E-3,8.935833E-4,-1.0660889E-2,1.0264079E-3,-8.514784E-3,-1.6638743E-2],"split_indices":[5,7,4,3,2,5,2,0,0,0,0,0,0,0,0],"split_type":[0,0,0,0,0,0,0,0,0,0,0,0,0,0,0],"sum_hessian":[2.3349358E3,2.1328896E3,2.020462E2,9.702211E2,1.1626686E3,1.16118805E2,8.592741E1,9.2423334E2,4.5987827E1,2.7942575E2,8.832428E2,3.5994064E1,8.012474E1,5.8432583E1,2.749482E1],"tree_param":{"num_deleted":"0","num_feature":"9","num_nodes":"15","size_leaf_vector":"1"}},{"base_weights":[2.2303502E-4,6.0174957E-2,-6.298084E-1,2.4407616E-1,-1.3262597E-1,-2.758754E-1,-1.1372398E0,1.0376609E-2,1.774128E-3,-2.49017E-3,3.7201198E-3,-1.7772684E-2,-1.356381E-3,-2.8968498E-3,-1.293147E-2],"categories":[],"categories_nodes":[],"categories_segments":[],"categories_sizes":[],"default_left":[0,0,0,0,0,0,0,0,0,0,0,0,0,0,0],"id":16,"left_children":[1,3,5,7,9,11,13,-1,-1,-1,-1,-1,-1,-1,-1],"loss_changes":[8.826157E1,7.5684814E1,3.615069E1,5.760698E1,6.13115E1,2.5220598E1,1.0607063E1,0E0,0E0,0E0,0E0,0E0,0E0,0E0,0E0],"parents":[2147483647,0,0,1,1,2,2,3,3,4,4,5,5,6,6],"right_children":[2,4,6,8,10,12,14,-1,-1,-1,-1,-1,-1,-1,-1],"split_conditions":[1.5852051E0,2.0180736E-2,-8.756057E-1,-8.2292324E-1,2.06936E-1,1.5906981E0,-1.9117054E0,1.0376609E-2,1.774128E-3,-2.49017E-3,3.7201198E-3,-1.7772684E-2,-1.356381E-3,-2.8968498E-3,-1.293147E-2],"split_indices":[5,2,3,4,1,5,2,0,0,0,0,0,0,0,0],"split_type":[0,0,0,0,0,0,0,0,0,0,0,0,0,0,0],"sum_hessian":[2.3347148E3,2.1326797E3,2.0203499E2,1.0913964E3,1.0412833E3,1.1992857E2,8.2106415E1,8.3447044E1,1.0079494E3,8.465414E2,1.9474202E2,9.247775E0,1.1068079E2,1.3200863E1,6.890555E1],"tree_param":{"num_deleted":"0","num_feature":"9","num_nodes":"15","size_leaf_vector":"1"}},{"base_weights":[2.1212049E-4,5.9586506E-2,-6.236808E-1,-1.4562772E-1,2.3089902E-1,-2.5868654E-1,-1.1084251E0,-8.0780743E-4,-1.4182346E-2,6.8125436E-3,8.795563E-4,-1.0487976E-2,1.0472548E-3,-8.349129E-3,-1.6401814E-2],"categories":[],"categories_nodes":[],"categories_segments":[],"categories_sizes":[],"default_left":[0,0,0,0,0,0,0,0,0,0,0,0,0,0,0],"id":17,"left_children":[1,3,5,7,9,11,13,-1,-1,-1,-1,-1,-1,-1,-1],"loss_changes":[8.655116E1,7.50367E1,3.563613E1,8.004106E1,7.481871E1,3.37417E1,1.1270493E1,0E0,0E0,0E0,0E0,0E0,0E0,0E0,0E0],"parents":[2147483647,0,0,1,1,2,2,3,3,4,4,5,5,6,6],"right_children":[2,4,6,8,10,12,14,-1,-1,-1,-1,-1,-1,-1,-1],"split_conditions":[1.5852051E0,3.985756E-2,-1.0130073E0,-9.902183E-2,-5.040554E-1,1.6019504E0,-3.2519433E-1,-8.0780743E-4,-1.4182346E-2,6.8125436E-3,8.795563E-4,-1.0487976E-2,1.0472548E-3,-8.349129E-3,-1.6401814E-2],"split_indices":[5,7,4,3,2,5,2,0,0,0,0,0,0,0,0],"split_type":[0,0,0,0,0,0,0,0,0,0,0,0,0,0,0],"sum_hessian":[2.3344858E3,2.1324502E3,2.0203564E2,9.7029254E2,1.1621576E3,1.1612874E2,8.590691E1,9.242594E2,4.60331E1,2.790912E2,8.830664E2,3.5991642E1,8.013709E1,5.842549E1,2.748142E1],"tree_param":{"num_deleted":"0","num_feature":"9","num_nodes":"15","size_leaf_vector":"1"}},{"base_weights":[1.9270577E-4,1.01914965E-1,-3.615699E-1,-7.649858E-2,3.7071696E-1,-2.9226407E-1,-9.889572E-1,-3.7906948E-4,-1.1457903E-2,1.2143834E-2,3.2590695E-3,7.576873E-3,-3.445581E-3,-6.628183E-4,-1.077236E-2],"categories":[],"categories_nodes":[],"categories_segments":[],"categories_sizes":[],"default_left":[0,0,0,0,0,0,0,0,0,0,0,0,0,0,0],"id":18,"left_children":[1,3,5,7,9,11,13,-1,-1,-1,-1,-1,-1,-1,-1],"loss_changes":[8.59721E1,8.74796E1,2.2005783E1,4.5219112E1,2.7112549E1,2.5691105E1,4.0490494E0,0E0,0E0,0E0,0E0,0E0,0E0,0E0,0E0],"parents":[2147483647,0,0,1,1,2,2,3,3,4,4,5,5,6,6],"right_children":[2,4,6,8,10,12,14,-1,-1,-1,-1,-1,-1,-1,-1],"split_conditions":[4.1862956E-1,6.5728265E-1,1.5852051E0,1.646012E0,-7.3333263E-1,-1.0590065E0,-2.5692493E-1,-3.7906948E-4,-1.1457903E-2,1.2143834E-2,3.2590695E-3,7.576873E-3,-3.445581E-3,-6.628183E-4,-1.077236E-2],"split_indices":[6,7,5,5,1,1,0,0,0,0,0,0,0,0,0],"split_type":[0,0,0,0,0,0,0,0,0,0,0,0,0,0,0],"sum_hessian":[2.3342407E3,1.8224994E3,5.1174136E2,1.0958558E3,7.2664355E2,4.6215424E2,4.958713E1,1.0586826E3,3.717329E1,3.5331615E1,6.913119E2,2.1286112E1,4.4086813E2,4.482942E0,4.510419E1],"tree_param":{"num_deleted":"0","num_feature":"9","num_nodes":"15","size_leaf_vector":"1"}},{"base_weights":[1.8959772E-4,1.009123E-1,-3.5788718E-1,-7.574217E-2,3.671773E-1,-2.8926286E-1,-9.7919637E-1,-3.7527113E-4,-1.1346285E-2,1.2040873E-2,3.227664E-3,7.5098197E-3,-3.4102236E-3,-6.573849E-4,-1.0665838E-2],"categories":[],"categories_nodes":[],"categories_segments":[],"categories_sizes":[],"default_left":[0,0,0,0,0,0,0,0,0,0,0,0,0,0,0],"id":19,"left_children":[1,3,5,7,9,11,13,-1,-1,-1,-1,-1,-1,-1,-1],"loss_changes":[8.425492E1,8.5787544E1,2.1583405E1,4.4343437E1,2.6645668E1,2.519947E1,3.9683838E0,0E0,0E0,0E0,0E0,0E0,0E0,0E0,0E0],"parents":[2147483647,0,0,1,1,2,2,3,3,4,4,5,5,6,6],"right_children":[2,4,6,8,10,12,14,-1,-1,-1,-1,-1,-1,-1,-1],"split_conditions":[4.1862956E-1,6.5728265E-1,1.5852051E0,1.646012E0,-7.3333263E-1,-1.0590065E0,-2.5692493E-1,-3.7527113E-4,-1.1346285E-2,1.2040873E-2,3.227664E-3,7.5098197E-3,-3.4102236E-3,-6.573849E-4,-1.0665838E-2],"split_indices":[6,7,5,5,1,1,0,0,0,0,0,0,0,0,0],"split_type":[0,0,0,0,0,0,0,0,0,0,0,0,0,0,0],"sum_hessian":[2.3341003E3,1.8222434E3,5.1185703E2,1.0958881E3,7.263553E2,4.622649E2,4.959213E1,1.0587147E3,3.717342E1,3.5286167E1,6.9106915E2,2.127041E1,4.4099448E2,4.483061E0,4.510907E1],"tree_param":{"num_deleted":"0","num_feature":"9","num_nodes":"15","size_leaf_vector":"1"}},{"base_weights":[1.8650938E-4,9.991979E-2,-3.5424668E-1,-7.499346E-2,3.636731E-1,-2.86295E-1,-9.695821E-1,-3.7151115E-4,-1.1236463E-2,1.19395E-2,3.1965652E-3,-3.2731323E-3,9.98268E-3,4.1102017E-3,-1.020123E-2],"categories":[],"categories_nodes":[],"categories_segments":[],"categories_sizes":[],"default_left":[0,0,0,0,0,0,0,0,0,0,0,0,0,0,0],"id":20,"left_children":[1,3,5,7,9,11,13,-1,-1,-1,-1,-1,-1,-1,-1],"loss_changes":[8.2572945E1,8.41286E1,2.1171082E1,4.3487762E1,2.618959E1,2.4742008E1,3.949623E0,0E0,0E0,0E0,0E0,0E0,0E0,0E0,0E0],"parents":[2147483647,0,0,1,1,2,2,3,3,4,4,5,5,6,6],"right_children":[2,4,6,8,10,12,14,-1,-1,-1,-1,-1,-1,-1,-1],"split_conditions":[4.1862956E-1,6.5728265E-1,1.5852051E0,1.646012E0,-7.3333263E-1,1.571314E0,-1.052454E0,-3.7151115E-4,-1.1236463E-2,1.19395E-2,3.1965652E-3,-3.2731323E-3,9.98268E-3,4.1102017E-3,-1.020123E-2],"split_indices":[6,7,5,5,1,5,3,0,0,0,0,0,0,0,0],"split_type":[0,0,0,0,0,0,0,0,0,0,0,0,0,0,0],"sum_hessian":[2.3339473E3,1.8219814E3,5.1196582E2,1.0959176E3,7.2606384E2,4.623713E2,4.9594524E1,1.0587465E3,3.7171158E1,3.5238636E1,6.908252E2,4.48786E2,1.3585288E1,1.4995525E0,4.809497E1],"tree_param":{"num_deleted":"0","num_feature":"9","num_nodes":"15","size_leaf_vector":"1"}},{"base_weights":[1.8685454E-4,5.7662774E-2,-6.0361373E-1,2.3847385E-1,-1.3175288E-1,-2.1475583E-1,-1.0345162E0,1.0232967E-2,1.7265292E-3,-2.4623412E-3,3.6508057E-3,-1.0124885E-2,1.8559383E-3,-1.7967025E-2,-8.269144E-3],"categories":[],"categories_nodes":[],"categories_segments":[],"categories_sizes":[],"default_left":[0,0,0,0,0,0,0,0,0,0,0,0,0,0,0],"id":21,"left_children":[1,3,5,7,9,11,13,-1,-1,-1,-1,-1,-1,-1,-1],"loss_changes":[8.106113E1,7.307532E1,3.3795616E1,5.6208942E1,5.9370697E1,3.4672947E1,1.3710968E1,0E0,0E0,0E0,0E0,0E0,0E0,0E0,0E0],"parents":[2147483647,0,0,1,1,2,2,3,3,4,4,5,5,6,6],"right_children":[2,4,6,8,10,12,14,-1,-1,-1,-1,-1,-1,-1,-1],"split_conditions":[1.5852051E0,2.0180736E-2,-1.0269324E0,-8.2292324E-1,2.06936E-1,1.6019504E0,1.6343861E0,1.0232967E-2,1.7265292E-3,-2.4623412E-3,3.6508057E-3,-1.0124885E-2,1.8559383E-3,-1.7967025E-2,-8.269144E-3],"split_indices":[5,2,4,4,1,5,5,0,0,0,0,0,0,0,0],"split_type":[0,0,0,0,0,0,0,0,0,0,0,0,0,0,0],"sum_hessian":[2.333784E3,2.1317654E3,2.0201874E2,1.0905227E3,1.0412426E3,1.0697764E2,9.504109E1,8.325662E1,1.0072661E3,8.466584E2,1.9458418E2,3.523658E1,7.174106E1,1.8706766E1,7.633433E1],"tree_param":{"num_deleted":"0","num_feature":"9","num_nodes":"15","size_leaf_vector":"1"}},{"base_weights":[1.7630379E-4,9.87242E-2,-3.498993E-1,-7.4057624E-2,3.5938463E-1,-2.8319934E-1,-9.5409334E-1,-3.6829262E-4,-1.1059036E-2,1.18233515E-2,3.1581265E-3,7.392828E-3,-3.3397402E-3,4.1464427E-3,-1.004354E-2],"categories":[],"categories_nodes":[],"categories_segments":[],"categories_sizes":[],"default_left":[0,0,0,0,0,0,0,0,0,0,0,0,0,0,0],"id":22,"left_children":[1,3,5,7,9,11,13,-1,-1,-1,-1,-1,-1,-1,-1],"loss_changes":[8.057338E1,8.210617E1,2.040501E1,4.209233E1,2.5682854E1,2.430759E1,3.896286E0,0E0,0E0,0E0,0E0,0E0,0E0,0E0,0E0],"parents":[2147483647,0,0,1,1,2,2,3,3,4,4,5,5,6,6],"right_children":[2,4,6,8,10,12,14,-1,-1,-1,-1,-1,-1,-1,-1],"split_conditions":[4.1862956E-1,6.5728265E-1,1.5852051E0,1.646012E0,-7.3333263E-1,-1.0590065E0,-1.052454E0,-3.6829262E-4,-1.1059036E-2,1.18233515E-2,3.1581265E-3,7.392828E-3,-3.3397402E-3,4.1464427E-3,-1.004354E-2],"split_indices":[6,7,5,5,1,1,3,0,0,0,0,0,0,0,0],"split_type":[0,0,0,0,0,0,0,0,0,0,0,0,0,0,0],"sum_hessian":[2.3335122E3,1.8214763E3,5.12036E2,1.095817E3,7.256593E2,4.6245233E2,4.9583664E1,1.058657E3,3.715999E1,3.5174675E1,6.904846E2,2.1236633E1,4.412157E2,1.4994568E0,4.808421E1],"tree_param":{"num_deleted":"0","num_feature":"9","num_nodes":"15","size_leaf_vector":"1"}},{"base_weights":[1.7567893E-4,9.775403E-2,-3.463386E-1,-7.3325925E-2,3.5595822E-1,-2.8029868E-1,-9.4470966E-1,-3.6460182E-4,-1.0953731E-2,8.497432E-3,2.8368952E-3,-3.205708E-3,9.838847E-3,-4.7635025E-4,-1.030971E-2],"categories":[],"categories_nodes":[],"categories_segments":[],"categories_sizes":[],"default_left":[0,0,0,0,0,0,0,0,0,0,0,0,0,0,0],"id":23,"left_children":[1,3,5,7,9,11,13,-1,-1,-1,-1,-1,-1,-1,-1],"loss_changes":[7.896302E1,8.051921E1,2.001231E1,4.128737E1,2.5679298E1,2.3915386E1,3.8650322E0,0E0,0E0,0E0,0E0,0E0,0E0,0E0,0E0],"parents":[2147483647,0,0,1,1,2,2,3,3,4,4,5,5,6,6],"right_children":[2,4,6,8,10,12,14,-1,-1,-1,-1,-1,-1,-1,-1],"split_conditions":[4.1862956E-1,6.5728265E-1,1.5852051E0,1.646012E0,-9.9828047E-1,1.571314E0,-2.5692493E-1,-3.6460182E-4,-1.0953731E-2,8.497432E-3,2.8368952E-3,-3.205708E-3,9.838847E-3,-4.7635025E-4,-1.030971E-2],"split_indices":[6,7,5,5,2,5,0,0,0,0,0,0,0,0,0],"split_type":[0,0,0,0,0,0,0,0,0,0,0,0,0,0,0],"sum_hessian":[2.333333E3,1.821201E3,5.1213196E2,1.0958397E3,7.253613E2,4.6255048E2,4.958149E1,1.058688E3,3.715171E1,9.123418E1,6.3412714E2,4.4899365E2,1.3556827E1,4.485611E0,4.509588E1],"tree_param":{"num_deleted":"0","num_feature":"9","num_nodes":"15","size_leaf_vector":"1"}},{"base_weights":[1.7255027E-4,9.679224E-2,-3.4282365E-1,-7.260168E-2,3.525654E-1,-2.7742413E-1,-9.355902E-1,-3.6094882E-4,-1.0850043E-2,1.1701215E-2,3.0932848E-3,8.974925E-3,-3.201182E-3,4.1639507E-3,-9.853797E-3],"categories":[],"categories_nodes":[],"categories_segments":[],"categories_sizes":[],"default_left":[0,0,0,0,0,0,0,0,0,0,0,0,0,0,0],"id":24,"left_children":[1,3,5,7,9,11,13,-1,-1,-1,-1,-1,-1,-1,-1],"loss_changes":[7.738678E1,7.8962524E1,1.9636303E1,4.0500328E1,2.5302963E1,2.3544693E1,3.814766E0,0E0,0E0,0E0,0E0,0E0,0E0,0E0,0E0],"parents":[2147483647,0,0,1,1,2,2,3,3,4,4,5,5,6,6],"right_children":[2,4,6,8,10,12,14,-1,-1,-1,-1,-1,-1,-1,-1],"split_conditions":[4.1862956E-1,6.5728265E-1,1.5852051E0,1.646012E0,-7.3333263E-1,-1.0689131E0,-1.052454E0,-3.6094882E-4,-1.0850043E-2,1.1701215E-2,3.0932848E-3,8.974925E-3,-3.201182E-3,4.1639507E-3,-9.853797E-3],"split_indices":[6,7,5,5,1,1,3,0,0,0,0,0,0,0,0],"split_type":[0,0,0,0,0,0,0,0,0,0,0,0,0,0,0],"sum_hessian":[2.3331326E3,1.820912E3,5.122207E2,1.0958599E3,7.2505206E2,4.6264536E2,4.9575336E1,1.0587186E3,3.714129E1,3.5109615E1,6.8994244E2,1.5520094E1,4.4712527E2,1.4993328E0,4.8076004E1],"tree_param":{"num_deleted":"0","num_feature":"9","num_nodes":"15","size_leaf_vector":"1"}},{"base_weights":[1.727867E-4,5.581613E-2,-5.843763E-1,2.3396932E-1,-1.3069955E-1,-2.3791379E-1,-1.0457124E0,1.0120562E-2,1.6880404E-3,-2.4351217E-3,3.5930802E-3,-1.017338E-2,1.1983684E-3,-1.739308E-3,-1.2039337E-2],"categories":[],"categories_nodes":[],"categories_segments":[],"categories_sizes":[],"default_left":[0,0,0,0,0,0,0,0,0,0,0,0,0,0,0],"id":25,"left_children":[1,3,5,7,9,11,13,-1,-1,-1,-1,-1,-1,-1,-1],"loss_changes":[7.594673E1,7.0873055E1,3.218901E1,5.513722E1,5.769879E1,3.2801014E1,1.17561035E1,0E0,0E0,0E0,0E0,0E0,0E0,0E0,0E0],"parents":[2147483647,0,0,1,1,2,2,3,3,4,4,5,5,6,6],"right_children":[2,4,6,8,10,12,14,-1,-1,-1,-1,-1,-1,-1,-1],"split_conditions":[1.5852051E0,2.0180736E-2,-1.0130073E0,-8.2292324E-1,2.06936E-1,1.6019504E0,-1.9117054E0,1.0120562E-2,1.6880404E-3,-2.4351217E-3,3.5930802E-3,-1.017338E-2,1.1983684E-3,-1.739308E-3,-1.2039337E-2],"split_indices":[5,2,4,4,1,5,2,0,0,0,0,0,0,0,0],"split_type":[0,0,0,0,0,0,0,0,0,0,0,0,0,0,0],"sum_hessian":[2.3329326E3,2.130988E3,2.0194466E2,1.0897975E3,1.0411906E3,1.1619681E2,8.5747856E1,8.309502E1,1.0067025E3,8.467496E2,1.9444096E2,3.5975025E1,8.022178E1,1.349442E1,7.225344E1],"tree_param":{"num_deleted":"0","num_feature":"9","num_nodes":"15","size_leaf_vector":"1"}},{"base_weights":[1.671546E-4,9.561584E-2,-3.3854583E-1,-7.173007E-2,3.4841087E-1,-2.7442282E-1,-9.201302E-1,-3.5833646E-4,-1.06794005E-2,8.380178E-3,2.768323E-3,-3.1394763E-3,9.694602E-3,-5.8152815E-3,-1.1851503E-2],"categories":[],"categories_nodes":[],"categories_segments":[],"categories_sizes":[],"default_left":[0,0,0,0,0,0,0,0,0,0,0,0,0,0,0],"id":26,"left_children":[1,3,5,7,9,11,13,-1,-1,-1,-1,-1,-1,-1,-1],"loss_changes":[7.547764E1,7.707635E1,1.8888363E1,3.9181118E1,2.5198189E1,2.3102432E1,3.8465118E0,0E0,0E0,0E0,0E0,0E0,0E0,0E0,0E0],"parents":[2147483647,0,0,1,1,2,2,3,3,4,4,5,5,6,6],"right_children":[2,4,6,8,10,12,14,-1,-1,-1,-1,-1,-1,-1,-1],"split_conditions":[4.1862956E-1,6.5728265E-1,1.5852051E0,1.646012E0,-9.9828047E-1,1.571314E0,-9.8497264E-2,-3.5833646E-4,-1.06794005E-2,8.380178E-3,2.768323E-3,-3.1394763E-3,9.694602E-3,-5.8152815E-3,-1.1851503E-2],"split_indices":[6,7,5,5,2,5,2,0,0,0,0,0,0,0,0],"split_type":[0,0,0,0,0,0,0,0,0,0,0,0,0,0,0],"sum_hessian":[2.3326208E3,1.8203635E3,5.122573E2,1.0957273E3,7.246361E2,4.6271246E2,4.9544834E1,1.0586182E3,3.7109203E1,9.106074E1,6.335754E2,4.49187E2,1.3525464E1,2.3155088E1,2.6389744E1],"tree_param":{"num_deleted":"0","num_feature":"9","num_nodes":"15","size_leaf_vector":"1"}},{"base_weights":[1.6116993E-4,9.467571E-2,-3.3513024E-1,-7.102195E-2,3.4509233E-1,-2.7161294E-1,-9.1143185E-1,-3.5474595E-4,-1.0579845E-2,1.1566026E-2,3.0224016E-3,7.1889954E-3,-3.2061748E-3,-2.929843E-4,-9.96748E-3],"categories":[],"categories_nodes":[],"categories_segments":[],"categories_sizes":[],"default_left":[0,0,0,0,0,0,0,0,0,0,0,0,0,0,0],"id":27,"left_children":[1,3,5,7,9,11,13,-1,-1,-1,-1,-1,-1,-1,-1],"loss_changes":[7.3976974E1,7.558672E1,1.8543182E1,3.844044E1,2.4873497E1,2.274316E1,3.7741737E0,0E0,0E0,0E0,0E0,0E0,0E0,0E0,0E0],"parents":[2147483647,0,0,1,1,2,2,3,3,4,4,5,5,6,6],"right_children":[2,4,6,8,10,12,14,-1,-1,-1,-1,-1,-1,-1,-1],"split_conditions":[4.1862956E-1,6.5728265E-1,1.5852051E0,1.646012E0,-7.3333263E-1,-1.0590065E0,-2.5692493E-1,-3.5474595E-4,-1.0579845E-2,1.1566026E-2,3.0224016E-3,7.1889954E-3,-3.2061748E-3,-2.929843E-4,-9.96748E-3],"split_indices":[6,7,5,5,1,1,0,0,0,0,0,0,0,0,0],"split_type":[0,0,0,0,0,0,0,0,0,0,0,0,0,0,0],"sum_hessian":[2.3324E3,1.8200638E3,5.1233606E2,1.0957415E3,7.243225E2,4.6279968E2,4.953636E1,1.0586481E3,3.7093304E1,3.502616E1,6.892963E2,2.1172724E1,4.4162698E2,4.4869175E0,4.5049442E1],"tree_param":{"num_deleted":"0","num_feature":"9","num_nodes":"15","size_leaf_vector":"1"}},{"base_weights":[1.5879518E-4,9.374645E-2,-3.31746E-1,-7.032101E-2,3.4180677E-1,-2.688394E-1,-9.0277094E-1,-3.5119182E-4,-1.0481749E-2,8.280836E-3,2.7078711E-3,-3.076727E-3,9.561652E-3,-5.6760763E-3,-1.1653227E-2],"categories":[],"categories_nodes":[],"categories_segments":[],"categories_sizes":[],"default_left":[0,0,0,0,0,0,0,0,0,0,0,0,0,0,0],"id":28,"left_children":[1,3,5,7,9,11,13,-1,-1,-1,-1,-1,-1,-1,-1],"loss_changes":[7.250463E1,7.4126854E1,1.819946E1,3.7715893E1,2.481437E1,2.236156E1,3.7844124E0,0E0,0E0,0E0,0E0,0E0,0E0,0E0,0E0],"parents":[2147483647,0,0,1,1,2,2,3,3,4,4,5,5,6,6],"right_children":[2,4,6,8,10,12,14,-1,-1,-1,-1,-1,-1,-1,-1],"split_conditions":[4.1862956E-1,6.5728265E-1,1.5852051E0,1.646012E0,-9.9828047E-1,1.571314E0,-9.8497264E-2,-3.5119182E-4,-1.0481749E-2,8.280836E-3,2.7078711E-3,-3.076727E-3,9.561652E-3,-5.6760763E-3,-1.1653227E-2],"split_indices":[6,7,5,5,2,5,2,0,0,0,0,0,0,0,0],"split_type":[0,0,0,0,0,0,0,0,0,0,0,0,0,0,0],"sum_hessian":[2.3321748E3,1.8197695E3,5.124054E2,1.0957532E3,7.240163E2,4.6288297E2,4.9522423E1,1.0586777E3,3.7075497E1,9.090732E1,6.3310895E2,4.4938602E2,1.3496943E1,2.314206E1,2.6380362E1],"tree_param":{"num_deleted":"0","num_feature":"9","num_nodes":"15","size_leaf_vector":"1"}},{"base_weights":[1.530205E-4,5.4034036E-2,-5.6607175E-1,2.2939186E-1,-1.2943457E-1,-1.9488321E-1,-9.7862744E-1,1.00189755E-2,1.6477552E-3,-2.4060651E-3,3.5385361E-3,-9.813017E-3,1.9895793E-3,-1.7592466E-2,-7.666347E-3],"categories":[],"categories_nodes":[],"categories_segments":[],"categories_sizes":[],"default_left":[0,0,0,0,0,0,0,0,0,0,0,0,0,0,0],"id":29,"left_children":[1,3,5,7,9,11,13,-1,-1,-1,-1,-1,-1,-1,-1],"loss_changes":[7.120556E1,6.859411E1,3.0864647E1,5.4244675E1,5.607642E1,3.364499E1,1.4504379E1,0E0,0E0,0E0,0E0,0E0,0E0,0E0,0E0],"parents":[2147483647,0,0,1,1,2,2,3,3,4,4,5,5,6,6],"right_children":[2,4,6,8,10,12,14,-1,-1,-1,-1,-1,-1,-1,-1],"split_conditions":[1.5852051E0,2.0180736E-2,-1.0269324E0,-8.2292324E-1,2.06936E-1,1.6019504E0,1.6343861E0,1.00189755E-2,1.6477552E-3,-2.4060651E-3,3.5385361E-3,-9.813017E-3,1.9895793E-3,-1.7592466E-2,-7.666347E-3],"split_indices":[5,2,4,4,1,5,5,0,0,0,0,0,0,0,0],"split_type":[0,0,0,0,0,0,0,0,0,0,0,0,0,0,0],"sum_hessian":[2.3319353E3,2.1301394E3,2.0179597E2,1.0890161E3,1.0411232E3,1.0699857E2,9.479739E1,8.294005E1,1.0060761E3,8.468275E2,1.9429561E2,3.520664E1,7.179193E1,1.8687172E1,7.611023E1],"tree_param":{"num_deleted":"0","num_feature":"9","num_nodes":"15","size_leaf_vector":"1"}},{"base_weights":[1.4315174E-4,9.2621885E-2,-3.2771358E-1,-6.945022E-2,3.3778077E-1,-2.6592627E-1,-8.89004E-1,-3.4814942E-4,-1.0323729E-2,1.23928115E-2,2.9965588E-3,8.715779E-3,-3.0705952E-3,4.4067604E-3,-9.386554E-3],"categories":[],"categories_nodes":[],"categories_segments":[],"categories_sizes":[],"default_left":[0,0,0,0,0,0,0,0,0,0,0,0,0,0,0],"id":30,"left_children":[1,3,5,7,9,11,13,-1,-1,-1,-1,-1,-1,-1,-1],"loss_changes":[7.075483E1,7.234603E1,1.756945E1,3.65373E1,2.4532227E1,2.19749E1,3.7468033E0,0E0,0E0,0E0,0E0,0E0,0E0,0E0,0E0],"parents":[2147483647,0,0,1,1,2,2,3,3,4,4,5,5,6,6],"right_children":[2,4,6,8,10,12,14,-1,-1,-1,-1,-1,-1,-1,-1],"split_conditions":[4.1862956E-1,6.5728265E-1,1.5852051E0,1.646012E0,-7.1046996E-1,-1.0689131E0,-1.052454E0,-3.4814942E-4,-1.0323729E-2,1.23928115E-2,2.9965588E-3,8.715779E-3,-3.0705952E-3,4.4067604E-3,-9.386554E-3],"split_indices":[6,7,5,5,3,1,3,0,0,0,0,0,0,0,0],"split_type":[0,0,0,0,0,0,0,0,0,0,0,0,0,0,0],"sum_hessian":[2.331619E3,1.8191951E3,5.124239E2,1.0956129E3,7.235821E2,4.6293716E2,4.9486713E1,1.0585734E3,3.703957E1,2.8080685E1,6.955014E2,1.5451459E1,4.4748572E2,1.4978718E0,4.7988842E1],"tree_param":{"num_deleted":"0","num_feature":"9","num_nodes":"15","size_leaf_vector":"1"}},{"base_weights":[1.443521E-4,9.171386E-2,-3.2439741E-1,-6.8765216E-2,3.3456814E-1,-2.63211E-1,-8.8051337E-1,-3.446624E-4,-1.0229312E-2,8.167758E-3,2.642261E-3,3.4864834E-3,-3.3911401E-3,-5.481741E-3,-1.1413234E-2],"categories":[],"categories_nodes":[],"categories_segments":[],"categories_sizes":[],"default_left":[0,0,0,0,0,0,0,0,0,0,0,0,0,0,0],"id":31,"left_children":[1,3,5,7,9,11,13,-1,-1,-1,-1,-1,-1,-1,-1],"loss_changes":[6.934358E1,7.0949715E1,1.7240395E1,3.585371E1,2.435112E1,2.1667938E1,3.7489243E0,0E0,0E0,0E0,0E0,0E0,0E0,0E0,0E0],"parents":[2147483647,0,0,1,1,2,2,3,3,4,4,5,5,6,6],"right_children":[2,4,6,8,10,12,14,-1,-1,-1,-1,-1,-1,-1,-1],"split_conditions":[4.1862956E-1,6.5728265E-1,1.5852051E0,1.646012E0,-9.9828047E-1,-8.289653E-1,-9.8497264E-2,-3.446624E-4,-1.0229312E-2,8.167758E-3,2.642261E-3,3.4864834E-3,-3.3911401E-3,-5.481741E-3,-1.1413234E-2],"split_indices":[6,7,5,5,2,4,2,0,0,0,0,0,0,0,0],"split_type":[0,0,0,0,0,0,0,0,0,0,0,0,0,0,0],"sum_hessian":[2.3313752E3,1.818892E3,5.124833E2,1.0956193E3,7.232727E2,4.630137E2,4.9469563E1,1.0586023E3,3.701698E1,9.072495E1,6.325478E2,5.0702663E1,4.1231104E2,2.3115835E1,2.6353727E1],"tree_param":{"num_deleted":"0","num_feature":"9","num_nodes":"15","size_leaf_vector":"1"}},{"base_weights":[1.3614165E-4,5.917304E-2,-4.9549598E-1,-8.642545E-2,2.8485644E-1,2.218776E-1,-5.501257E-1,5.869264E-4,-2.9849738E-3,3.2860956E-3,-6.5780273E-3,1.1363911E-2,-6.380779E-4,-4.442087E-3,-1.0529357E-2],"categories":[],"categories_nodes":[],"categories_segments":[],"categories_sizes":[],"default_left":[0,0,0,0,0,0,0,0,0,0,0,0,0,0,0],"id":32,"left_children":[1,3,5,7,9,11,13,-1,-1,-1,-1,-1,-1,-1,-1],"loss_changes":[6.826848E1,6.852907E1,9.854038E0,3.9040977E1,3.394512E1,4.8497667E0,1.1836769E1,0E0,0E0,0E0,0E0,0E0,0E0,0E0,0E0],"parents":[2147483647,0,0,1,1,2,2,3,3,4,4,5,5,6,6],"right_children":[2,4,6,8,10,12,14,-1,-1,-1,-1,-1,-1,-1,-1],"split_conditions":[8.1849724E-1,6.5728265E-1,-1.0590065E0,5.34831E-3,1.2227156E0,-1.2316451E-1,9.877921E-1,5.869264E-4,-2.9849738E-3,3.2860956E-3,-6.5780273E-3,1.1363911E-2,-6.380779E-4,-4.442087E-3,-1.0529357E-2],"split_indices":[6,7,1,2,3,2,5,0,0,0,0,0,0,0,0],"split_type":[0,0,0,0,0,0,0,0,0,0,0,0,0,0,0],"sum_hessian":[2.331119E3,2.0837903E3,2.473287E2,1.2670052E3,8.16785E2,1.7285229E1,2.3004349E2,7.5267957E2,5.1432574E2,7.811783E2,3.560666E1,3.4056287E0,1.38796E1,1.9157222E2,3.8471256E1],"tree_param":{"num_deleted":"0","num_feature":"9","num_nodes":"15","size_leaf_vector":"1"}},{"base_weights":[1.3087677E-4,5.2568253E-2,-5.5112576E-1,2.2460175E-1,-1.2729256E-1,-1.8722874E-1,-9.561846E-1,9.907942E-3,1.6060834E-3,-2.3673102E-3,3.4886675E-3,-9.680178E-3,2.0344069E-3,-1.7382955E-2,-7.43909E-3],"categories":[],"categories_nodes":[],"categories_segments":[],"categories_sizes":[],"default_left":[0,0,0,0,0,0,0,0,0,0,0,0,0,0,0],"id":33,"left_children":[1,3,5,7,9,11,13,-1,-1,-1,-1,-1,-1,-1,-1],"loss_changes":[6.743685E1,6.594424E1,2.9690144E1,5.324571E1,5.4386116E1,3.3136387E1,1.4587517E1,0E0,0E0,0E0,0E0,0E0,0E0,0E0,0E0],"parents":[2147483647,0,0,1,1,2,2,3,3,4,4,5,5,6,6],"right_children":[2,4,6,8,10,12,14,-1,-1,-1,-1,-1,-1,-1,-1],"split_conditions":[1.5852051E0,2.0180736E-2,-1.0269324E0,-8.2292324E-1,2.06936E-1,1.6019504E0,1.6343861E0,9.907942E-3,1.6060834E-3,-2.3673102E-3,3.4886675E-3,-9.680178E-3,2.0344069E-3,-1.7382955E-2,-7.43909E-3],"split_indices":[5,2,4,4,1,5,5,0,0,0,0,0,0,0,0],"split_type":[0,0,0,0,0,0,0,0,0,0,0,0,0,0,0],"sum_hessian":[2.330932E3,2.1292913E3,2.0164067E2,1.0881998E3,1.0410914E3,1.06987434E2,9.465323E1,8.276558E1,1.00543427E3,8.469377E2,1.9415376E2,3.518637E1,7.180107E1,1.867136E1,7.5981865E1],"tree_param":{"num_deleted":"0","num_feature":"9","num_nodes":"15","size_leaf_vector":"1"}},{"base_weights":[1.2141706E-4,5.8474712E-2,-4.8962188E-1,-8.528093E-2,2.813915E-1,2.2019993E-1,-5.436398E-1,5.7089975E-4,-2.9321813E-3,3.2483675E-3,-6.5360377E-3,1.12471925E-2,-6.176447E-4,-4.3930965E-3,-1.0392583E-2],"categories":[],"categories_nodes":[],"categories_segments":[],"categories_sizes":[],"default_left":[0,0,0,0,0,0,0,0,0,0,0,0,0,0,0],"id":34,"left_children":[1,3,5,7,9,11,13,-1,-1,-1,-1,-1,-1,-1,-1],"loss_changes":[6.666127E1,6.681506E1,9.641872E0,3.755133E1,3.3414986E1,4.730139E0,1.1491432E1,0E0,0E0,0E0,0E0,0E0,0E0,0E0,0E0],"parents":[2147483647,0,0,1,1,2,2,3,3,4,4,5,5,6,6],"right_children":[2,4,6,8,10,12,14,-1,-1,-1,-1,-1,-1,-1,-1],"split_conditions":[8.1849724E-1,6.5728265E-1,-1.0590065E0,5.34831E-3,1.2227156E0,-1.2316451E-1,9.877921E-1,5.7089975E-4,-2.9321813E-3,3.2483675E-3,-6.5360377E-3,1.12471925E-2,-6.176447E-4,-4.3930965E-3,-1.0392583E-2],"split_indices":[6,7,1,2,3,2,5,0,0,0,0,0,0,0,0],"split_type":[0,0,0,0,0,0,0,0,0,0,0,0,0,0,0],"sum_hessian":[2.3305952E3,2.0832544E3,2.473408E2,1.2668801E3,8.163743E2,1.7274115E1,2.3006668E2,7.524301E2,5.1445E2,7.807488E2,3.562551E1,3.394847E0,1.3879268E1,1.9161679E2,3.8449894E1],"tree_param":{"num_deleted":"0","num_feature":"9","num_nodes":"15","size_leaf_vector":"1"}},{"base_weights":[1.1641124E-4,1.23156205E-1,-2.2946788E-1,-1.7136542E-2,3.522939E-1,-1.6977267E-1,-7.533415E-1,5.0234137E-4,-5.9998804E-3,4.3904237E-3,-2.0168833E-3,-3.4975337E-3,1.4418631E-3,-4.8747947E-3,-1.0906825E-2],"categories":[],"categories_nodes":[],"categories_segments":[],"categories_sizes":[],"default_left":[0,0,0,0,0,0,0,0,0,0,0,0,0,0,0],"id":35,"left_children":[1,3,5,7,9,11,13,-1,-1,-1,-1,-1,-1,-1,-1],"loss_changes":[6.588555E1,4.8822266E1,2.5322937E1,3.7052544E1,2.7804352E1,4.1406204E1,6.9085846E0,0E0,0E0,0E0,0E0,0E0,0E0,0E0,0E0],"parents":[2147483647,0,0,1,1,2,2,3,3,4,4,5,5,6,6],"right_children":[2,4,6,8,10,12,14,-1,-1,-1,-1,-1,-1,-1,-1],"split_conditions":[1.2533838E-1,6.5728265E-1,1.5852051E0,-1.4170714E-1,-5.0440952E-2,-6.586489E-1,1.3379937E-2,5.0234137E-4,-5.9998804E-3,4.3904237E-3,-2.0168833E-3,-3.4975337E-3,1.4418631E-3,-4.8747947E-3,-1.0906825E-2],"split_indices":[6,7,5,3,0,5,2,0,0,0,0,0,0,0,0],"split_type":[0,0,0,0,0,0,0,0,0,0,0,0,0,0,0],"sum_hessian":[2.3303962E3,1.5175616E3,8.1283453E2,9.418352E2,5.7572644E2,7.3087555E2,8.195895E1,8.450691E2,9.676609E1,4.979583E2,7.776815E1,4.644882E2,2.663874E2,4.7202908E1,3.4756035E1],"tree_param":{"num_deleted":"0","num_feature":"9","num_nodes":"15","size_leaf_vector":"1"}},{"base_weights":[1.0662727E-4,5.158054E-2,-5.41175E-1,2.2068913E-1,-1.2511866E-1,-2.2362761E-1,-9.9949634E-1,9.811955E-3,1.572565E-3,-2.3287507E-3,3.440954E-3,-1.7053021E-2,-8.612265E-4,-2.4327699E-3,-1.1842567E-2],"categories":[],"categories_nodes":[],"categories_segments":[],"categories_sizes":[],"default_left":[0,0,0,0,0,0,0,0,0,0,0,0,0,0,0],"id":36,"left_children":[1,3,5,7,9,11,13,-1,-1,-1,-1,-1,-1,-1,-1],"loss_changes":[6.497857E1,6.3664234E1,2.9251205E1,5.235868E1,5.276889E1,2.4489445E1,1.1252678E1,0E0,0E0,0E0,0E0,0E0,0E0,0E0,0E0],"parents":[2147483647,0,0,1,1,2,2,3,3,4,4,5,5,6,6],"right_children":[2,4,6,8,10,12,14,-1,-1,-1,-1,-1,-1,-1,-1],"split_conditions":[1.5852051E0,2.0180736E-2,-8.756057E-1,-8.2292324E-1,2.06936E-1,1.5906981E0,-1.8525261E0,9.811955E-3,1.572565E-3,-2.3287507E-3,3.440954E-3,-1.7053021E-2,-8.612265E-4,-2.4327699E-3,-1.1842567E-2],"split_indices":[5,2,3,4,1,5,2,0,0,0,0,0,0,0,0],"split_type":[0,0,0,0,0,0,0,0,0,0,0,0,0,0,0],"sum_hessian":[2.3301648E3,2.1286433E3,2.0152151E2,1.0875566E3,1.0410867E3,1.1992177E2,8.159975E1,8.261392E1,1.00494275E3,8.4706036E2,1.9402628E2,9.215804E0,1.1070596E2,1.6476906E1,6.512284E1],"tree_param":{"num_deleted":"0","num_feature":"9","num_nodes":"15","size_leaf_vector":"1"}},{"base_weights":[9.738485E-5,8.8315204E-2,-3.1227717E-1,-6.5719664E-2,3.2180557E-1,-2.538986E-1,-8.4442025E-1,-3.2320956E-4,-9.9680545E-3,1.1226407E-2,2.7969235E-3,-2.9153721E-3,9.382893E-3,-5.174175E-3,-1.101804E-2],"categories":[],"categories_nodes":[],"categories_segments":[],"categories_sizes":[],"default_left":[0,0,0,0,0,0,0,0,0,0,0,0,0,0,0],"id":37,"left_children":[1,3,5,7,9,11,13,-1,-1,-1,-1,-1,-1,-1,-1],"loss_changes":[6.4258095E1,6.541796E1,1.5738209E1,3.4062416E1,2.406697E1,2.110218E1,3.6663933E0,0E0,0E0,0E0,0E0,0E0,0E0,0E0,0E0],"parents":[2147483647,0,0,1,1,2,2,3,3,4,4,5,5,6,6],"right_children":[2,4,6,8,10,12,14,-1,-1,-1,-1,-1,-1,-1,-1],"split_conditions":[4.1862956E-1,6.5728265E-1,1.5852051E0,1.646012E0,-7.3333263E-1,1.571314E0,-9.8497264E-2,-3.2320956E-4,-9.9680545E-3,1.1226407E-2,2.7969235E-3,-2.9153721E-3,9.382893E-3,-5.174175E-3,-1.101804E-2],"split_indices":[6,7,5,5,1,5,2,0,0,0,0,0,0,0,0],"split_type":[0,0,0,0,0,0,0,0,0,0,0,0,0,0,0],"sum_hessian":[2.3298237E3,1.817313E3,5.1251074E2,1.095394E3,7.2191895E2,4.6317538E2,4.933539E1,1.058461E3,3.6933025E1,3.478479E1,6.8713416E2,4.497323E2,1.34430685E1,2.3054825E1,2.6280565E1],"tree_param":{"num_deleted":"0","num_feature":"9","num_nodes":"15","size_leaf_vector":"1"}},{"base_weights":[9.413682E-5,1.2082288E-1,-2.2508074E-1,-1.6338985E-2,3.450547E-1,-1.6698438E-1,-7.354311E-1,4.9997214E-4,-5.9027122E-3,4.3115015E-3,-2.0424263E-3,-3.4380502E-3,1.4166497E-3,-4.7274735E-3,-1.0690948E-2],"categories":[],"categories_nodes":[],"categories_segments":[],"categories_sizes":[],"default_left":[0,0,0,0,0,0,0,0,0,0,0,0,0,0,0],"id":38,"left_children":[1,3,5,7,9,11,13,-1,-1,-1,-1,-1,-1,-1,-1],"loss_changes":[6.3383266E1,4.6686546E1,2.400496E1,3.591978E1,2.7332848E1,3.9992096E1,6.758404E0,0E0,0E0,0E0,0E0,0E0,0E0,0E0,0E0],"parents":[2147483647,0,0,1,1,2,2,3,3,4,4,5,5,6,6],"right_children":[2,4,6,8,10,12,14,-1,-1,-1,-1,-1,-1,-1,-1],"split_conditions":[1.2533838E-1,6.5728265E-1,1.5852051E0,-1.4170714E-1,-5.0440952E-2,-6.586489E-1,1.3379937E-2,4.9997214E-4,-5.9027122E-3,4.3115015E-3,-2.0424263E-3,-3.4380502E-3,1.4166497E-3,-4.7274735E-3,-1.0690948E-2],"split_indices":[6,7,5,3,0,5,2,0,0,0,0,0,0,0,0],"split_type":[0,0,0,0,0,0,0,0,0,0,0,0,0,0,0],"sum_hessian":[2.3295457E3,1.5167794E3,8.127662E2,9.416825E2,5.75097E2,7.308914E2,8.1874756E1,8.4493604E2,9.674645E1,4.973575E2,7.773948E1,4.6460956E2,2.6628183E2,4.7162186E1,3.471257E1],"tree_param":{"num_deleted":"0","num_feature":"9","num_nodes":"15","size_leaf_vector":"1"}},{"base_weights":[8.47546E-5,5.6677517E-2,-4.745435E-1,-8.1458315E-2,2.711883E-1,5.9371454E-1,-5.090335E-1,5.642334E-3,-1.2534426E-3,3.1420551E-3,-6.5287384E-3,-1.9161109E-3,1.0217028E-2,-2.9892658E-3,-6.9542364E-3],"categories":[],"categories_nodes":[],"categories_segments":[],"categories_sizes":[],"default_left":[0,0,0,0,0,0,0,0,0,0,0,0,0,0,0],"id":39,"left_children":[1,3,5,7,9,11,13,-1,-1,-1,-1,-1,-1,-1,-1],"loss_changes":[6.2619896E1,6.174286E1,9.452881E0,3.5995945E1,3.264725E1,2.9617693E0,9.235287E0,0E0,0E0,0E0,0E0,0E0,0E0,0E0,0E0],"parents":[2147483647,0,0,1,1,2,2,3,3,4,4,5,5,6,6],"right_children":[2,4,6,8,10,12,14,-1,-1,-1,-1,-1,-1,-1,-1],"split_conditions":[8.1849724E-1,6.5728265E-1,-2.5770897E-1,-1.0689131E0,1.2227156E0,-5.775675E-1,-5.521566E-1,5.642334E-3,-1.2534426E-3,3.1420551E-3,-6.5287384E-3,-1.9161109E-3,1.0217028E-2,-2.9892658E-3,-6.9542364E-3],"split_indices":[6,7,0,1,3,7,1,0,0,0,0,0,0,0,0],"split_type":[0,0,0,0,0,0,0,0,0,0,0,0,0,0,0],"sum_hessian":[2.3292969E3,2.0819358E3,2.4736104E2,1.2667943E3,8.151415E2,7.2294455E0,2.401316E2,7.986645E1,1.1869279E3,7.795133E2,3.562818E1,2.7449572E0,4.4844885E0,1.14107994E2,1.26023605E2],"tree_param":{"num_deleted":"0","num_feature":"9","num_nodes":"15","size_leaf_vector":"1"}},{"base_weights":[8.39857E-5,5.0344586E-2,-5.2869374E-1,2.172212E-1,-1.23934865E-1,-2.0542769E-1,-9.622657E-1,9.71176E-3,1.5443494E-3,-2.3012843E-3,3.388476E-3,-9.693784E-3,1.4381711E-3,-9.111744E-4,-1.1227232E-2],"categories":[],"categories_nodes":[],"categories_segments":[],"categories_sizes":[],"default_left":[0,0,0,0,0,0,0,0,0,0,0,0,0,0,0],"id":40,"left_children":[1,3,5,7,9,11,13,-1,-1,-1,-1,-1,-1,-1,-1],"loss_changes":[6.1953682E1,6.1938736E1,2.8162437E1,5.134679E1,5.1283276E1,3.1405815E1,1.1940575E1,0E0,0E0,0E0,0E0,0E0,0E0,0E0,0E0],"parents":[2147483647,0,0,1,1,2,2,3,3,4,4,5,5,6,6],"right_children":[2,4,6,8,10,12,14,-1,-1,-1,-1,-1,-1,-1,-1],"split_conditions":[1.5852051E0,2.0180736E-2,-1.0130073E0,-8.2292324E-1,2.06936E-1,1.6019504E0,-1.9117054E0,9.71176E-3,1.5443494E-3,-2.3012843E-3,3.388476E-3,-9.693784E-3,1.4381711E-3,-9.111744E-4,-1.1227232E-2],"split_indices":[5,2,4,4,1,5,2,0,0,0,0,0,0,0,0],"split_type":[0,0,0,0,0,0,0,0,0,0,0,0,0,0,0],"sum_hessian":[2.3291274E3,2.1277852E3,2.0134232E2,1.0868524E3,1.0409327E3,1.1618785E2,8.5154465E1,8.243862E1,1.0044138E3,8.470622E2,1.9387059E2,3.5894745E1,8.0293106E1,1.3488929E1,7.1665535E1],"tree_param":{"num_deleted":"0","num_feature":"9","num_nodes":"15","size_leaf_vector":"1"}},{"base_weights":[7.991964E-5,1.18842274E-1,-2.2134894E-1,-1.5310403E-2,3.3835372E-1,-1.6438466E-1,-7.2230816E-1,5.0233403E-4,-5.8234E-3,4.2365515E-3,-2.0529544E-3,-3.3821617E-3,1.3922706E-3,-4.6146563E-3,-1.0539588E-2],"categories":[],"categories_nodes":[],"categories_segments":[],"categories_sizes":[],"default_left":[0,0,0,0,0,0,0,0,0,0,0,0,0,0,0],"id":41,"left_children":[1,3,5,7,9,11,13,-1,-1,-1,-1,-1,-1,-1,-1],"loss_changes":[6.129252E1,4.4679916E1,2.3100891E1,3.506005E1,2.6775314E1,3.8674355E1,6.67498E0,0E0,0E0,0E0,0E0,0E0,0E0,0E0,0E0],"parents":[2147483647,0,0,1,1,2,2,3,3,4,4,5,5,6,6],"right_children":[2,4,6,8,10,12,14,-1,-1,-1,-1,-1,-1,-1,-1],"split_conditions":[1.2533838E-1,6.5728265E-1,1.5852051E0,-1.4170714E-1,-5.0440952E-2,-6.586489E-1,1.3379937E-2,5.0233403E-4,-5.8234E-3,4.2365515E-3,-2.0529544E-3,-3.3821617E-3,1.3922706E-3,-4.6146563E-3,-1.0539588E-2],"split_indices":[6,7,5,3,0,5,2,0,0,0,0,0,0,0,0],"split_type":[0,0,0,0,0,0,0,0,0,0,0,0,0,0,0],"sum_hessian":[2.3287432E3,1.5160695E3,8.1267365E2,9.41568E2,5.745015E2,7.308917E2,8.178187E1,8.448248E2,9.6743164E1,4.967755E2,7.772601E1,4.6471008E2,2.6618167E2,4.7116367E1,3.4665497E1],"tree_param":{"num_deleted":"0","num_feature":"9","num_nodes":"15","size_leaf_vector":"1"}},{"base_weights":[7.075895E-5,5.5659115E-2,-4.6595E-1,-7.9538114E-2,2.6576164E-1,2.3278628E-1,-5.191336E-1,5.607668E-3,-1.2302324E-3,3.0842319E-3,-6.4936643E-3,1.1148126E-2,-4.2396112E-4,-4.1846405E-3,-9.996179E-3],"categories":[],"categories_nodes":[],"categories_segments":[],"categories_sizes":[],"default_left":[0,0,0,0,0,0,0,0,0,0,0,0,0,0,0],"id":42,"left_children":[1,3,5,7,9,11,13,-1,-1,-1,-1,-1,-1,-1,-1],"loss_changes":[6.0371876E1,5.916429E1,9.350288E0,3.53655E1,3.203624E1,4.4785976E0,1.0760246E1,0E0,0E0,0E0,0E0,0E0,0E0,0E0,0E0],"parents":[2147483647,0,0,1,1,2,2,3,3,4,4,5,5,6,6],"right_children":[2,4,6,8,10,12,14,-1,-1,-1,-1,-1,-1,-1,-1],"split_conditions":[8.1849724E-1,6.5728265E-1,-1.0590065E0,-1.0689131E0,1.2227156E0,-1.2316451E-1,9.877921E-1,5.607668E-3,-1.2302324E-3,3.0842319E-3,-6.4936643E-3,1.1148126E-2,-4.2396112E-4,-4.1846405E-3,-9.996179E-3],"split_indices":[6,7,1,1,3,2,5,0,0,0,0,0,0,0,0],"split_type":[0,0,0,0,0,0,0,0,0,0,0,0,0,0,0],"sum_hessian":[2.3284797E3,2.0811182E3,2.4736147E2,1.2666641E3,8.144543E2,1.7257124E1,2.3010434E2,7.9796074E1,1.1868679E3,7.7881055E2,3.5643703E1,3.3781517E0,1.3878972E1,1.9179167E2,3.831268E1],"tree_param":{"num_deleted":"0","num_feature":"9","num_nodes":"15","size_leaf_vector":"1"}},{"base_weights":[6.9314476E-5,4.9465656E-2,-5.199156E-1,2.1435292E-1,-1.2266188E-1,-2.1261135E-1,-9.649158E-1,9.618633E-3,1.5220006E-3,-2.2739756E-3,3.3410897E-3,-1.6893929E-2,-7.577167E-4,-1.1899035E-3,-1.1253239E-2],"categories":[],"categories_nodes":[],"categories_segments":[],"categories_sizes":[],"default_left":[0,0,0,0,0,0,0,0,0,0,0,0,0,0,0],"id":43,"left_children":[1,3,5,7,9,11,13,-1,-1,-1,-1,-1,-1,-1,-1],"loss_changes":[5.985399E1,6.0425663E1,2.7440582E1,5.0368565E1,4.9917503E1,2.4296597E1,1.1033287E1,0E0,0E0,0E0,0E0,0E0,0E0,0E0,0E0],"parents":[2147483647,0,0,1,1,2,2,3,3,4,4,5,5,6,6],"right_children":[2,4,6,8,10,12,14,-1,-1,-1,-1,-1,-1,-1,-1],"split_conditions":[1.5852051E0,2.0180736E-2,-8.756057E-1,-8.2292324E-1,2.06936E-1,1.5906981E0,-1.9117054E0,9.618633E-3,1.5220006E-3,-2.2739756E-3,3.3410897E-3,-1.6893929E-2,-7.577167E-4,-1.1899035E-3,-1.1253239E-2],"split_indices":[5,2,3,4,1,5,2,0,0,0,0,0,0,0,0],"split_type":[0,0,0,0,0,0,0,0,0,0,0,0,0,0,0],"sum_hessian":[2.3282761E3,2.1271143E3,2.011619E2,1.0862808E3,1.0408335E3,1.1986463E2,8.129726E1,8.227585E1,1.00400494E3,8.4709924E2,1.937342E2,9.202707E0,1.1066193E2,1.3236305E1,6.806095E1],"tree_param":{"num_deleted":"0","num_feature":"9","num_nodes":"15","size_leaf_vector":"1"}},{"base_weights":[6.12046E-5,1.1688752E-1,-2.1768966E-1,1.8683535E-1,-2.8938088E-1,-1.6196051E-1,-7.083477E-1,9.0903044E-4,5.0326413E-3,1.9215773E-3,-9.873334E-3,-3.3287036E-3,1.3672762E-3,-4.4914368E-3,-1.0382823E-2],"categories":[],"categories_nodes":[],"categories_segments":[],"categories_sizes":[],"default_left":[0,0,0,0,0,0,0,0,0,0,0,0,0,0,0],"id":44,"left_children":[1,3,5,7,9,11,13,-1,-1,-1,-1,-1,-1,-1,-1],"loss_changes":[5.9270584E1,4.3145348E1,2.213089E1,3.9241882E1,7.517803E1,3.740634E1,6.6046524E0,0E0,0E0,0E0,0E0,0E0,0E0,0E0,0E0],"parents":[2147483647,0,0,1,1,2,2,3,3,4,4,5,5,6,6],"right_children":[2,4,6,8,10,12,14,-1,-1,-1,-1,-1,-1,-1,-1],"split_conditions":[1.2533838E-1,1.433813E0,1.5852051E0,-6.586489E-1,-7.543339E-1,-6.586489E-1,1.3379937E-2,9.0903044E-4,5.0326413E-3,1.9215773E-3,-9.873334E-3,-3.3287036E-3,1.3672762E-3,-4.4914368E-3,-1.0382823E-2],"split_indices":[6,5,5,5,1,5,2,0,0,0,0,0,0,0,0],"split_type":[0,0,0,0,0,0,0,0,0,0,0,0,0,0,0],"sum_hessian":[2.3279072E3,1.5153594E3,8.125478E2,1.2932404E3,2.2211899E2,7.3086584E2,8.168196E1,9.933668E2,2.9987357E2,1.318656E2,9.025338E1,4.6479495E2,2.660709E2,4.7066658E1,3.4615303E1],"tree_param":{"num_deleted":"0","num_feature":"9","num_nodes":"15","size_leaf_vector":"1"}},{"base_weights":[5.2847714E-5,5.464706E-2,-4.5751682E-1,-7.789328E-2,2.6076028E-1,6.003409E-1,-4.9172965E-1,5.563732E-3,-1.2093305E-3,3.0321495E-3,-6.490405E-3,-1.8032338E-3,1.0241917E-2,-2.829008E-3,-6.7716073E-3],"categories":[],"categories_nodes":[],"categories_segments":[],"categories_sizes":[],"default_left":[0,0,0,0,0,0,0,0,0,0,0,0,0,0,0],"id":45,"left_children":[1,3,5,7,9,11,13,-1,-1,-1,-1,-1,-1,-1,-1],"loss_changes":[5.8195667E1,5.6877953E1,9.282742E0,3.466845E1,3.1668644E1,2.9078615E0,9.144531E0,0E0,0E0,0E0,0E0,0E0,0E0,0E0,0E0],"parents":[2147483647,0,0,1,1,2,2,3,3,4,4,5,5,6,6],"right_children":[2,4,6,8,10,12,14,-1,-1,-1,-1,-1,-1,-1,-1],"split_conditions":[8.1849724E-1,6.5728265E-1,-2.5770897E-1,-1.0689131E0,1.2227156E0,-5.775675E-1,-5.521566E-1,5.563732E-3,-1.2093305E-3,3.0321495E-3,-6.490405E-3,-1.8032338E-3,1.0241917E-2,-2.829008E-3,-6.7716073E-3],"split_indices":[6,7,0,1,3,7,1,0,0,0,0,0,0,0,0],"split_type":[0,0,0,0,0,0,0,0,0,0,0,0,0,0,0],"sum_hessian":[2.3276287E3,2.0803013E3,2.4732733E2,1.2665032E3,8.137981E2,7.22997E0,2.4009735E2,7.9722694E1,1.1867805E3,7.7815326E2,3.5644817E1,2.7462974E0,4.4836726E0,1.1411217E2,1.2598519E2],"tree_param":{"num_deleted":"0","num_feature":"9","num_nodes":"15","size_leaf_vector":"1"}},{"base_weights":[5.2547963E-5,4.862519E-2,-5.115459E-1,2.1172357E-1,-1.21575125E-1,-1.6708769E-1,-8.9719576E-1,9.530407E-3,1.5017869E-3,-2.2449137E-3,3.2772082E-3,-9.374083E-3,2.1725413E-3,-1.6894443E-2,-6.8240464E-3],"categories":[],"categories_nodes":[],"categories_segments":[],"categories_sizes":[],"default_left":[0,0,0,0,0,0,0,0,0,0,0,0,0,0,0],"id":46,"left_children":[1,3,5,7,9,11,13,-1,-1,-1,-1,-1,-1,-1,-1],"loss_changes":[5.7885807E1,5.9082485E1,2.6682022E1,4.9439335E1,4.824138E1,3.215514E1,1.5024384E1,0E0,0E0,0E0,0E0,0E0,0E0,0E0,0E0],"parents":[2147483647,0,0,1,1,2,2,3,3,4,4,5,5,6,6],"right_children":[2,4,6,8,10,12,14,-1,-1,-1,-1,-1,-1,-1,-1],"split_conditions":[1.5852051E0,2.0180736E-2,-1.0269324E0,-8.2292324E-1,2.06936E-1,1.6019504E0,1.6343861E0,9.530407E-3,1.5017869E-3,-2.2449137E-3,3.2772082E-3,-9.374083E-3,2.1725413E-3,-1.6894443E-2,-6.8240464E-3],"split_indices":[5,2,4,4,1,5,5,0,0,0,0,0,0,0,0],"split_type":[0,0,0,0,0,0,0,0,0,0,0,0,0,0,0],"sum_hessian":[2.327437E3,2.1264507E3,2.0098647E2,1.085756E3,1.0406947E3,1.06919975E2,9.406648E1,8.2120255E1,1.00363574E3,8.4714667E2,1.9354803E2,3.511048E1,7.1809494E1,1.8599054E1,7.546742E1],"tree_param":{"num_deleted":"0","num_feature":"9","num_nodes":"15","size_leaf_vector":"1"}},{"base_weights":[4.4194927E-5,1.1497712E-1,-2.1410729E-1,1.8379745E-1,-2.8465575E-1,-1.5944155E-1,-6.959582E-1,8.9358963E-4,4.9559386E-3,1.9152104E-3,-9.744809E-3,-3.2747912E-3,1.3438928E-3,-4.388797E-3,-1.0235265E-2],"categories":[],"categories_nodes":[],"categories_segments":[],"categories_sizes":[],"default_left":[0,0,0,0,0,0,0,0,0,0,0,0,0,0,0],"id":47,"left_children":[1,3,5,7,9,11,13,-1,-1,-1,-1,-1,-1,-1,-1],"loss_changes":[5.732497E1,4.1736366E1,2.1315147E1,3.804573E1,7.3454636E1,3.6178276E1,6.505127E0,0E0,0E0,0E0,0E0,0E0,0E0,0E0,0E0],"parents":[2147483647,0,0,1,1,2,2,3,3,4,4,5,5,6,6],"right_children":[2,4,6,8,10,12,14,-1,-1,-1,-1,-1,-1,-1,-1],"split_conditions":[1.2533838E-1,1.433813E0,1.5852051E0,-6.586489E-1,-7.543339E-1,-6.586489E-1,1.3379937E-2,8.9358963E-4,4.9559386E-3,1.9152104E-3,-9.744809E-3,-3.2747912E-3,1.3438928E-3,-4.388797E-3,-1.0235265E-2],"split_indices":[6,5,5,5,1,5,2,0,0,0,0,0,0,0,0],"split_type":[0,0,0,0,0,0,0,0,0,0,0,0,0,0,0],"sum_hessian":[2.327047E3,1.5146259E3,8.124212E2,1.2925734E3,2.220525E2,7.308388E2,8.15824E1,9.93073E2,2.9950037E2,1.3179712E2,9.025538E1,4.648712E2,2.659676E2,4.7020287E1,3.456211E1],"tree_param":{"num_deleted":"0","num_feature":"9","num_nodes":"15","size_leaf_vector":"1"}},{"base_weights":[3.6112255E-5,1.1384908E-1,-2.1198495E-1,1.8200754E-1,-2.8183657E-1,-1.5784077E-1,-6.894658E-1,8.8474114E-4,4.910133E-3,1.8964012E-3,-9.646352E-3,-3.2415485E-3,1.3307056E-3,-4.346805E-3,-1.0142598E-2],"categories":[],"categories_nodes":[],"categories_segments":[],"categories_sizes":[],"default_left":[0,0,0,0,0,0,0,0,0,0,0,0,0,0,0],"id":48,"left_children":[1,3,5,7,9,11,13,-1,-1,-1,-1,-1,-1,-1,-1],"loss_changes":[5.619454E1,4.0918594E1,2.0920555E1,3.733503E1,7.1990654E1,3.54534E1,6.3901787E0,0E0,0E0,0E0,0E0,0E0,0E0,0E0,0E0],"parents":[2147483647,0,0,1,1,2,2,3,3,4,4,5,5,6,6],"right_children":[2,4,6,8,10,12,14,-1,-1,-1,-1,-1,-1,-1,-1],"split_conditions":[1.2533838E-1,1.433813E0,1.5852051E0,-6.586489E-1,-7.543339E-1,-6.586489E-1,1.3379937E-2,8.8474114E-4,4.910133E-3,1.8964012E-3,-9.646352E-3,-3.2415485E-3,1.3307056E-3,-4.346805E-3,-1.0142598E-2],"split_indices":[6,5,5,5,1,5,2,0,0,0,0,0,0,0,0],"split_type":[0,0,0,0,0,0,0,0,0,0,0,0,0,0,0],"sum_hessian":[2.3267527E3,1.5143253E3,8.124273E2,1.2922671E3,2.2205821E2,7.3087946E2,8.154785E1,9.929853E2,2.9928186E2,1.317833E2,9.027491E1,4.64952E2,2.6592743E2,4.7009487E1,3.4538364E1],"tree_param":{"num_deleted":"0","num_feature":"9","num_nodes":"15","size_leaf_vector":"1"}},{"base_weights":[2.811845E-5,5.3364042E-2,-4.4680062E-1,-7.5622246E-2,2.5413203E-1,6.024526E-1,-4.8076454E-1,5.5187163E-3,-1.1816181E-3,2.964721E-3,-6.524167E-3,-1.7329338E-3,1.0227724E-2,-2.7273106E-3,-6.6559836E-3],"categories":[],"categories_nodes":[],"categories_segments":[],"categories_sizes":[],"default_left":[0,0,0,0,0,0,0,0,0,0,0,0,0,0,0],"id":49,"left_children":[1,3,5,7,9,11,13,-1,-1,-1,-1,-1,-1,-1,-1],"loss_changes":[5.5491642E1,5.3887436E1,9.13818E0,3.389236E1,3.143356E1,2.8604434E0,9.087967E0,0E0,0E0,0E0,0E0,0E0,0E0,0E0,0E0],"parents":[2147483647,0,0,1,1,2,2,3,3,4,4,5,5,6,6],"right_children":[2,4,6,8,10,12,14,-1,-1,-1,-1,-1,-1,-1,-1],"split_conditions":[8.1849724E-1,6.5728265E-1,-2.5770897E-1,-1.0689131E0,1.2227156E0,-5.775675E-1,-5.521566E-1,5.5187163E-3,-1.1816181E-3,2.964721E-3,-6.524167E-3,-1.7329338E-3,1.0227724E-2,-2.7273106E-3,-6.6559836E-3],"split_indices":[6,7,0,1,3,7,1,0,0,0,0,0,0,0,0],"split_type":[0,0,0,0,0,0,0,0,0,0,0,0,0,0,0],"sum_hessian":[2.326448E3,2.07915E3,2.4729814E2,1.2662516E3,8.128983E2,7.2291374E0,2.40069E2,7.963254E1,1.1866191E3,7.7726917E2,3.5629147E1,2.7469862E0,4.4821515E0,1.1411091E2,1.2595809E2],"tree_param":{"num_deleted":"0","num_feature":"9","num_nodes":"15","size_leaf_vector":"1"}}]},"name":"gbtree"},"learner_model_param":{"base_score":"5.433667E-1","boost_from_average":"1","num_class":"0","num_feature":"9","num_target":"1"},"objective":{"name":"binary:logistic","reg_loss_param":{"scale_pos_weight":"1"}}},"version":[2,0,0]}