{"learner":{"attributes":{"scikit_learn":"{\"_estimator_type\": \"classifier\"}"},"feature_names":[],"feature_types":[],"gradient_booster":{"model":{"gbtree_model_param":{"num_parallel_tree":"1","num_trees":"50"},"iteration_indptr":[0,1,2,3,4,5,6,7,8,9,10,11,12,13,14,15,16,17,18,19,20,21,22,23,24,25,26,27,28,29,30,31,32,33,34,35,36,37,38,39,40,41,42,43,44,45,46,47,48,49,50],"tree_info":[0,0,0,0,0,0,0,0,0,0,0,0,0,0,0,0,0,0,0,0,0,0,0,0,0,0,0,0,0,0,0,0,0,0,0,0,0,0,0,0,0,0,0,0,0,0,0,0,0,0],"trees":[{"base_weights":[-5.3590527E-3,5.3281015E-1,-3.8528302E-1,6.793375E-1,3.3890024E-1,-6.565284E-1,1.0964888E-1,5.4999977E-2,9.1927305E-2,-6.557386E-2,3.583098E-2,-8.3322E-2,-1.8078145E-2,1.3377285E-1,9.010422E-3],"categories":[],"categories_nodes":[],"categories_segments":[],"categories_sizes":[],"default_left":[0,0,0,0,0,0,0,0,0,0,0,0,0,0,0],"id":0,"left_children":[1,3,5,7,9,11,13,-1,-1,-1,-1,-1,-1,-1,-1],"loss_changes":[3.7813824E2,2.1515121E1,1.4560843E2,1.2991394E1,6.632782E0,5.8728394E1,9.11199E0,0E0,0E0,0E0,0E0,0E0,0E0,0E0,0E0],"parents":[2147483647,0,0,1,1,2,2,3,3,4,4,5,5,6,6],"right_children":[2,4,6,8,10,12,14,-1,-1,-1,-1,-1,-1,-1,-1],"split_conditions":[-1.8371044E-2,-2.3319823E-1,-6.609339E-1,6.5728265E-1,-2.5784358E-1,-2.5088942E-1,-1.2670733E0,5.4999977E-2,9.1927305E-2,-6.557386E-2,3.583098E-2,-8.3322E-2,-1.8078145E-2,1.3377285E-1,9.010422E-3],"split_indices":[6,2,5,7,0,0,4,0,0,0,0,0,0,0,0],"split_type":[0,0,0,0,0,0,0,0,0,0,0,0,0,0,0],"sum_hessian":[1.8474141E3,7.6432764E2,1.0830864E3,4.3392807E2,3.3039957E2,6.994366E2,3.8364987E2,2.840842E2,1.4984389E2,5.696544E0,3.2470303E2,5.094692E2,1.8996736E2,4.953517E0,3.7869635E2],"tree_param":{"num_deleted":"0","num_feature":"9","num_nodes":"15","size_leaf_vector":"1"}},{"base_weights":[8.246945E-3,4.632709E-1,-3.1199133E-1,5.922473E-1,2.92806E-1,-5.254135E-1,1.5812881E-1,8.2318746E-2,4.5853637E-2,-9.226783E-2,3.0824823E-2,-7.177537E-2,-1.823142E-2,1.903659E-2,-7.539284E-2],"categories":[],"categories_nodes":[],"categories_segments":[],"categories_sizes":[],"default_left":[0,0,0,0,0,0,0,0,0,0,0,0,0,0,0],"id":1,"left_children":[1,3,5,7,9,11,13,-1,-1,-1,-1,-1,-1,-1,-1],"loss_changes":[2.720225E2,1.6780212E1,1.1001844E2,1.3147598E1,6.555664E0,4.9614853E1,1.0224799E1,0E0,0E0,0E0,0E0,0E0,0E0,0E0,0E0],"parents":[2147483647,0,0,1,1,2,2,3,3,4,4,5,5,6,6],"right_children":[2,4,6,8,10,12,14,-1,-1,-1,-1,-1,-1,-1,-1],"split_conditions":[-1.8371044E-2,-2.3319823E-1,-6.3056034E-1,-7.782508E-1,-2.5790966E-1,-2.546483E-1,3.5546257E0,8.2318746E-2,4.5853637E-2,-9.226783E-2,3.0824823E-2,-7.177537E-2,-1.823142E-2,1.903659E-2,-7.539284E-2],"split_indices":[6,2,5,6,0,0,0,0,0,0,0,0,0,0,0],"split_type":[0,0,0,0,0,0,0,0,0,0,0,0,0,0,0],"sum_hessian":[1.8648059E3,7.701126E2,1.0946934E3,4.3699838E2,3.3311426E2,7.528167E2,3.418766E2,1.5834862E2,2.7864975E2,3.4419487E0,3.296723E2,4.8169073E2,2.71126E2,3.309696E2,1.090699E1],"tree_param":{"num_deleted":"0","num_feature":"9","num_nodes":"15","size_leaf_vector":"1"}},{"base_weights":[2.7502012E-3,4.0560558E-1,-2.955133E-1,5.184928E-1,1.7926696E-1,-5.257816E-1,1.2877461E-1,-2.436677E-2,5.4290183E-2,-9.595488E-3,2.4024064E-2,-7.132377E-2,-2.538885E-2,3.444839E-2,4.6160608E-3],"categories":[],"categories_nodes":[],"categories_segments":[],"categories_sizes":[],"default_left":[0,0,0,0,0,0,0,0,0,0,0,0,0,0,0],"id":2,"left_children":[1,3,5,7,9,11,13,-1,-1,-1,-1,-1,-1,-1,-1],"loss_changes":[2.2248537E2,2.0033295E1,1.0401342E2,9.899887E0,4.4475613E0,3.497879E1,6.668346E0,0E0,0E0,0E0,0E0,0E0,0E0,0E0,0E0],"parents":[2147483647,0,0,1,1,2,2,3,3,4,4,5,5,6,6],"right_children":[2,4,6,8,10,12,14,-1,-1,-1,-1,-1,-1,-1,-1],"split_conditions":[-1.8371044E-2,-2.546494E-1,-6.609339E-1,-3.0079138E0,-2.5731838E-1,-2.5600874E-1,-3.9262015E-1,-2.436677E-2,5.4290183E-2,-9.595488E-3,2.4024064E-2,-7.132377E-2,-2.538885E-2,3.444839E-2,4.6160608E-3],"split_indices":[6,6,5,6,0,0,2,0,0,0,0,0,0,0,0],"split_type":[0,0,0,0,0,0,0,0,0,0,0,0,0,0,0],"sum_hessian":[1.8496237E3,7.866967E2,1.062927E3,5.2403937E2,2.6265735E2,6.8884174E2,3.740853E2,1.5983353E1,5.08056E2,4.7532467E1,2.1512488E2,4.0677106E2,2.8207065E2,1.0271681E2,2.713685E2],"tree_param":{"num_deleted":"0","num_feature":"9","num_nodes":"15","size_leaf_vector":"1"}},{"base_weights":[-3.9340742E-4,3.624103E-1,-2.6782846E-1,5.0482976E-1,1.7679036E-1,-6.9153583E-1,-8.863898E-2,3.8277518E-2,7.235108E-2,-2.865077E-2,2.2081343E-2,-3.8693536E-2,-7.851918E-2,-2.8552536E-2,1.4171481E-2],"categories":[],"categories_nodes":[],"categories_segments":[],"categories_sizes":[],"default_left":[0,0,0,0,0,0,0,0,0,0,0,0,0,0,0],"id":3,"left_children":[1,3,5,7,9,11,13,-1,-1,-1,-1,-1,-1,-1,-1],"loss_changes":[1.8137878E2,2.088102E1,8.164232E1,1.1689148E1,7.118807E0,8.816254E0,3.4392696E1,0E0,0E0,0E0,0E0,0E0,0E0,0E0,0E0],"parents":[2147483647,0,0,1,1,2,2,3,3,4,4,5,5,6,6],"right_children":[2,4,6,8,10,12,14,-1,-1,-1,-1,-1,-1,-1,-1],"split_conditions":[-1.8371044E-2,-2.3319823E-1,-2.5706652E-1,6.5728265E-1,-1.1979023E0,-4.6854988E-1,-6.6024715E-1,3.8277518E-2,7.235108E-2,-2.865077E-2,2.2081343E-2,-3.8693536E-2,-7.851918E-2,-2.8552536E-2,1.4171481E-2],"split_indices":[6,2,0,7,6,2,5,0,0,0,0,0,0,0,0],"split_type":[0,0,0,0,0,0,0,0,0,0,0,0,0,0,0],"sum_hessian":[1.8673748E3,7.9224976E2,1.075125E3,4.4731863E2,3.4493112E2,3.1869257E2,7.5643243E2,2.888502E2,1.5846843E2,2.9453617E1,3.154775E2,7.615207E1,2.425405E2,4.0771426E2,3.4871817E2],"tree_param":{"num_deleted":"0","num_feature":"9","num_nodes":"15","size_leaf_vector":"1"}},{"base_weights":[1.3838283E-2,3.5227105E-1,-2.4099621E-1,4.6053538E-1,2.0411746E-1,-5.659682E-1,-6.0961403E-2,6.974192E-2,3.776248E-2,3.1445194E-2,5.325805E-3,-6.5088026E-2,-8.524215E-3,5.718081E-3,-3.6950417E-2],"categories":[],"categories_nodes":[],"categories_segments":[],"categories_sizes":[],"default_left":[0,0,0,0,0,0,0,0,0,0,0,0,0,0,0],"id":4,"left_children":[1,3,5,7,9,11,13,-1,-1,-1,-1,-1,-1,-1,-1],"loss_changes":[1.5885614E2,1.259623E1,6.1442287E1,8.699028E0,5.5733776E0,1.5230568E1,2.4709764E1,0E0,0E0,0E0,0E0,0E0,0E0,0E0,0E0],"parents":[2147483647,0,0,1,1,2,2,3,3,4,4,5,5,6,6],"right_children":[2,4,6,8,10,12,14,-1,-1,-1,-1,-1,-1,-1,-1],"split_conditions":[-1.7055899E-2,-2.3319823E-1,-2.5673094E-1,-1.0112182E0,-2.4861664E-1,-1.577706E-1,6.982849E-1,6.974192E-2,3.776248E-2,3.1445194E-2,5.325805E-3,-6.5088026E-2,-8.524215E-3,5.718081E-3,-3.6950417E-2],"split_indices":[6,2,0,6,6,4,6,0,0,0,0,0,0,0,0],"split_type":[0,0,0,0,0,0,0,0,0,0,0,0,0,0,0],"sum_hessian":[1.8399468E3,7.901742E2,1.0497726E3,4.5532993E2,3.3484427E2,3.734795E2,6.762931E2,1.1612823E2,3.392017E2,1.927718E2,1.4207248E2,3.171129E2,5.6366573E1,4.896275E2,1.8666559E2],"tree_param":{"num_deleted":"0","num_feature":"9","num_nodes":"15","size_leaf_vector":"1"}},{"base_weights":[6.7771436E-4,2.9515132E-1,-2.1729857E-1,4.9647838E-1,2.161525E-1,-3.986026E-1,1.0085222E-1,6.832618E-2,7.030348E-3,1.0753027E-2,3.8776573E-2,-5.3400513E-2,-3.6018398E-3,3.0273993E-2,-3.2487584E-3],"categories":[],"categories_nodes":[],"categories_segments":[],"categories_sizes":[],"default_left":[0,0,0,0,0,0,0,0,0,0,0,0,0,0,0],"id":5,"left_children":[1,3,5,7,9,11,13,-1,-1,-1,-1,-1,-1,-1,-1],"loss_changes":[1.1895337E2,1.2429901E1,6.146692E1,1.7573845E1,1.0544586E1,3.329413E1,1.0437654E1,0E0,0E0,0E0,0E0,0E0,0E0,0E0,0E0],"parents":[2147483647,0,0,1,1,2,2,3,3,4,4,5,5,6,6],"right_children":[2,4,6,8,10,12,14,-1,-1,-1,-1,-1,-1,-1,-1],"split_conditions":[-1.7055899E-2,-8.025816E-1,-6.609339E-1,-2.710021E-1,-2.4596062E-1,-2.5054076E-1,2.2915287E-1,6.832618E-2,7.030348E-3,1.0753027E-2,3.8776573E-2,-5.3400513E-2,-3.6018398E-3,3.0273993E-2,-3.2487584E-3],"split_indices":[6,6,5,1,0,0,6,0,0,0,0,0,0,0,0],"split_type":[0,0,0,0,0,0,0,0,0,0,0,0,0,0,0],"sum_hessian":[1.851196E3,7.872763E2,1.0639198E3,2.2037357E2,5.669028E2,6.775517E2,3.8636807E2,1.528009E2,6.7572655E1,3.4816135E2,2.1874141E2,4.9298123E2,1.8457045E2,1.531761E2,2.3319196E2],"tree_param":{"num_deleted":"0","num_feature":"9","num_nodes":"15","size_leaf_vector":"1"}},{"base_weights":[-8.872202E-3,2.8598407E-1,-2.2414286E-1,4.700737E-1,2.0169343E-1,-3.8233835E-1,1.0325002E-1,6.475905E-2,1.6955728E-2,8.822465E-3,3.850821E-2,-2.809732E-2,-7.2082154E-2,2.421694E-3,4.0151883E-2],"categories":[],"categories_nodes":[],"categories_segments":[],"categories_sizes":[],"default_left":[0,0,0,0,0,0,0,0,0,0,0,0,0,0,0],"id":6,"left_children":[1,3,5,7,9,11,13,-1,-1,-1,-1,-1,-1,-1,-1],"loss_changes":[1.1650724E2,1.1924519E1,5.4986435E1,1.2828114E1,1.1058508E1,2.4346603E1,8.15631E0,0E0,0E0,0E0,0E0,0E0,0E0,0E0,0E0],"parents":[2147483647,0,0,1,1,2,2,3,3,4,4,5,5,6,6],"right_children":[2,4,6,8,10,12,14,-1,-1,-1,-1,-1,-1,-1,-1],"split_conditions":[-1.8371044E-2,-7.363699E-1,-6.35601E-1,-6.63368E-1,-2.4685176E-1,6.982849E-1,1.6019504E0,6.475905E-2,1.6955728E-2,8.822465E-3,3.850821E-2,-2.809732E-2,-7.2082154E-2,2.421694E-3,4.0151883E-2],"split_indices":[6,6,5,5,0,6,5,0,0,0,0,0,0,0,0],"split_type":[0,0,0,0,0,0,0,0,0,0,0,0,0,0,0],"sum_hessian":[1.8335042E3,7.735897E2,1.0599144E3,2.4152515E2,5.320646E2,7.145012E2,3.4541318E2,1.5110916E2,9.0415985E1,3.2960678E2,2.024578E2,5.512493E2,1.6325189E2,2.7391452E2,7.1498665E1],"tree_param":{"num_deleted":"0","num_feature":"9","num_nodes":"15","size_leaf_vector":"1"}},{"base_weights":[-8.212437E-3,2.3696683E-1,-1.985188E-1,3.3536536E-1,1.0585631E-1,-5.5961794E-1,-8.037584E-2,2.646011E-2,6.35693E-2,-5.788348E-2,1.3025549E-2,-1.7867573E-2,-6.7346096E-2,-3.3842432E-4,-3.3299815E-2],"categories":[],"categories_nodes":[],"categories_segments":[],"categories_sizes":[],"default_left":[0,0,0,0,0,0,0,0,0,0,0,0,0,0,0],"id":7,"left_children":[1,3,5,7,9,11,13,-1,-1,-1,-1,-1,-1,-1,-1],"loss_changes":[8.5094215E1,1.0246483E1,4.3757355E1,9.498039E0,5.8081436E0,1.0849335E1,1.5068569E1,0E0,0E0,0E0,0E0,0E0,0E0,0E0,0E0],"parents":[2147483647,0,0,1,1,2,2,3,3,4,4,5,5,6,6],"right_children":[2,4,6,8,10,12,14,-1,-1,-1,-1,-1,-1,-1,-1],"split_conditions":[-1.5740825E-2,-2.3319823E-1,-2.572252E-1,-3.3211693E-2,-1.8468839E0,-4.527852E-1,7.6927125E-1,2.646011E-2,6.35693E-2,-5.788348E-2,1.3025549E-2,-1.7867573E-2,-6.7346096E-2,-3.3842432E-4,-3.3299815E-2],"split_indices":[6,2,0,4,6,2,6,0,0,0,0,0,0,0,0],"split_type":[0,0,0,0,0,0,0,0,0,0,0,0,0,0,0],"sum_hessian":[1.8217322E3,7.959862E2,1.025746E3,4.5382922E2,3.4215698E2,2.5194612E2,7.737998E2,3.688099E2,8.5019295E1,1.0991428E1,3.3116556E2,5.856042E1,1.9338571E2,5.938314E2,1.7996838E2],"tree_param":{"num_deleted":"0","num_feature":"9","num_nodes":"15","size_leaf_vector":"1"}},{"base_weights":[-2.4082923E-2,2.2070749E-1,-1.9222341E-1,-8.303409E-1,2.3373115E-1,-5.894337E-1,-6.768048E-2,-2.1997852E-2,-1.5316902E-1,3.3867147E-2,9.658421E-3,-1.7558383E-2,-6.972339E-2,1.6789671E-3,-3.4407377E-2],"categories":[],"categories_nodes":[],"categories_segments":[],"categories_sizes":[],"default_left":[0,0,0,0,0,0,0,0,0,0,0,0,0,0,0],"id":8,"left_children":[1,3,5,7,9,11,13,-1,-1,-1,-1,-1,-1,-1,-1],"loss_changes":[7.611957E1,1.050285E1,5.4192146E1,3.7028933E0,1.0684616E1,1.1546143E1,1.951724E1,0E0,0E0,0E0,0E0,0E0,0E0,0E0,0E0],"parents":[2147483647,0,0,1,1,2,2,3,3,4,4,5,5,6,6],"right_children":[2,4,6,8,10,12,14,-1,-1,-1,-1,-1,-1,-1,-1],"split_conditions":[-4.1114736E-2,-2.5788134E-1,-2.5723833E-1,-8.97142E-1,-3.9638793E-1,-5.390717E-1,7.2417027E-1,-2.1997852E-2,-1.5316902E-1,3.3867147E-2,9.658421E-3,-1.7558383E-2,-6.972339E-2,1.6789671E-3,-3.4407377E-2],"split_indices":[6,0,0,5,6,2,6,0,0,0,0,0,0,0,0],"split_type":[0,0,0,0,0,0,0,0,0,0,0,0,0,0,0],"sum_hessian":[1.847364E3,7.520971E2,1.095267E3,8.437159E0,7.4366E2,2.6055014E2,8.347168E2,5.213587E0,3.2235715E0,4.2046478E2,3.2319516E2,5.438653E1,2.061636E2,6.400474E2,1.9466934E2],"tree_param":{"num_deleted":"0","num_feature":"9","num_nodes":"15","size_leaf_vector":"1"}},{"base_weights":[1.5749864E-2,2.2725971E-1,-1.4850888E-1,-4.662226E-1,2.4061628E-1,-3.4757322E-1,4.541752E-2,-6.109205E-2,6.520166E-2,4.174018E-2,1.7594045E-2,-1.2498115E-2,-5.0379664E-2,-7.6510864E-3,2.0014247E-2],"categories":[],"categories_nodes":[],"categories_segments":[],"categories_sizes":[],"default_left":[0,0,0,0,0,0,0,0,0,0,0,0,0,0,0],"id":9,"left_children":[1,3,5,7,9,11,13,-1,-1,-1,-1,-1,-1,-1,-1],"loss_changes":[6.3159256E1,7.472561E0,3.9519974E1,2.883046E0,8.848122E0,1.7500988E1,9.810876E0,0E0,0E0,0E0,0E0,0E0,0E0,0E0,0E0],"parents":[2147483647,0,0,1,1,2,2,3,3,4,4,5,5,6,6],"right_children":[2,4,6,8,10,12,14,-1,-1,-1,-1,-1,-1,-1,-1],"split_conditions":[-1.7055899E-2,-3.0079138E0,-2.546483E-1,5.8828545E0,-8.025816E-1,-1.8815687E-2,-1.5035067E-1,-6.109205E-2,6.520166E-2,4.174018E-2,1.7594045E-2,-1.2498115E-2,-5.0379664E-2,-7.6510864E-3,2.0014247E-2],"split_indices":[6,6,0,4,6,2,4,0,0,0,0,0,0,0,0],"split_type":[0,0,0,0,0,0,0,0,0,0,0,0,0,0,0],"sum_hessian":[1.815962E3,7.9363904E2,1.02232294E3,1.4356066E1,7.7928296E2,5.0408755E2,5.1823535E2,1.3112953E1,1.243113E0,2.0727151E2,5.720115E2,2.086279E2,2.9545966E2,2.9011816E2,2.2811722E2],"tree_param":{"num_deleted":"0","num_feature":"9","num_nodes":"15","size_leaf_vector":"1"}},{"base_weights":[-1.5915394E-3,1.9296327E-1,-1.4601539E-1,2.7088588E-1,8.9442626E-2,-3.6336154E-1,1.5121188E-2,2.166324E-2,5.623749E-2,1.1619319E-2,-5.5301663E-2,-2.713571E-2,-7.356688E-2,1.0563864E-2,-4.8604872E-2],"categories":[],"categories_nodes":[],"categories_segments":[],"categories_sizes":[],"default_left":[0,0,0,0,0,0,0,0,0,0,0,0,0,0,0],"id":10,"left_children":[1,3,5,7,9,11,13,-1,-1,-1,-1,-1,-1,-1,-1],"loss_changes":[5.08653E1,6.19734E0,3.6393124E1,6.8293457E0,5.7825108E0,1.4953598E1,2.7161322E1,0E0,0E0,0E0,0E0,0E0,0E0,0E0,0E0],"parents":[2147483647,0,0,1,1,2,2,3,3,4,4,5,5,6,6],"right_children":[2,4,6,8,10,12,14,-1,-1,-1,-1,-1,-1,-1,-1],"split_conditions":[-1.8371044E-2,-2.3319823E-1,3.985756E-2,-4.1997123E-1,1.6136883E0,7.2417027E-1,1.8921328E0,2.166324E-2,5.623749E-2,1.1619319E-2,-5.5301663E-2,-2.713571E-2,-7.356688E-2,1.0563864E-2,-4.8604872E-2],"split_indices":[6,2,7,2,5,6,7,0,0,0,0,0,0,0,0],"split_type":[0,0,0,0,0,0,0,0,0,0,0,0,0,0,0],"sum_hessian":[1.808256E3,7.702749E2,1.0379811E3,4.3855032E2,3.3172458E2,4.4137946E2,5.966017E2,3.7120322E2,6.734712E1,3.1925082E2,1.2473745E1,3.5530536E2,8.607411E1,5.060009E2,9.060078E1],"tree_param":{"num_deleted":"0","num_feature":"9","num_nodes":"15","size_leaf_vector":"1"}},{"base_weights":[-9.6992194E-4,1.6522115E-1,-1.2666678E-1,9.239718E-2,2.720061E-1,-4.1642547E-1,-4.0071633E-2,1.5220262E-2,-2.1485915E-2,3.84684E-2,-3.3855566E-3,-1.9177683E-3,-5.4560095E-2,3.408505E-3,-2.5272926E-2],"categories":[],"categories_nodes":[],"categories_segments":[],"categories_sizes":[],"default_left":[0,0,0,0,0,0,0,0,0,0,0,0,0,0,0],"id":11,"left_children":[1,3,5,7,9,11,13,-1,-1,-1,-1,-1,-1,-1,-1],"loss_changes":[3.801251E1,6.0686703E0,2.597977E1,8.621595E0,1.0945299E1,1.2216785E1,1.2605336E1,0E0,0E0,0E0,0E0,0E0,0E0,0E0,0E0],"parents":[2147483647,0,0,1,1,2,2,3,3,4,4,5,5,6,6],"right_children":[2,4,6,8,10,12,14,-1,-1,-1,-1,-1,-1,-1,-1],"split_conditions":[-1.7055899E-2,6.5728265E-1,-2.5723833E-1,-1.8520701E-1,3.1037164E-1,-4.6854988E-1,6.982849E-1,1.5220262E-2,-2.1485915E-2,3.84684E-2,-3.3855566E-3,-1.9177683E-3,-5.4560095E-2,3.408505E-3,-2.5272926E-2],"split_indices":[6,7,0,3,2,2,6,0,0,0,0,0,0,0,0],"split_type":[0,0,0,0,0,0,0,0,0,0,0,0,0,0,0],"sum_hessian":[1.8176757E3,7.826175E2,1.0350582E3,4.6640753E2,3.1620996E2,2.3727988E2,7.977783E2,3.9083807E2,7.5569435E1,2.3089261E2,8.531735E1,5.850633E1,1.7877354E2,5.92133E2,2.0564532E2],"tree_param":{"num_deleted":"0","num_feature":"9","num_nodes":"15","size_leaf_vector":"1"}},{"base_weights":[-5.1217317E-3,6.9238424E-2,-2.3864381E-1,-1.2603693E-1,8.295934E-2,-3.632927E-1,2.3901625E-2,-4.3953495E-4,2.2257261E-2,-4.8825067E-2,-1.781223E-2,7.6131135E-2,-5.311084E-3],"categories":[],"categories_nodes":[],"categories_segments":[],"categories_sizes":[],"default_left":[0,0,0,0,0,0,0,0,0,0,0,0,0],"id":12,"left_children":[1,3,5,-1,7,9,11,-1,-1,-1,-1,-1,-1],"loss_changes":[3.1225143E1,2.498758E1,1.4221485E1,0E0,1.6477001E1,6.7283974E0,8.033641E0,0E0,0E0,0E0,0E0,0E0,0E0],"parents":[2147483647,0,0,1,1,2,2,4,4,5,5,6,6],"right_children":[2,4,6,-1,8,10,12,-1,-1,-1,-1,-1,-1],"split_conditions":[3.4199125E-1,-2.5794256E-1,-4.345987E-1,-1.2603693E-1,-2.4685176E-1,-2.5225273E-1,-3.700131E-1,-4.3953495E-4,2.2257261E-2,-4.8825067E-2,-1.781223E-2,7.6131135E-2,-5.311084E-3],"split_indices":[6,0,5,0,0,0,5,0,0,0,0,0,0],"split_type":[0,0,0,0,0,0,0,0,0,0,0,0,0],"sum_hessian":[1.7962411E3,1.362944E3,4.3329712E2,1.29932375E1,1.3499507E3,2.9354623E2,1.3975089E2,8.309818E2,5.189689E2,1.7429231E2,1.19253914E2,1.2374739E1,1.2737615E2],"tree_param":{"num_deleted":"0","num_feature":"9","num_nodes":"13","size_leaf_vector":"1"}},{"base_weights":[-4.96359E-3,1.8205795E-1,-7.896955E-2,2.112166E-1,-3.9300296E-1,-2.5707972E-1,3.8062077E-2,3.2810032E-2,1.2363142E-2,-8.5388005E-2,-1.5272426E-2,-1.8151691E-2,-6.368059E-2,1.0489442E-2,-4.1971818E-2],"categories":[],"categories_nodes":[],"categories_segments":[],"categories_sizes":[],"default_left":[0,0,0,0,0,0,0,0,0,0,0,0,0,0,0],"id":13,"left_children":[1,3,5,7,9,11,13,-1,-1,-1,-1,-1,-1,-1,-1],"loss_changes":[2.5104313E1,8.706011E0,2.7097458E1,4.976595E0,2.6565154E0,1.4673439E1,2.4063503E1,0E0,0E0,0E0,0E0,0E0,0E0,0E0,0E0],"parents":[2147483647,0,0,1,1,2,2,3,3,4,4,5,5,6,6],"right_children":[2,4,6,8,10,12,14,-1,-1,-1,-1,-1,-1,-1,-1],"split_conditions":[-2.546494E-1,1.6364406E0,3.985756E-2,-7.782508E-1,-1.8468839E0,7.2417027E-1,1.8921328E0,3.2810032E-2,1.2363142E-2,-8.5388005E-2,-1.5272426E-2,-1.8151691E-2,-6.368059E-2,1.0489442E-2,-4.1971818E-2],"split_indices":[6,5,7,6,6,6,7,0,0,0,0,0,0,0,0],"split_type":[0,0,0,0,0,0,0,0,0,0,0,0,0,0,0],"sum_hessian":[1.8117638E3,5.132535E2,1.2985104E3,4.8908688E2,2.416661E1,5.144196E2,7.8409076E2,2.0832628E2,2.8076062E2,7.4065137E0,1.6760098E1,4.302758E2,8.414382E1,6.848752E2,9.921556E1],"tree_param":{"num_deleted":"0","num_feature":"9","num_nodes":"15","size_leaf_vector":"1"}},{"base_weights":[-1.19105205E-2,-2.3499335E-1,4.2267457E-2,-1.449115E-1,-5.2111053E-1,8.636381E-2,-2.4690981E-1,-9.17849E-2,-1.0621396E-2,-7.8080826E-2,-3.524093E-2,1.780295E-2,8.966587E-4,-5.6679446E-2,-9.1179935E-3],"categories":[],"categories_nodes":[],"categories_segments":[],"categories_sizes":[],"default_left":[0,0,0,0,0,0,0,0,0,0,0,0,0,0,0],"id":14,"left_children":[1,3,5,7,9,11,13,-1,-1,-1,-1,-1,-1,-1,-1],"loss_changes":[2.1699413E1,8.966488E0,1.8444294E1,7.924575E0,3.3883114E0,8.897474E0,9.483925E0,0E0,0E0,0E0,0E0,0E0,0E0,0E0,0E0],"parents":[2147483647,0,0,1,1,2,2,3,3,4,4,5,5,6,6],"right_children":[2,4,6,8,10,12,14,-1,-1,-1,-1,-1,-1,-1,-1],"split_conditions":[-2.5729185E-1,2.3922603E-1,7.2417027E-1,-2.5794256E-1,-7.6366633E-1,-2.3319823E-1,3.985756E-2,-9.17849E-2,-1.0621396E-2,-7.8080826E-2,-3.524093E-2,1.780295E-2,8.966587E-4,-5.6679446E-2,-9.1179935E-3],"split_indices":[0,6,6,0,5,2,7,0,0,0,0,0,0,0,0],"split_type":[0,0,0,0,0,0,0,0,0,0,0,0,0,0,0],"sum_hessian":[1.7935695E3,3.4981918E2,1.4437502E3,2.671998E2,8.261938E1,1.2533322E3,1.9041805E2,1.1656498E1,2.555433E2,3.1106255E1,5.1513123E1,5.7318195E2,6.8015027E2,6.1484062E1,1.2893398E2],"tree_param":{"num_deleted":"0","num_feature":"9","num_nodes":"15","size_leaf_vector":"1"}},{"base_weights":[5.385604E-3,-1.655859E-1,8.4629506E-2,2.3632437E-1,-2.3617905E-1,1.3221775E-1,-5.1833153E-2,4.600018E-2,-3.814917E-2,-3.027514E-2,4.904145E-3,8.011383E-2,1.2051548E-2,-9.8525025E-3,3.2644387E-2],"categories":[],"categories_nodes":[],"categories_segments":[],"categories_sizes":[],"default_left":[0,0,0,0,0,0,0,0,0,0,0,0,0,0,0],"id":15,"left_children":[1,3,5,7,9,11,13,-1,-1,-1,-1,-1,-1,-1,-1],"loss_changes":[2.4094841E1,1.603616E1,7.8980255E0,1.18733225E1,9.121239E0,6.958246E0,5.5941863E0,0E0,0E0,0E0,0E0,0E0,0E0,0E0,0E0],"parents":[2147483647,0,0,1,1,2,2,3,3,4,4,5,5,6,6],"right_children":[2,4,6,8,10,12,14,-1,-1,-1,-1,-1,-1,-1,-1],"split_conditions":[-2.5674814E-1,-5.911109E-1,3.4199125E-1,-3.9505464E-1,-1.6339542E-1,-1.1373848E0,1.3979409E0,4.600018E-2,-3.814917E-2,-3.027514E-2,4.904145E-3,8.011383E-2,1.2051548E-2,-9.8525025E-3,3.2644387E-2],"split_indices":[0,6,6,3,4,5,1,0,0,0,0,0,0,0,0],"split_type":[0,0,0,0,0,0,0,0,0,0,0,0,0,0,0],"sum_hessian":[1.7763862E3,5.622413E2,1.2141449E3,8.364946E1,4.7859183E2,9.0023846E2,3.1390646E2,6.160213E1,2.2047325E1,3.8797458E2,9.061727E1,1.43183565E1,8.859201E2,2.8007547E2,3.3831013E1],"tree_param":{"num_deleted":"0","num_feature":"9","num_nodes":"15","size_leaf_vector":"1"}},{"base_weights":[-1.5395232E-2,1.0746479E-1,-1.05605885E-1,-9.760443E-3,2.5678185E-1,-1.8758287E-1,4.8669405E-2,7.2863154E-2,-4.7150035E-3,3.0521823E-2,-6.170736E-3,9.343764E-4,-2.7791504E-2,6.415053E-3,-8.051487E-2],"categories":[],"categories_nodes":[],"categories_segments":[],"categories_sizes":[],"default_left":[0,0,0,0,0,0,0,0,0,0,0,0,0,0,0],"id":16,"left_children":[1,3,5,7,9,11,13,-1,-1,-1,-1,-1,-1,-1,-1],"loss_changes":[1.9702333E1,1.3177482E1,1.2971607E1,1.1702218E1,5.1261005E0,1.19122925E1,4.7630715E0,0E0,0E0,0E0,0E0,0E0,0E0,0E0,0E0],"parents":[2147483647,0,0,1,1,2,2,3,3,4,4,5,5,6,6],"right_children":[2,4,6,8,10,12,14,-1,-1,-1,-1,-1,-1,-1,-1],"split_conditions":[-2.3319823E-1,3.485701E-1,-6.3415074E-1,-1.1166757E0,3.613569E-1,-1.7055899E-2,7.203557E0,7.2863154E-2,-4.7150035E-3,3.0521823E-2,-6.170736E-3,9.343764E-4,-2.7791504E-2,6.415053E-3,-8.051487E-2],"split_indices":[2,7,5,5,6,6,0,0,0,0,0,0,0,0,0],"split_type":[0,0,0,0,0,0,0,0,0,0,0,0,0,0,0],"sum_hessian":[1.7756384E3,7.5169543E2,1.02394305E3,4.2162354E2,3.3007187E2,6.685049E2,3.5543814E2,1.9429554E1,4.02194E2,2.865366E2,4.3535297E1,2.1050177E2,4.580031E2,3.5001663E2,5.4215093E0],"tree_param":{"num_deleted":"0","num_feature":"9","num_nodes":"15","size_leaf_vector":"1"}},{"base_weights":[-3.0749205E-3,1.5139179E-1,-6.493695E-2,1.1133737E-1,5.5743676E-1,-1.7035417E-1,6.993039E-2,2.1887148E-2,1.0207231E-3,1.292945E-2,8.482803E-2,-1.2597196E-2,-5.820931E-2,9.494083E-3,-2.9103417E-2],"categories":[],"categories_nodes":[],"categories_segments":[],"categories_sizes":[],"default_left":[0,0,0,0,0,0,0,0,0,0,0,0,0,0,0],"id":17,"left_children":[1,3,5,7,9,11,13,-1,-1,-1,-1,-1,-1,-1,-1],"loss_changes":[1.6985464E1,8.205126E0,1.8056438E1,5.042916E0,5.542532E0,1.2949829E1,5.060915E0,0E0,0E0,0E0,0E0,0E0,0E0,0E0,0E0],"parents":[2147483647,0,0,1,1,2,2,3,3,4,4,5,5,6,6],"right_children":[2,4,6,8,10,12,14,-1,-1,-1,-1,-1,-1,-1,-1],"split_conditions":[-2.546494E-1,-3.1621382E-1,-2.5054076E-1,-5.584679E-1,-6.762671E-1,1.8921328E0,1.8663877E0,2.1887148E-2,1.0207231E-3,1.292945E-2,8.482803E-2,-1.2597196E-2,-5.820931E-2,9.494083E-3,-2.9103417E-2],"split_indices":[6,6,0,2,5,7,2,0,0,0,0,0,0,0,0],"split_type":[0,0,0,0,0,0,0,0,0,0,0,0,0,0,0],"sum_hessian":[1.7755071E3,5.0731558E2,1.2681915E3,4.6292447E2,4.439111E1,7.1166504E2,5.565264E2,2.2379434E2,2.3913014E2,1.85414E1,2.5849709E1,6.435964E2,6.8068665E1,5.211538E2,3.5372623E1],"tree_param":{"num_deleted":"0","num_feature":"9","num_nodes":"15","size_leaf_vector":"1"}},{"base_weights":[-3.5477832E-3,1.6852558E-1,-8.56443E-2,1.9461693E-1,-3.0806157E-1,1.1905038E-2,-2.2739783E-1,3.8762316E-2,1.3362425E-2,-4.3647584E-2,9.0809286E-2,1.4340201E-1,1.0615903E-4,-2.9669572E-2,3.888835E-4],"categories":[],"categories_nodes":[],"categories_segments":[],"categories_sizes":[],"default_left":[0,0,0,0,0,0,0,0,0,0,0,0,0,0,0],"id":18,"left_children":[1,3,5,7,9,11,13,-1,-1,-1,-1,-1,-1,-1,-1],"loss_changes":[2.511884E1,7.201729E0,1.6648275E1,6.3655663E0,5.112421E0,1.1008975E1,7.866747E0,0E0,0E0,0E0,0E0,0E0,0E0,0E0,0E0],"parents":[2147483647,0,0,1,1,2,2,3,3,4,4,5,5,6,6],"right_children":[2,4,6,8,10,12,14,-1,-1,-1,-1,-1,-1,-1,-1],"split_conditions":[-1.8641074E-1,1.6364406E0,1.3937411E0,-1.0112182E0,-3.0646607E-1,-7.1839744E-1,-2.4764119E-1,3.8762316E-2,1.3362425E-2,-4.3647584E-2,9.0809286E-2,1.4340201E-1,1.0615903E-4,-2.9669572E-2,3.888835E-4],"split_indices":[6,5,8,6,6,5,0,0,0,0,0,0,0,0,0],"split_type":[0,0,0,0,0,0,0,0,0,0,0,0,0,0,0],"sum_hessian":[1.7760989E3,5.733374E2,1.2027615E3,5.4413947E2,2.9197948E1,7.130108E2,4.8975064E2,1.2937808E2,4.1476138E2,2.6989244E1,2.2087035E0,4.402304E0,7.086085E2,3.7662408E2,1.1312655E2],"tree_param":{"num_deleted":"0","num_feature":"9","num_nodes":"15","size_leaf_vector":"1"}},{"base_weights":[1.3330257E-2,1.1633565E-1,-5.7322375E-2,1.5641455E-1,-1.7076299E-1,-1.6931733E-1,3.694149E-2,1.0498977E-2,3.771202E-2,-3.462462E-2,3.9381735E-2,-2.5825908E-2,2.0110095E-2,5.8908237E-4,5.973361E-2],"categories":[],"categories_nodes":[],"categories_segments":[],"categories_sizes":[],"default_left":[0,0,0,0,0,0,0,0,0,0,0,0,0,0,0],"id":19,"left_children":[1,3,5,7,9,11,13,-1,-1,-1,-1,-1,-1,-1,-1],"loss_changes":[1.2839218E1,8.285278E0,1.1054964E1,7.114442E0,8.89439E0,1.5815743E1,9.898996E0,0E0,0E0,0E0,0E0,0E0,0E0,0E0,0E0],"parents":[2147483647,0,0,1,1,2,2,3,3,4,4,5,5,6,6],"right_children":[2,4,6,8,10,12,14,-1,-1,-1,-1,-1,-1,-1,-1],"split_conditions":[-2.5969294E-1,3.508195E-1,-4.5691994E-1,-1.2744607E-2,-1.1883363E-1,1.5321131E0,1.5834203E0,1.0498977E-2,3.771202E-2,-3.462462E-2,3.9381735E-2,-2.5825908E-2,2.0110095E-2,5.8908237E-4,5.973361E-2],"split_indices":[2,6,3,6,0,5,7,0,0,0,0,0,0,0,0],"split_type":[0,0,0,0,0,0,0,0,0,0,0,0,0,0,0],"sum_hessian":[1.7622935E3,7.167246E2,1.0455688E3,6.2932605E2,8.739857E1,4.7747922E2,5.680896E2,5.1159845E2,1.177276E2,6.696972E1,2.042885E1,3.8527338E2,9.220584E1,5.3922253E2,2.886704E1],"tree_param":{"num_deleted":"0","num_feature":"9","num_nodes":"15","size_leaf_vector":"1"}},{"base_weights":[1.468886E-3,9.307802E-2,-6.854406E-2,3.122324E-1,1.1509728E-2,-1.5247908E-1,6.8673104E-2,6.387656E-2,1.9559793E-2,-3.2208018E-2,6.126351E-3,5.9656636E-3,-2.3639018E-2,2.4898872E-2,-4.5291665E-3],"categories":[],"categories_nodes":[],"categories_segments":[],"categories_sizes":[],"default_left":[0,0,0,0,0,0,0,0,0,0,0,0,0,0,0],"id":20,"left_children":[1,3,5,7,9,11,13,-1,-1,-1,-1,-1,-1,-1,-1],"loss_changes":[1.1322065E1,1.3665947E1,1.1534479E1,7.772957E0,9.28619E0,1.1070644E1,7.8292756E0,0E0,0E0,0E0,0E0,0E0,0E0,0E0,0E0],"parents":[2147483647,0,0,1,1,2,2,3,3,4,4,5,5,6,6],"right_children":[2,4,6,8,10,12,14,-1,-1,-1,-1,-1,-1,-1,-1],"split_conditions":[-2.1740326E-1,-6.711864E-1,-1.577706E-1,-6.770542E-1,-5.8925354E-1,-4.7257908E-2,4.2578208E-1,6.387656E-2,1.9559793E-2,-3.2208018E-2,6.126351E-3,5.9656636E-3,-2.3639018E-2,2.4898872E-2,-4.5291665E-3],"split_indices":[2,3,4,5,3,6,2,0,0,0,0,0,0,0,0],"split_type":[0,0,0,0,0,0,0,0,0,0,0,0,0,0,0],"sum_hessian":[1.7632648E3,7.6368463E2,9.995801E2,2.0637546E2,5.5730914E2,6.201353E2,3.7944476E2,5.313647E1,1.53239E2,7.162219E1,4.8568698E2,1.7585222E2,4.4428314E2,1.464872E2,2.3295757E2],"tree_param":{"num_deleted":"0","num_feature":"9","num_nodes":"15","size_leaf_vector":"1"}},{"base_weights":[-1.5451038E-3,-1.0153959E0,6.0556987E-3,5.773572E-3,-1.1236979E0,1.6804492E-1,-2.3979383E-2,-1.195519E-1,-2.1580167E-2,2.3992369E-2,-3.5830833E-2,-9.383338E-3,8.259023E-3],"categories":[],"categories_nodes":[],"categories_segments":[],"categories_sizes":[],"default_left":[0,0,0,0,0,0,0,0,0,0,0,0,0],"id":21,"left_children":[1,3,5,-1,7,9,11,-1,-1,-1,-1,-1,-1],"loss_changes":[1.3381432E1,1.5666342E0,8.390733E0,0E0,5.105114E-1,1.0291315E1,1.0839336E1,0E0,0E0,0E0,0E0,0E0,0E0],"parents":[2147483647,0,0,1,1,2,2,4,4,5,5,6,6],"right_children":[2,4,6,-1,8,10,12,-1,-1,-1,-1,-1,-1],"split_conditions":[-2.5794256E-1,-9.448402E-1,-7.6113194E-1,5.773572E-3,6.844509E-1,8.5871404E-1,-1.577706E-1,-1.195519E-1,-2.1580167E-2,2.3992369E-2,-3.5830833E-2,-9.383338E-3,8.259023E-3],"split_indices":[0,2,1,0,6,6,4,0,0,0,0,0,0],"split_type":[0,0,0,0,0,0,0,0,0,0,0,0,0],"sum_hessian":[1.7346793E3,1.1921427E1,1.7227579E3,1.1356376E0,1.07857895E1,2.6874286E2,1.454015E3,9.701528E0,1.0842618E0,2.3693167E2,3.1811193E1,8.783777E2,5.756374E2],"tree_param":{"num_deleted":"0","num_feature":"9","num_nodes":"13","size_leaf_vector":"1"}},{"base_weights":[5.2066374E-4,1.1207003E-1,-4.8048567E-2,-4.4235176E-1,1.3523287E-1,-1.6194478E-1,2.6122069E-2,-5.6477707E-2,5.229493E-2,6.681809E-2,1.0995719E-2,-1.1253024E-2,-4.251354E-2,6.491954E-3,-2.5431423E-2],"categories":[],"categories_nodes":[],"categories_segments":[],"categories_sizes":[],"default_left":[0,0,0,0,0,0,0,0,0,0,0,0,0,0,0],"id":22,"left_children":[1,3,5,7,9,11,13,-1,-1,-1,-1,-1,-1,-1,-1],"loss_changes":[9.478241E0,6.8745637E0,1.0300234E1,2.8379602E0,6.79852E0,6.2052927E0,8.056739E0,0E0,0E0,0E0,0E0,0E0,0E0,0E0,0E0],"parents":[2147483647,0,0,1,1,2,2,3,3,4,4,5,5,6,6],"right_children":[2,4,6,8,10,12,14,-1,-1,-1,-1,-1,-1,-1,-1],"split_conditions":[-2.3058115E-1,-2.5366716E0,3.985756E-2,4.4672656E0,-1.9117054E0,7.2417027E-1,1.8921328E0,-5.6477707E-2,5.229493E-2,6.681809E-2,1.0995719E-2,-1.1253024E-2,-4.251354E-2,6.491954E-3,-2.5431423E-2],"split_indices":[6,6,7,1,2,6,7,0,0,0,0,0,0,0,0],"split_type":[0,0,0,0,0,0,0,0,0,0,0,0,0,0,0],"sum_hessian":[1.7474475E3,5.296616E2,1.2177859E3,2.0515215E1,5.0914642E2,4.7980908E2,7.379768E2,1.8574415E1,1.9407986E0,2.1901825E1,4.872446E2,4.0516595E2,7.464312E1,6.489633E2,8.901351E1],"tree_param":{"num_deleted":"0","num_feature":"9","num_nodes":"15","size_leaf_vector":"1"}},{"base_weights":[-2.3034785E-3,-1.873891E-1,4.0069874E-2,-8.3762014E-1,-1.6197877E-1,2.1941124E-1,5.9982585E-3,2.8262174E-2,-9.6495226E-2,-1.1563557E-2,-5.5058688E-2,4.076385E-2,8.604795E-5,-3.3502627E-2,3.1111399E-3],"categories":[],"categories_nodes":[],"categories_segments":[],"categories_sizes":[],"default_left":[0,0,0,0,0,0,0,0,0,0,0,0,0,0,0],"id":23,"left_children":[1,3,5,7,9,11,13,-1,-1,-1,-1,-1,-1,-1,-1],"loss_changes":[1.3748744E1,5.2602034E0,8.715422E0,1.9904938E0,5.618886E0,9.367366E0,1.0285836E1,0E0,0E0,0E0,0E0,0E0,0E0,0E0,0E0],"parents":[2147483647,0,0,1,1,2,2,3,3,4,4,5,5,6,6],"right_children":[2,4,6,8,10,12,14,-1,-1,-1,-1,-1,-1,-1,-1],"split_conditions":[-2.5729185E-1,-2.5794256E-1,-7.6113194E-1,-8.899375E-1,-2.573492E-1,1.5852051E0,-1.1949925E0,2.8262174E-2,-9.6495226E-2,-1.1563557E-2,-5.5058688E-2,4.076385E-2,8.604795E-5,-3.3502627E-2,3.1111399E-3],"split_indices":[0,0,1,2,0,5,7,0,0,0,0,0,0,0,0],"split_type":[0,0,0,0,0,0,0,0,0,0,0,0,0,0,0],"sum_hessian":[1.7511055E3,3.2557605E2,1.4255294E3,1.1042522E1,3.1453354E2,2.2671887E2,1.1988105E3,1.002568E0,1.0039954E1,2.821799E2,3.2353615E1,1.2134504E2,1.0537383E2,8.137919E1,1.1174314E3],"tree_param":{"num_deleted":"0","num_feature":"9","num_nodes":"15","size_leaf_vector":"1"}},{"base_weights":[1.0246488E-2,1.0036063E-1,-5.084805E-2,4.5242485E-2,3.3202866E-1,-2.0389712E-1,1.3905235E-2,4.946504E-2,1.040853E-3,1.7567864E-2,6.3790634E-2,-2.877307E-2,1.5129973E-3,2.361099E-3,-8.845403E-2],"categories":[],"categories_nodes":[],"categories_segments":[],"categories_sizes":[],"default_left":[0,0,0,0,0,0,0,0,0,0,0,0,0,0,0],"id":24,"left_children":[1,3,5,7,9,11,13,-1,-1,-1,-1,-1,-1,-1,-1],"loss_changes":[9.614097E0,8.993967E0,1.0317813E1,8.935067E0,6.365201E0,5.687392E0,6.406762E0,0E0,0E0,0E0,0E0,0E0,0E0,0E0,0E0],"parents":[2147483647,0,0,1,1,2,2,3,3,4,4,5,5,6,6],"right_children":[2,4,6,8,10,12,14,-1,-1,-1,-1,-1,-1,-1,-1],"split_conditions":[-2.9004994E-1,1.2747077E0,-2.5677618E-1,-1.0438976E0,-6.813597E-1,-2.6236677E-1,2.6575844E0,4.946504E-2,1.040853E-3,1.7567864E-2,6.3790634E-2,-2.877307E-2,1.5129973E-3,2.361099E-3,-8.845403E-2],"split_indices":[2,7,0,5,5,3,2,0,0,0,0,0,0,0,0],"split_type":[0,0,0,0,0,0,0,0,0,0,0,0,0,0,0],"sum_hessian":[1.7443502E3,7.045297E2,1.0398206E3,5.7008997E2,1.3443974E2,3.085029E2,7.313177E2,4.005988E1,5.300301E2,9.0006874E1,4.4432873E1,2.2288065E2,8.562224E1,7.2446515E2,6.8525534E0],"tree_param":{"num_deleted":"0","num_feature":"9","num_nodes":"15","size_leaf_vector":"1"}},{"base_weights":[-1.5802706E-2,-7.915802E-1,-9.577778E-3,-1.928041E-1,-1.1206437E0,1.2291509E-1,-3.828171E-2,1.4677268E-2,-3.5563666E-2,-2.8293414E-2,-1.200208E-1,2.1602476E-2,-1.3482955E-2,-1.33968415E-2,4.771491E-3],"categories":[],"categories_nodes":[],"categories_segments":[],"categories_sizes":[],"default_left":[0,0,0,0,0,0,0,0,0,0,0,0,0,0,0],"id":25,"left_children":[1,3,5,7,9,11,13,-1,-1,-1,-1,-1,-1,-1,-1],"loss_changes":[8.396779E0,2.5111523E0,6.574484E0,3.9041427E-1,2.4192715E-1,7.417032E0,1.1696515E1,0E0,0E0,0E0,0E0,0E0,0E0,0E0,0E0],"parents":[2147483647,0,0,1,1,2,2,3,3,4,4,5,5,6,6],"right_children":[2,4,6,8,10,12,14,-1,-1,-1,-1,-1,-1,-1,-1],"split_conditions":[-2.5794256E-1,-8.97142E-1,-5.7550824E-1,-3.8232347E-1,-7.6980734E-1,-1.9638263E-1,-2.546483E-1,1.4677268E-2,-3.5563666E-2,-2.8293414E-2,-1.200208E-1,2.1602476E-2,-1.3482955E-2,-1.33968415E-2,4.771491E-3],"split_indices":[0,5,6,2,1,1,0,0,0,0,0,0,0,0,0],"split_type":[0,0,0,0,0,0,0,0,0,0,0,0,0,0,0],"sum_hessian":[1.7393364E3,1.284125E1,1.7264952E3,5.116677E0,7.7245736E0,3.0684845E2,1.4196467E3,1.690298E0,3.426379E0,1.0652189E0,6.6593547E0,2.2553595E2,8.1312485E1,6.7170087E2,7.479459E2],"tree_param":{"num_deleted":"0","num_feature":"9","num_nodes":"15","size_leaf_vector":"1"}},{"base_weights":[-7.6114032E-3,-6.894407E-2,8.041086E-2,-7.95772E-2,9.256124E-1,1.3341483E-1,-1.02390364E-1,2.3226488E-2,-1.1498624E-2,1.5054E-1,6.40567E-3,1.846683E-2,-3.9950465E-3,-3.9453547E-2,3.91668E-4],"categories":[],"categories_nodes":[],"categories_segments":[],"categories_sizes":[],"default_left":[0,0,0,0,0,0,0,0,0,0,0,0,0,0,0],"id":26,"left_children":[1,3,5,7,9,11,13,-1,-1,-1,-1,-1,-1,-1,-1],"loss_changes":[9.3566E0,1.0874782E1,6.909988E0,1.1195447E1,5.340007E0,4.9140053E0,4.987854E0,0E0,0E0,0E0,0E0,0E0,0E0,0E0,0E0],"parents":[2147483647,0,0,1,1,2,2,3,3,4,4,5,5,6,6],"right_children":[2,4,6,8,10,12,14,-1,-1,-1,-1,-1,-1,-1,-1],"split_conditions":[-2.4723895E-1,9.6530676E-1,8.604079E-1,-8.267918E-1,1.3842771E0,1.433813E0,1.111164E0,2.3226488E-2,-1.1498624E-2,1.5054E-1,6.40567E-3,1.846683E-2,-3.9950465E-3,-3.9453547E-2,3.91668E-4],"split_indices":[0,3,2,6,4,5,2,0,0,0,0,0,0,0,0],"split_type":[0,0,0,0,0,0,0,0,0,0,0,0,0,0,0],"sum_hessian":[1.7311133E3,1.02035864E3,7.1075464E2,1.0104753E3,9.883339E0,5.512016E2,1.5955304E2,1.0247082E2,9.0800446E2,5.461019E0,4.4223204E0,4.253782E2,1.2582338E2,4.1845383E1,1.1770765E2],"tree_param":{"num_deleted":"0","num_feature":"9","num_nodes":"15","size_leaf_vector":"1"}},{"base_weights":[9.097863E-3,-8.8797015E-1,1.4917898E-2,-2.8124276E-1,-1.15015805E-1,8.8662595E-2,-4.9537096E-2,-6.965741E-2,4.0638987E-2,6.1911296E-2,7.4833794E-3,-1.1327809E-2,6.3722837E-3],"categories":[],"categories_nodes":[],"categories_segments":[],"categories_sizes":[],"default_left":[0,0,0,0,0,0,0,0,0,0,0,0,0],"id":27,"left_children":[1,3,5,7,-1,9,11,-1,-1,-1,-1,-1,-1],"loss_changes":[9.066E0,1.4571381E0,8.197648E0,1.6257192E0,0E0,5.853527E0,6.652152E0,0E0,0E0,0E0,0E0,0E0,0E0],"parents":[2147483647,0,0,1,1,2,2,3,3,5,5,6,6],"right_children":[2,4,6,8,-1,10,12,-1,-1,-1,-1,-1,-1],"split_conditions":[-2.5794256E-1,-8.97142E-1,-1.4062715E-1,-3.984759E-1,-1.15015805E-1,-1.1166757E0,-6.3056034E-1,-6.965741E-2,4.0638987E-2,6.1911296E-2,7.4833794E-3,-1.1327809E-2,6.3722837E-3],"split_indices":[0,5,2,4,0,5,5,0,0,0,0,0,0],"split_type":[0,0,0,0,0,0,0,0,0,0,0,0,0],"sum_hessian":[1.7329229E3,1.0193424E1,1.7227295E3,3.7011929E0,6.4922314E0,8.032891E2,9.194403E2,2.299368E0,1.4018251E0,1.929753E1,7.839916E2,5.883344E2,3.3110593E2],"tree_param":{"num_deleted":"0","num_feature":"9","num_nodes":"13","size_leaf_vector":"1"}},{"base_weights":[1.207011E-3,-8.1645477E-1,6.7603253E-3,-1.6173172E-1,-1.1324056E-1,4.564904E-2,-1.1700426E-1,2.8704414E-2,-7.291872E-2,1.2546662E-3,1.6011447E-2,-6.068584E-2,-8.464514E-3],"categories":[],"categories_nodes":[],"categories_segments":[],"categories_sizes":[],"default_left":[0,0,0,0,0,0,0,0,0,0,0,0,0],"id":28,"left_children":[1,3,5,7,-1,9,11,-1,-1,-1,-1,-1,-1],"loss_changes":[7.8796263E0,2.238419E0,8.3001375E0,1.4767462E0,0E0,4.9695315E0,6.4845366E0,0E0,0E0,0E0,0E0,0E0,0E0],"parents":[2147483647,0,0,1,1,2,2,3,3,5,5,6,6],"right_children":[2,4,6,8,-1,10,12,-1,-1,-1,-1,-1,-1],"split_conditions":[-2.5794256E-1,-8.97142E-1,3.4199125E-1,1.5002964E-1,-1.1324056E-1,-4.213678E-2,3.7807044E-1,2.8704414E-2,-7.291872E-2,1.2546662E-3,1.6011447E-2,-6.068584E-2,-8.464514E-3],"split_indices":[0,5,6,2,0,4,6,0,0,0,0,0,0],"split_type":[0,0,0,0,0,0,0,0,0,0,0,0,0],"sum_hessian":[1.7331049E3,1.07062845E1,1.7223986E3,3.9769716E0,6.7293124E0,1.3110713E3,4.1132733E2,2.4966419E0,1.4803298E0,1.01783276E3,2.932385E2,2.4387915E1,3.8693942E2],"tree_param":{"num_deleted":"0","num_feature":"9","num_nodes":"13","size_leaf_vector":"1"}},{"base_weights":[-2.6850807E-3,8.941001E-2,-5.7981964E-2,1.0501737E-2,2.5796026E-1,-1.0107815E-1,6.429801E-2,-4.549929E-2,4.7681346E-3,1.9404007E-2,9.17493E-2,-2.7184516E-2,-5.1860604E-3,3.9305747E-2,-1.0347149E-3],"categories":[],"categories_nodes":[],"categories_segments":[],"categories_sizes":[],"default_left":[0,0,0,0,0,0,0,0,0,0,0,0,0,0,0],"id":29,"left_children":[1,3,5,7,9,11,13,-1,-1,-1,-1,-1,-1,-1,-1],"loss_changes":[8.805762E0,8.625413E0,5.6999407E0,7.6870832E0,8.541034E0,6.7032557E0,6.9282455E0,0E0,0E0,0E0,0E0,0E0,0E0,0E0,0E0],"parents":[2147483647,0,0,1,1,2,2,3,3,4,4,5,5,6,6],"right_children":[2,4,6,8,10,12,14,-1,-1,-1,-1,-1,-1,-1,-1],"split_conditions":[-3.5919124E-1,6.5728265E-1,-4.2054814E-1,-1.5100664E0,-4.3572497E-1,-5.964875E-1,-2.5556505E-1,-4.549929E-2,4.7681346E-3,1.9404007E-2,9.17493E-2,-2.7184516E-2,-5.1860604E-3,3.9305747E-2,-1.0347149E-3],"split_indices":[2,7,5,6,2,3,0,0,0,0,0,0,0,0,0],"split_type":[0,0,0,0,0,0,0,0,0,0,0,0,0,0,0],"sum_hessian":[1.7271207E3,6.477305E2,1.0793901E3,4.419092E2,2.0582133E2,7.9823474E2,2.8115543E2,3.1854021E1,4.1005518E2,1.8881598E2,1.7005346E1,1.7757852E2,6.2065625E2,5.1235107E1,2.299203E2],"tree_param":{"num_deleted":"0","num_feature":"9","num_nodes":"15","size_leaf_vector":"1"}},{"base_weights":[-1.8994622E-2,-1.4596335E-2,-9.530549E-1,-1.0200099E-1,2.180987E-2,-1.2265805E-1,-5.1061636E-1,-7.484672E-3,-8.432936E-2,3.330576E-3,-2.576361E-2,2.911695E-3,-1.0336473E-1],"categories":[],"categories_nodes":[],"categories_segments":[],"categories_sizes":[],"default_left":[0,0,0,0,0,0,0,0,0,0,0,0,0],"id":30,"left_children":[1,3,5,7,9,-1,11,-1,-1,-1,-1,-1,-1],"loss_changes":[7.0706944E0,5.4671445E0,3.498907E-1,1.0105684E1,3.9060726E0,0E0,1.3836906E0,0E0,0E0,0E0,0E0,0E0,0E0],"parents":[2147483647,0,0,1,1,2,2,3,3,4,4,6,6],"right_children":[2,4,6,8,10,-1,12,-1,-1,-1,-1,-1,-1],"split_conditions":[2.6575844E0,-2.6885498E-1,-8.6878106E-2,-9.2974074E-2,1.6438278E0,-1.2265805E-1,2.4777544E-1,-7.484672E-3,-8.432936E-2,3.330576E-3,-2.576361E-2,2.911695E-3,-1.0336473E-1],"split_indices":[2,7,0,1,5,0,3,0,0,0,0,0,0],"split_type":[0,0,0,0,0,0,0,0,0,0,0,0,0],"sum_hessian":[1.7234761E3,1.7164094E3,7.066573E0,5.0417517E2,1.2122343E3,3.271648E0,3.7949252E0,4.8742142E2,1.6753752E1,1.1651816E3,4.7052612E1,2.3323867E0,1.4625385E0],"tree_param":{"num_deleted":"0","num_feature":"9","num_nodes":"13","size_leaf_vector":"1"}},{"base_weights":[-1.4858533E-2,5.308805E-2,-6.5598615E-2,3.851842E-1,3.3098277E-2,-5.343989E-1,-4.8077706E-2,-9.833447E-4,7.823913E-2,-1.1882643E-3,2.1694275E-2,-7.321327E-2,-1.3911066E-2,1.553343E-2,-8.87313E-3],"categories":[],"categories_nodes":[],"categories_segments":[],"categories_sizes":[],"default_left":[0,0,0,0,0,0,0,0,0,0,0,0,0,0,0],"id":31,"left_children":[1,3,5,7,9,11,13,-1,-1,-1,-1,-1,-1,-1,-1],"loss_changes":[5.976576E0,4.907934E0,8.124847E0,6.59602E0,5.793222E0,2.6847067E0,7.932976E0,0E0,0E0,0E0,0E0,0E0,0E0,0E0,0E0],"parents":[2147483647,0,0,1,1,2,2,3,3,4,4,5,5,6,6],"right_children":[2,4,6,8,10,12,14,-1,-1,-1,-1,-1,-1,-1,-1],"split_conditions":[-2.3319823E-1,-1.0438976E0,-1.1112192E0,-1.0056107E-1,-3.3211693E-2,-9.2201054E-2,-2.4861664E-1,-9.833447E-4,7.823913E-2,-1.1882643E-3,2.1694275E-2,-7.321327E-2,-1.3911066E-2,1.553343E-2,-8.87313E-3],"split_indices":[2,5,6,6,4,4,6,0,0,0,0,0,0,0,0],"split_type":[0,0,0,0,0,0,0,0,0,0,0,0,0,0,0],"sum_hessian":[1.731529E3,7.4023126E2,9.912978E2,4.0989594E1,6.9924164E2,3.4651085E1,9.566467E2,2.1040405E1,1.9949188E1,5.62541E2,1.367006E2,2.2529215E1,1.2121868E1,1.5887717E2,7.9776953E2],"tree_param":{"num_deleted":"0","num_feature":"9","num_nodes":"15","size_leaf_vector":"1"}},{"base_weights":[-4.170803E-3,-4.9490556E-2,5.8886245E-2,2.4275154E-1,-8.733389E-2,-2.0544069E-1,8.278633E-2,4.034465E-2,-4.0508967E-2,-9.986714E-3,9.916591E-2,-2.8497934E-2,1.02137364E-1,5.012833E-2,7.0466856E-3],"categories":[],"categories_nodes":[],"categories_segments":[],"categories_sizes":[],"default_left":[0,0,0,0,0,0,0,0,0,0,0,0,0,0,0],"id":32,"left_children":[1,3,5,7,9,11,13,-1,-1,-1,-1,-1,-1,-1,-1],"loss_changes":[4.9511685E0,1.1169136E1,4.5941734E0,1.2221822E1,1.2177702E1,6.1815276E0,3.394034E0,0E0,0E0,0E0,0E0,0E0,0E0,0E0,0E0],"parents":[2147483647,0,0,1,1,2,2,3,3,4,4,5,5,6,6],"right_children":[2,4,6,8,10,12,14,-1,-1,-1,-1,-1,-1,-1,-1],"split_conditions":[-2.4764119E-1,-7.782508E-1,-1.2442309E0,-6.609339E-1,9.6530676E-1,5.6338143E0,-1.0374858E0,4.034465E-2,-4.0508967E-2,-9.986714E-3,9.916591E-2,-2.8497934E-2,1.02137364E-1,5.012833E-2,7.0466856E-3],"split_indices":[0,6,6,5,3,4,6,0,0,0,0,0,0,0,0],"split_type":[0,0,0,0,0,0,0,0,0,0,0,0,0,0,0],"sum_hessian":[1.7305332E3,1.00700415E3,7.235291E2,1.1482931E2,8.921748E2,5.9365932E1,6.6416315E2,9.230948E1,2.2519833E1,8.8282764E2,9.347215E0,5.647234E1,2.8935916E0,1.785721E1,6.4630597E2],"tree_param":{"num_deleted":"0","num_feature":"9","num_nodes":"15","size_leaf_vector":"1"}},{"base_weights":[5.696228E-3,1.7479751E-2,-3.5187522E-1,-2.0134425E-1,3.7038043E-2,-2.1015532E-1,-1.1694463E0,4.2185478E-2,-2.7908301E-2,-1.9756211E-2,5.667263E-3,-6.329711E-2,1.3181782E-2,2.322691E-2,-1.465395E-1],"categories":[],"categories_nodes":[],"categories_segments":[],"categories_sizes":[],"default_left":[0,0,0,0,0,0,0,0,0,0,0,0,0,0,0],"id":33,"left_children":[1,3,5,7,9,11,13,-1,-1,-1,-1,-1,-1,-1,-1],"loss_changes":[7.2722926E0,7.1566725E0,6.134326E0,6.765042E0,7.0783224E0,7.045314E0,3.6241217E0,0E0,0E0,0E0,0E0,0E0,0E0,0E0,0E0],"parents":[2147483647,0,0,1,1,2,2,3,3,4,4,5,5,6,6],"right_children":[2,4,6,8,10,12,14,-1,-1,-1,-1,-1,-1,-1,-1],"split_conditions":[1.8663877E0,-2.5763568E-1,8.7384135E-1,-1.2463481E0,-1.1949925E0,-2.3279579E-1,-2.0095359E-1,4.2185478E-2,-2.7908301E-2,-1.9756211E-2,5.667263E-3,-6.329711E-2,1.3181782E-2,2.322691E-2,-1.465395E-1],"split_indices":[2,0,4,2,7,0,0,0,0,0,0,0,0,0,0],"split_type":[0,0,0,0,0,0,0,0,0,0,0,0,0,0,0],"sum_hessian":[1.7235106E3,1.6694463E3,5.4064354E1,1.3620865E2,1.5332377E3,4.7148552E1,6.915802E0,1.4615528E1,1.2159312E2,1.17712326E2,1.4155253E3,2.0701845E1,2.6446705E1,1.2431202E0,5.672682E0],"tree_param":{"num_deleted":"0","num_feature":"9","num_nodes":"15","size_leaf_vector":"1"}},{"base_weights":[6.624182E-3,1.5416493E-1,-2.048617E-2,1.26981E-1,1.1389687E0,-1.7899889E-1,1.7764684E-2,1.8841095E-2,-3.2019086E-2,-4.4213694E-2,1.532857E-1,5.251046E-2,-2.3463592E-2,-2.618738E-2,3.7930168E-3],"categories":[],"categories_nodes":[],"categories_segments":[],"categories_sizes":[],"default_left":[0,0,0,0,0,0,0,0,0,0,0,0,0,0,0],"id":34,"left_children":[1,3,5,7,9,11,13,-1,-1,-1,-1,-1,-1,-1,-1],"loss_changes":[6.9619713E0,7.088099E0,8.919685E0,7.3134446E0,5.1193047E0,1.1325926E1,6.6956477E0,0E0,0E0,0E0,0E0,0E0,0E0,0E0,0E0],"parents":[2147483647,0,0,1,1,2,2,3,3,4,4,5,5,6,6],"right_children":[2,4,6,8,10,12,14,-1,-1,-1,-1,-1,-1,-1,-1],"split_conditions":[-7.6113194E-1,4.43512E-1,-5.964875E-1,8.5871404E-1,-7.0784473E-1,-1.5309718E0,-1.1949925E0,1.8841095E-2,-3.2019086E-2,-4.4213694E-2,1.532857E-1,5.251046E-2,-2.3463592E-2,-2.618738E-2,3.7930168E-3],"split_indices":[1,0,3,6,6,2,7,0,0,0,0,0,0,0,0],"split_type":[0,0,0,0,0,0,0,0,0,0,0,0,0,0,0],"sum_hessian":[1.7387548E3,2.691721E2,1.4695826E3,2.6304022E2,6.131859E0,2.8497168E2,1.184611E3,2.3177847E2,3.1261755E1,1.1984941E0,4.9333644E0,2.0251009E1,2.6472067E2,7.887336E1,1.1057377E3],"tree_param":{"num_deleted":"0","num_feature":"9","num_nodes":"15","size_leaf_vector":"1"}},{"base_weights":[-3.0412085E-3,-2.3890387E-1,7.2965827E-3,-1.065563E0,-5.3545225E-2,2.7349107E-2,-1.2944782E-1,-3.482568E-2,-1.6834185E-1,2.7698038E-2,-4.408957E-2,1.6988272E-2,3.9554038E-4,-1.6587023E-2,4.5788772E-2],"categories":[],"categories_nodes":[],"categories_segments":[],"categories_sizes":[],"default_left":[0,0,0,0,0,0,0,0,0,0,0,0,0,0,0],"id":35,"left_children":[1,3,5,7,9,11,13,-1,-1,-1,-1,-1,-1,-1,-1],"loss_changes":[4.202911E0,1.1033138E1,4.5323834E0,5.265401E0,7.8260775E0,4.8049088E0,4.5981874E0,0E0,0E0,0E0,0E0,0E0,0E0,0E0,0E0],"parents":[2147483647,0,0,1,1,2,2,3,3,4,4,5,5,6,6],"right_children":[2,4,6,8,10,12,14,-1,-1,-1,-1,-1,-1,-1,-1],"split_conditions":[-1.5100664E0,3.985756E-2,7.0797E-1,-4.4445387E-1,-5.8938426E-1,-7.6980734E-1,1.630708E0,-3.482568E-2,-1.6834185E-1,2.7698038E-2,-4.408957E-2,1.6988272E-2,3.9554038E-4,-1.6587023E-2,4.5788772E-2],"split_indices":[6,7,6,4,2,1,4,0,0,0,0,0,0,0,0],"split_type":[0,0,0,0,0,0,0,0,0,0,0,0,0,0,0],"sum_hessian":[1.7219913E3,7.1376884E1,1.6506145E3,1.220346E1,5.9173424E1,1.4402175E3,2.1039691E2,6.370829E0,5.8326306E0,3.208245E1,2.7090973E1,2.0217003E2,1.2380475E3,1.9878714E2,1.1609782E1],"tree_param":{"num_deleted":"0","num_feature":"9","num_nodes":"15","size_leaf_vector":"1"}},{"base_weights":[2.5289808E-3,-5.908075E-1,6.851712E-3,8.501448E-2,-9.955909E-1,2.5302399E-2,-1.2990247E-1,3.2671686E-2,-3.4380596E-2,-2.4275398E-2,-1.0837474E-1,-5.221205E-2,3.0820935E-3,-1.6842358E-2,7.490336E-2],"categories":[],"categories_nodes":[],"categories_segments":[],"categories_sizes":[],"default_left":[0,0,0,0,0,0,0,0,0,0,0,0,0,0,0],"id":36,"left_children":[1,3,5,7,9,11,13,-1,-1,-1,-1,-1,-1,-1,-1],"loss_changes":[4.406698E0,3.4841418E0,4.305652E0,6.902921E-1,2.57936E-1,4.5573716E0,6.994729E0,0E0,0E0,0E0,0E0,0E0,0E0,0E0,0E0],"parents":[2147483647,0,0,1,1,2,2,3,3,4,4,5,5,6,6],"right_children":[2,4,6,8,10,12,14,-1,-1,-1,-1,-1,-1,-1,-1],"split_conditions":[-2.5794256E-1,-8.97142E-1,7.2417027E-1,-1.4676865E-2,-7.815296E-1,-3.0079138E0,2.5364785E0,3.2671686E-2,-3.4380596E-2,-2.4275398E-2,-1.0837474E-1,-5.221205E-2,3.0820935E-3,-1.6842358E-2,7.490336E-2],"split_indices":[0,5,6,6,4,6,4,0,0,0,0,0,0,0,0],"split_type":[0,0,0,0,0,0,0,0,0,0,0,0,0,0,0],"sum_hessian":[1.7155438E3,1.1426828E1,1.704117E3,4.5762863E0,6.8505425E0,1.5022504E3,2.018666E2,3.0789533E0,1.4973328E0,1.1115783E0,5.738964E0,1.4058673E1,1.4881917E3,1.9416528E2,7.701298E0],"tree_param":{"num_deleted":"0","num_feature":"9","num_nodes":"15","size_leaf_vector":"1"}},{"base_weights":[3.127754E-3,-7.011929E-1,7.319527E-3,-1.6834445E-1,-9.557775E-1,1.4883193E-1,-1.2560311E-2,-4.7981463E-2,1.810311E-2,-2.2114411E-2,-1.0483726E-1,1.0869181E-2,1.4136612E-1,-9.543531E-2,-9.4537606E-4],"categories":[],"categories_nodes":[],"categories_segments":[],"categories_sizes":[],"default_left":[0,0,0,0,0,0,0,0,0,0,0,0,0,0,0],"id":37,"left_children":[1,3,5,7,9,11,13,-1,-1,-1,-1,-1,-1,-1,-1],"loss_changes":[5.063622E0,1.2156157E0,4.79628E0,5.7594967E-1,2.2069931E-1,1.0508127E1,4.365608E0,0E0,0E0,0E0,0E0,0E0,0E0,0E0,0E0],"parents":[2147483647,0,0,1,1,2,2,3,3,4,4,5,5,6,6],"right_children":[2,4,6,8,10,12,14,-1,-1,-1,-1,-1,-1,-1,-1],"split_conditions":[-2.5794256E-1,-9.029561E-1,-8.420712E-1,-4.7098127E-1,-7.5570184E-1,-7.705741E-1,-8.432408E-1,-4.7981463E-2,1.810311E-2,-2.2114411E-2,-1.0483726E-1,1.0869181E-2,1.4136612E-1,-9.543531E-2,-9.4537606E-4],"split_indices":[0,5,1,1,3,3,3,0,0,0,0,0,0,0,0],"split_type":[0,0,0,0,0,0,0,0,0,0,0,0,0,0,0],"sum_hessian":[1.7123759E3,9.147179E0,1.7032286E3,3.4944682E0,5.6527104E0,2.0899986E2,1.4942288E3,1.6500716E0,1.8443966E0,1.0119967E0,4.6407137E0,2.0362367E2,5.376188E0,3.9058664E0,1.4903229E3],"tree_param":{"num_deleted":"0","num_feature":"9","num_nodes":"15","size_leaf_vector":"1"}},{"base_weights":[1.3160097E-3,6.574076E-2,-3.794778E-2,4.1974172E-2,4.205734E-1,-1.4775164E-1,1.572659E-2,2.4747923E-2,3.3738333E-4,1.49836335E-2,9.6105926E-2,-6.0757764E-2,-1.1684897E-2,4.330584E-3,-3.2223135E-2],"categories":[],"categories_nodes":[],"categories_segments":[],"categories_sizes":[],"default_left":[0,0,0,0,0,0,0,0,0,0,0,0,0,0,0],"id":38,"left_children":[1,3,5,7,9,11,13,-1,-1,-1,-1,-1,-1,-1,-1],"loss_changes":[4.370779E0,5.50008E0,6.3297787E0,4.872362E0,5.849984E0,4.939256E0,6.7435856E0,0E0,0E0,0E0,0E0,0E0,0E0,0E0,0E0],"parents":[2147483647,0,0,1,1,2,2,3,3,4,4,5,5,6,6],"right_children":[2,4,6,8,10,12,14,-1,-1,-1,-1,-1,-1,-1,-1],"split_conditions":[-3.5919124E-1,-4.1997123E-1,1.13542356E-1,-9.782338E-1,9.659952E-1,-1.1949925E0,1.8921328E0,2.4747923E-2,3.3738333E-4,1.49836335E-2,9.6105926E-2,-6.0757764E-2,-1.1684897E-2,4.330584E-3,-3.2223135E-2],"split_indices":[2,2,2,6,7,7,7,0,0,0,0,0,0,0,0],"split_type":[0,0,0,0,0,0,0,0,0,0,0,0,0,0,0],"sum_hessian":[1.7258953E3,6.532903E2,1.072605E3,6.1332806E2,3.996223E1,3.5159006E2,7.210149E2,9.612975E1,5.171983E2,2.7476223E1,1.2486007E1,2.0965542E1,3.306245E2,6.6742145E2,5.359344E1],"tree_param":{"num_deleted":"0","num_feature":"9","num_nodes":"15","size_leaf_vector":"1"}},{"base_weights":[1.1959122E-2,-2.575194E-1,2.3306563E-2,-8.3706096E-2,-9.020635E-1,2.1337268E-1,5.836169E-3,1.8371036E-2,-5.162359E-2,-2.3887081E-2,-1.5815704E-1,3.504426E-2,-1.2583906E-2,1.6554683E-2,-1.6807792E-3],"categories":[],"categories_nodes":[],"categories_segments":[],"categories_sizes":[],"default_left":[0,0,0,0,0,0,0,0,0,0,0,0,0,0,0],"id":39,"left_children":[1,3,5,7,9,11,13,-1,-1,-1,-1,-1,-1,-1,-1],"loss_changes":[5.264395E0,7.7182283E0,5.4811015E0,6.5599194E0,6.234724E0,6.50499E0,5.4748425E0,0E0,0E0,0E0,0E0,0E0,0E0,0E0,0E0],"parents":[2147483647,0,0,1,1,2,2,3,3,4,4,5,5,6,6],"right_children":[2,4,6,8,10,12,14,-1,-1,-1,-1,-1,-1,-1,-1],"split_conditions":[-1.5100664E0,1.596115E0,-8.025816E-1,-4.7562325E-1,-1.2463481E0,-2.6503387E-1,-8.610659E-1,1.8371036E-2,-5.162359E-2,-2.3887081E-2,-1.5815704E-1,3.504426E-2,-1.2583906E-2,1.6554683E-2,-1.6807792E-3],"split_indices":[6,5,6,1,2,1,4,0,0,0,0,0,0,0,0],"split_type":[0,0,0,0,0,0,0,0,0,0,0,0,0,0,0],"sum_hessian":[1.7186139E3,6.8568085E1,1.6500458E3,5.4894604E1,1.3673481E1,1.3795668E2,1.5120891E3,3.4277447E1,2.0617157E1,7.603787E0,6.0696945E0,9.823031E1,3.9726368E1,1.8698062E2,1.3251085E3],"tree_param":{"num_deleted":"0","num_feature":"9","num_nodes":"15","size_leaf_vector":"1"}},{"base_weights":[-1.8991365E-3,-1.0552699E-1,2.1659812E-2,-1.5650839E-1,2.8183973E-1,6.270445E-1,1.6234437E-2,-3.758755E-3,-2.9547185E-2,1.0694633E-1,7.099399E-3,1.0869231E-1,-1.9035988E-2,8.126407E-3,-3.0098336E-3],"categories":[],"categories_nodes":[],"categories_segments":[],"categories_sizes":[],"default_left":[0,0,0,0,0,0,0,0,0,0,0,0,0,0,0],"id":40,"left_children":[1,3,5,7,9,11,13,-1,-1,-1,-1,-1,-1,-1,-1],"loss_changes":[4.238627E0,6.395027E0,4.6361375E0,4.6959114E0,6.1946106E0,4.9202814E0,4.230013E0,0E0,0E0,0E0,0E0,0E0,0E0,0E0,0E0],"parents":[2147483647,0,0,1,1,2,2,3,3,4,4,5,5,6,6],"right_children":[2,4,6,8,10,12,14,-1,-1,-1,-1,-1,-1,-1,-1],"split_conditions":[-2.5729185E-1,-1.0858111E-1,-2.572683E-1,-7.60283E-1,-9.4993286E-2,6.621244E-2,-2.3319823E-1,-3.758755E-3,-2.9547185E-2,1.0694633E-1,7.099399E-3,1.0869231E-1,-1.9035988E-2,8.126407E-3,-3.0098336E-3],"split_indices":[0,4,0,5,4,6,2,0,0,0,0,0,0,0,0],"split_type":[0,0,0,0,0,0,0,0,0,0,0,0,0,0,0],"sum_hessian":[1.734236E3,3.2058994E2,1.4136461E3,2.8383087E2,3.675906E1,1.1538677E1,1.4021074E3,1.5362965E2,1.3020122E2,6.9024386E0,2.985662E1,7.173231E0,4.365446E0,5.830387E2,8.190687E2],"tree_param":{"num_deleted":"0","num_feature":"9","num_nodes":"15","size_leaf_vector":"1"}},{"base_weights":[-3.8415748E-3,3.0018065E-2,-8.177212E-2,-6.406081E-3,2.0542446E-1,-6.517846E-2,-9.3482745E-1,-4.3344516E-3,1.5521037E-2,4.1614816E-2,-7.3812054E-3,-1.6301654E-2,1.2357984E-2,-4.5682967E-2,-1.3734904E-1],"categories":[],"categories_nodes":[],"categories_segments":[],"categories_sizes":[],"default_left":[0,0,0,0,0,0,0,0,0,0,0,0,0,0,0],"id":41,"left_children":[1,3,5,7,9,11,13,-1,-1,-1,-1,-1,-1,-1,-1],"loss_changes":[4.533999E0,7.6548195E0,7.305859E0,5.9342175E0,1.2152757E1,9.467707E0,1.4389944E0,0E0,0E0,0E0,0E0,0E0,0E0,0E0,0E0],"parents":[2147483647,0,0,1,1,2,2,3,3,4,4,5,5,6,6],"right_children":[2,4,6,8,10,12,14,-1,-1,-1,-1,-1,-1,-1,-1],"split_conditions":[1.8779662E-1,-7.543158E-3,3.5546257E0,-3.3211693E-2,-2.4549654E-1,-2.1746393E-1,5.995848E-1,-4.3344516E-3,1.5521037E-2,4.1614816E-2,-7.3812054E-3,-1.6301654E-2,1.2357984E-2,-4.5682967E-2,-1.3734904E-1],"split_indices":[6,6,0,4,0,0,2,0,0,0,0,0,0,0,0],"split_type":[0,0,0,0,0,0,0,0,0,0,0,0,0,0,0],"sum_hessian":[1.7163396E3,1.1969136E3,5.19426E2,9.9190283E2,2.0501083E2,5.105708E2,8.855233E0,8.0796844E2,1.8393436E2,1.1655967E2,8.8451164E1,3.3636227E2,1.742085E2,5.21453E0,3.6407027E0],"tree_param":{"num_deleted":"0","num_feature":"9","num_nodes":"15","size_leaf_vector":"1"}},{"base_weights":[3.50778E-3,7.5044422E-3,-8.0300754E-1,2.7522648E-2,-1.3769613E-1,-3.9686657E-2,-1.1459257E-1,-4.9105915E-3,6.7099184E-3,1.1170508E-1,-1.5522534E-2,-8.97487E-2,9.481301E-2],"categories":[],"categories_nodes":[],"categories_segments":[],"categories_sizes":[],"default_left":[0,0,0,0,0,0,0,0,0,0,0,0,0],"id":42,"left_children":[1,3,5,7,9,11,-1,-1,-1,-1,-1,-1,-1],"loss_changes":[5.5379295E0,4.9704347E0,2.17208E0,4.559969E0,4.730645E0,3.9539466E0,0E0,0E0,0E0,0E0,0E0,0E0,0E0],"parents":[2147483647,0,0,1,1,2,2,3,3,4,4,5,5],"right_children":[2,4,6,8,10,12,-1,-1,-1,-1,-1,-1,-1],"split_conditions":[7.203557E0,6.982849E-1,-2.9004994E-1,-2.5663987E-1,-1.0912943E0,-9.448402E-1,-1.1459257E-1,-4.9105915E-3,6.7099184E-3,1.1170508E-1,-1.5522534E-2,-8.97487E-2,9.481301E-2],"split_indices":[0,6,2,0,3,2,0,0,0,0,0,0,0],"split_type":[0,0,0,0,0,0,0,0,0,0,0,0,0],"sum_hessian":[1.7151868E3,1.707715E3,7.471834E0,1.5015175E3,2.0619757E2,2.6620214E0,4.809813E0,5.112971E2,9.9022034E2,1.9767385E0,2.0422083E2,1.4737178E0,1.1883035E0],"tree_param":{"num_deleted":"0","num_feature":"9","num_nodes":"13","size_leaf_vector":"1"}},{"base_weights":[2.9563371E-2,9.57828E-2,-3.134465E-3,-3.252387E-2,1.8559313E-1,-2.1592301E-1,3.3877898E-2,1.603742E-3,-5.221784E-2,2.0297498E-2,-7.171551E-2,-5.2697207E-3,-4.6155456E-2,-3.590073E-2,4.5580077E-3],"categories":[],"categories_nodes":[],"categories_segments":[],"categories_sizes":[],"default_left":[0,0,0,0,0,0,0,0,0,0,0,0,0,0,0],"id":43,"left_children":[1,3,5,7,9,11,13,-1,-1,-1,-1,-1,-1,-1,-1],"loss_changes":[3.7065191E0,6.5264215E0,9.039687E0,5.5686684E0,5.370905E0,6.7940226E0,4.511857E0,0E0,0E0,0E0,0E0,0E0,0E0,0E0,0E0],"parents":[2147483647,0,0,1,1,2,2,3,3,4,4,5,5,6,6],"right_children":[2,4,6,8,10,12,14,-1,-1,-1,-1,-1,-1,-1,-1],"split_conditions":[-7.0395106E-1,-2.5706652E-1,-6.9183564E-1,-1.9424942E-1,2.7709475E-1,-2.8900743E-1,-2.5767177E-1,1.603742E-3,-5.221784E-2,2.0297498E-2,-7.171551E-2,-5.2697207E-3,-4.6155456E-2,-3.590073E-2,4.5580077E-3],"split_indices":[5,0,5,3,0,1,0,0,0,0,0,0,0,0,0],"split_type":[0,0,0,0,0,0,0,0,0,0,0,0,0,0,0],"sum_hessian":[1.7106958E3,5.648454E2,1.1458503E3,2.3283942E2,3.32006E2,1.6906152E2,9.767888E2,2.1271114E2,2.0128292E1,3.2649472E2,5.511291E0,1.02297714E2,6.676381E1,2.7393959E1,9.493949E2],"tree_param":{"num_deleted":"0","num_feature":"9","num_nodes":"15","size_leaf_vector":"1"}},{"base_weights":[1.7359497E-3,1.3899909E-2,-3.7353694E-1,3.4386083E-2,-1.6706763E-1,3.143104E-1,-4.5735452E-1,-5.277225E-2,4.0226257E-3,-2.3632657E-2,4.602503E-2,-7.452398E-2,8.903246E-2,-1.1930213E-1,-3.1078333E-2],"categories":[],"categories_nodes":[],"categories_segments":[],"categories_sizes":[],"default_left":[0,0,0,0,0,0,0,0,0,0,0,0,0,0,0],"id":44,"left_children":[1,3,5,7,9,11,13,-1,-1,-1,-1,-1,-1,-1,-1],"loss_changes":[7.798687E0,6.1401305E0,3.2361941E0,4.903513E0,7.426878E0,4.581015E0,4.8286123E0,0E0,0E0,0E0,0E0,0E0,0E0,0E0,0E0],"parents":[2147483647,0,0,1,1,2,2,3,3,4,4,5,5,6,6],"right_children":[2,4,6,8,10,12,14,-1,-1,-1,-1,-1,-1,-1,-1],"split_conditions":[1.8663877E0,7.6927125E-1,-8.420712E-1,-3.0079138E0,1.3588204E0,-8.5941386E-1,-5.0368005E-1,-5.277225E-2,4.0226257E-3,-2.3632657E-2,4.602503E-2,-7.452398E-2,8.903246E-2,-1.1930213E-1,-3.1078333E-2],"split_indices":[2,6,1,6,3,3,3,0,0,0,0,0,0,0,0],"split_type":[0,0,0,0,0,0,0,0,0,0,0,0,0,0,0],"sum_hessian":[1.706301E3,1.6536627E3,5.2638264E1,1.4862266E3,1.6743619E2,5.418825E0,4.7219437E1,1.4363868E1,1.4718627E3,1.5134972E2,1.6086464E1,1.8049393E0,3.6138856E0,6.6587E0,4.0560738E1],"tree_param":{"num_deleted":"0","num_feature":"9","num_nodes":"15","size_leaf_vector":"1"}},{"base_weights":[1.6888445E-2,1.4434174E-1,-2.5824194E-3,9.45082E-2,7.4797064E-1,-1.3425125E-2,3.460125E-1,1.2833471E-2,-6.1315622E-2,1.0082928E-1,1.256486E-2,-9.300505E-4,-8.848082E-2,1.07185565E-1,6.4880312E-3],"categories":[],"categories_nodes":[],"categories_segments":[],"categories_sizes":[],"default_left":[0,0,0,0,0,0,0,0,0,0,0,0,0,0,0],"id":45,"left_children":[1,3,5,7,9,11,13,-1,-1,-1,-1,-1,-1,-1,-1],"loss_changes":[4.2465096E0,6.7507358E0,5.6185064E0,5.120473E0,2.6515083E0,5.172415E0,9.080694E0,0E0,0E0,0E0,0E0,0E0,0E0,0E0,0E0],"parents":[2147483647,0,0,1,1,2,2,3,3,4,4,5,5,6,6],"right_children":[2,4,6,8,10,12,14,-1,-1,-1,-1,-1,-1,-1,-1],"split_conditions":[-8.610659E-1,-7.705741E-1,1.5487684E0,-7.949398E-1,-7.8010815E-1,7.203557E0,-5.34392E-1,1.2833471E-2,-6.1315622E-2,1.0082928E-1,1.256486E-2,-9.300505E-4,-8.848082E-2,1.07185565E-1,6.4880312E-3],"split_indices":[4,3,6,3,1,0,3,0,0,0,0,0,0,0,0],"split_type":[0,0,0,0,0,0,0,0,0,0,0,0,0,0,0],"sum_hessian":[1.7100305E3,2.2576889E2,1.4842616E3,2.0961995E2,1.6148937E1,1.4404203E3,4.384138E1,2.0083847E2,8.781475E0,1.09487705E1,5.2001667E0,1.4346401E3,5.780077E0,1.14546E1,3.238678E1],"tree_param":{"num_deleted":"0","num_feature":"9","num_nodes":"15","size_leaf_vector":"1"}},{"base_weights":[-2.013422E-2,3.115127E-2,-6.793206E-2,-1.7304119E-2,2.1413885E-1,-5.6220263E-2,-7.4846315E-1,1.4643306E-2,-5.4339822E-3,7.001525E-2,1.2117199E-2,-1.2737456E-2,3.566682E-3,-1.1383877E-1,-4.5664426E-2],"categories":[],"categories_nodes":[],"categories_segments":[],"categories_sizes":[],"default_left":[0,0,0,0,0,0,0,0,0,0,0,0,0,0,0],"id":46,"left_children":[1,3,5,7,9,11,13,-1,-1,-1,-1,-1,-1,-1,-1],"loss_changes":[4.2247868E0,7.3778896E0,7.0668325E0,4.001023E0,7.7858257E0,5.7445393E0,1.1879997E0,0E0,0E0,0E0,0E0,0E0,0E0,0E0,0E0],"parents":[2147483647,0,0,1,1,2,2,3,3,4,4,5,5,6,6],"right_children":[2,4,6,8,10,12,14,-1,-1,-1,-1,-1,-1,-1,-1],"split_conditions":[-9.8497264E-2,1.2747077E0,2.9432478E0,-7.782508E-1,-7.035116E-1,-2.6236677E-1,1.4978667E0,1.4643306E-2,-5.4339822E-3,7.001525E-2,1.2117199E-2,-1.2737456E-2,3.566682E-3,-1.1383877E-1,-4.5664426E-2],"split_indices":[2,7,0,6,1,3,4,0,0,0,0,0,0,0,0],"split_type":[0,0,0,0,0,0,0,0,0,0,0,0,0,0,0],"sum_hessian":[1.7215999E3,8.306685E2,8.9093134E2,6.574739E2,1.7319466E2,8.769223E2,1.4009039E1,1.2073648E2,5.367374E2,2.6761137E1,1.4643352E2,4.9399942E2,3.8292288E2,4.7547717E0,9.254268E0],"tree_param":{"num_deleted":"0","num_feature":"9","num_nodes":"15","size_leaf_vector":"1"}},{"base_weights":[3.2858987E-4,3.51003E-1,-1.1307593E-2,7.78646E-1,4.7333565E-2,-1.01464964E-1,9.123578E-3,9.296586E-2,-1.53733315E-2,-2.5787804E-2,3.6957033E-2,-5.5377856E-3,-5.2398156E-2,1.209471E-2,-1.2293762E-3],"categories":[],"categories_nodes":[],"categories_segments":[],"categories_sizes":[],"default_left":[0,0,0,0,0,0,0,0,0,0,0,0,0,0,0],"id":47,"left_children":[1,3,5,7,9,11,13,-1,-1,-1,-1,-1,-1,-1,-1],"loss_changes":[7.0105243E0,7.1286616E0,3.0640213E0,3.3598423E0,3.3733826E0,5.9549475E0,3.2504866E0,0E0,0E0,0E0,0E0,0E0,0E0,0E0,0E0],"parents":[2147483647,0,0,1,1,2,2,3,3,4,4,5,5,6,6],"right_children":[2,4,6,8,10,12,14,-1,-1,-1,-1,-1,-1,-1,-1],"split_conditions":[-1.7920531E0,-4.5617083E-1,-2.5729185E-1,-2.1398702E-1,-2.037217E-1,-2.573492E-1,-7.6113194E-1,9.296586E-2,-1.53733315E-2,-2.5787804E-2,3.6957033E-2,-5.5377856E-3,-5.2398156E-2,1.209471E-2,-1.2293762E-3],"split_indices":[2,4,0,0,0,0,1,0,0,0,0,0,0,0,0],"split_type":[0,0,0,0,0,0,0,0,0,0,0,0,0,0,0],"sum_hessian":[1.7160776E3,5.41779E1,1.6618997E3,2.1847292E1,3.233061E1,3.0630228E2,1.3555974E3,1.8804537E1,3.0427544E0,1.6706505E1,1.5624104E1,2.771973E2,2.9104963E1,2.1715381E2,1.1384436E3],"tree_param":{"num_deleted":"0","num_feature":"9","num_nodes":"15","size_leaf_vector":"1"}},{"base_weights":[7.7438576E-4,3.9369753E-3,-8.1391275E-1,-2.0788708E-3,5.0647247E-1,-2.3323354E-1,-1.24485254E-1,-6.068101E-2,1.9441832E-4,-3.4103777E-2,7.667389E-2,3.0974964E-2,-8.589978E-2],"categories":[],"categories_nodes":[],"categories_segments":[],"categories_sizes":[],"default_left":[0,0,0,0,0,0,0,0,0,0,0,0,0],"id":48,"left_children":[1,3,5,7,9,11,-1,-1,-1,-1,-1,-1,-1],"loss_changes":[4.408807E0,5.1534123E0,1.3654666E0,4.1008563E0,4.7093925E0,1.6419451E0,0E0,0E0,0E0,0E0,0E0,0E0,0E0],"parents":[2147483647,0,0,1,1,2,2,3,3,4,4,5,5],"right_children":[2,4,6,8,10,12,-1,-1,-1,-1,-1,-1,-1],"split_conditions":[7.203557E0,3.0065422E0,1.5321131E0,-3.0079138E0,9.866572E-1,5.995848E-1,-1.24485254E-1,-6.068101E-2,1.9441832E-4,-3.4103777E-2,7.667389E-2,3.0974964E-2,-8.589978E-2],"split_indices":[0,4,5,6,0,2,0,0,0,0,0,0,0],"split_type":[0,0,0,0,0,0,0,0,0,0,0,0,0],"sum_hessian":[1.7089037E3,1.7032867E3,5.6169376E0,1.684122E3,1.916474E1,3.0493057E0,2.567632E0,1.0139603E1,1.6739824E3,4.4297423E0,1.4734997E1,1.9030297E0,1.146276E0],"tree_param":{"num_deleted":"0","num_feature":"9","num_nodes":"13","size_leaf_vector":"1"}},{"base_weights":[-4.7497153E-3,-4.5553584E-2,5.6077093E-2,-5.4016966E-2,7.502891E-1,8.276895E-2,-1.3746937E-1,-6.1661364E-3,5.7782363E-2,1.3151883E-1,-8.4515E-3,1.5787309E-2,-2.4533516E-3,-8.0058664E-2,-2.2422583E-3],"categories":[],"categories_nodes":[],"categories_segments":[],"categories_sizes":[],"default_left":[0,0,0,0,0,0,0,0,0,0,0,0,0,0,0],"id":49,"left_children":[1,3,5,7,9,11,13,-1,-1,-1,-1,-1,-1,-1,-1],"loss_changes":[4.254252E0,6.9499416E0,3.5667865E0,4.942735E0,5.2331796E0,4.882969E0,6.373928E0,0E0,0E0,0E0,0E0,0E0,0E0,0E0,0E0],"parents":[2147483647,0,0,1,1,2,2,3,3,4,4,5,5,6,6],"right_children":[2,4,6,8,10,12,14,-1,-1,-1,-1,-1,-1,-1,-1],"split_conditions":[-2.4638173E-1,9.6530676E-1,1.5852051E0,2.110613E0,1.3842771E0,3.513974E-1,1.6019504E0,-6.1661364E-3,5.7782363E-2,1.3151883E-1,-8.4515E-3,1.5787309E-2,-2.4533516E-3,-8.0058664E-2,-2.2422583E-3],"split_indices":[0,3,5,6,4,2,5,0,0,0,0,0,0,0,0],"split_type":[0,0,0,0,0,0,0,0,0,0,0,0,0,0,0],"sum_hessian":[1.712034E3,1.024817E3,6.872171E2,1.01495557E3,9.861412E0,6.044326E2,8.2784515E1,1.0037144E3,1.1241145E1,5.5382905E0,4.323122E0,3.552861E2,2.4914648E2,1.1358212E1,7.14263E1],"tree_param":{"num_deleted":"0","num_feature":"9","num_nodes":"15","size_leaf_vector":"1"}}]},"name":"gbtree"},"learner_model_param":{"base_score":"4.5179054E-1","boost_from_average":"1","num_class":"0","num_feature":"9","num_target":"1"},"objective":{"name":"binary:logistic","reg_loss_param":{"scale_pos_weight":"1"}}},"version":[2,0,0]}